<?xml version="1.0"?>
<MethodSetup Method="BDT::BDT">
  <GeneralInfo>
    <Info name="TMVA Release" value="4.2.1 [262657]"/>
    <Info name="ROOT Release" value="6.12/07 [396295]"/>
    <Info name="Creator" value="jthomasw"/>
    <Info name="Date" value="Tue Jan 29 18:42:55 2019"/>
    <Info name="Host" value="Linux cmsbuild92.cern.ch 2.6.32-696.30.1.el6.x86_64 #1 SMP Tue May 22 06:09:36 CEST 2018 x86_64 x86_64 x86_64 GNU/Linux"/>
    <Info name="Dir" value="/afs/cern.ch/work/j/jthomasw/private/IHEP/BTV/CMSSW/Moriond19/2018Data/CMSSW_10_2_7/src/RecoBTag/PerformanceMeasurements/test/ttbar"/>
    <Info name="Training events" value="8000"/>
    <Info name="TrainingTime" value="1.11767020e+01"/>
    <Info name="AnalysisType" value="Classification"/>
  </GeneralInfo>
  <Options>
    <Option name="V" modified="No">False</Option>
    <Option name="VerbosityLevel" modified="No">Default</Option>
    <Option name="VarTransform" modified="No">None</Option>
    <Option name="H" modified="No">False</Option>
    <Option name="CreateMVAPdfs" modified="No">False</Option>
    <Option name="IgnoreNegWeightsInTraining" modified="No">False</Option>
    <Option name="NTrees" modified="Yes">1000</Option>
    <Option name="MaxDepth" modified="Yes">3</Option>
    <Option name="MinNodeSize" modified="Yes">5%</Option>
    <Option name="nCuts" modified="No">20</Option>
    <Option name="BoostType" modified="Yes">Grad</Option>
    <Option name="AdaBoostR2Loss" modified="No">quadratic</Option>
    <Option name="UseBaggedBoost" modified="No">False</Option>
    <Option name="Shrinkage" modified="Yes">1.000000e+00</Option>
    <Option name="AdaBoostBeta" modified="No">5.000000e-01</Option>
    <Option name="UseRandomisedTrees" modified="No">False</Option>
    <Option name="UseNvars" modified="No">4</Option>
    <Option name="UsePoissonNvars" modified="No">True</Option>
    <Option name="BaggedSampleFraction" modified="No">6.000000e-01</Option>
    <Option name="UseYesNoLeaf" modified="No">True</Option>
    <Option name="NegWeightTreatment" modified="Yes">pray</Option>
    <Option name="Css" modified="No">1.000000e+00</Option>
    <Option name="Cts_sb" modified="No">1.000000e+00</Option>
    <Option name="Ctb_ss" modified="No">1.000000e+00</Option>
    <Option name="Cbb" modified="No">1.000000e+00</Option>
    <Option name="NodePurityLimit" modified="No">5.000000e-01</Option>
    <Option name="SeparationType" modified="No">giniindex</Option>
    <Option name="RegressionLossFunctionBDTG" modified="No">huber</Option>
    <Option name="HuberQuantile" modified="No">7.000000e-01</Option>
    <Option name="DoBoostMonitor" modified="No">False</Option>
    <Option name="UseFisherCuts" modified="No">False</Option>
    <Option name="MinLinCorrForFisher" modified="No">8.000000e-01</Option>
    <Option name="UseExclusiveVars" modified="No">False</Option>
    <Option name="DoPreselection" modified="No">False</Option>
    <Option name="SigToBkgFraction" modified="No">1.000000e+00</Option>
    <Option name="PruneMethod" modified="No">nopruning</Option>
    <Option name="PruneStrength" modified="No">0.000000e+00</Option>
    <Option name="PruningValFraction" modified="No">5.000000e-01</Option>
    <Option name="SkipNormalization" modified="No">False</Option>
    <Option name="nEventsMin" modified="No">0</Option>
    <Option name="UseBaggedGrad" modified="No">False</Option>
    <Option name="GradBaggingFraction" modified="No">6.000000e-01</Option>
    <Option name="UseNTrainEvents" modified="No">0</Option>
    <Option name="NNodesMax" modified="No">0</Option>
  </Options>
  <Variables NVar="12">
    <Variable VarIndex="0" Expression="close_mlj[0]" Label="close_mlj[0]" Title="M(close lepton,jet)GeV" Unit="F" Internal="close_mlj_0_" Type="F" Min="1.55763702e+01" Max="6.96727600e+02"/>
    <Variable VarIndex="1" Expression="close_dphi" Label="close_dphi" Title="#Delta#phi(close lepton,jet)rad" Unit="F" Internal="close_dphi" Type="F" Min="2.67028809e-05" Max="3.14078593e+00"/>
    <Variable VarIndex="2" Expression="close_deta" Label="close_deta" Title="#Delta#eta(close lepton,jet)" Unit="F" Internal="close_deta" Type="F" Min="3.42130661e-04" Max="4.37401962e+00"/>
    <Variable VarIndex="3" Expression="close_lj2ll_dphi" Label="close_lj2ll_dphi" Title="#Delta#phi(close lepton+jet,dilepton)rad" Unit="F" Internal="close_lj2ll_dphi" Type="F" Min="3.68154899e-04" Max="3.14131474e+00"/>
    <Variable VarIndex="4" Expression="close_lj2ll_deta" Label="close_lj2ll_deta" Title="#Delta#eta(close lepton+jet,dilepton)" Unit="F" Internal="close_lj2ll_deta" Type="F" Min="4.42456330e-05" Max="6.28568840e+00"/>
    <Variable VarIndex="5" Expression="far_mlj" Label="far_mlj" Title="M(far lepton,jet)GeV" Unit="F" Internal="far_mlj" Type="F" Min="2.72757740e+01" Max="9.98745911e+02"/>
    <Variable VarIndex="6" Expression="far_dphi" Label="far_dphi" Title="#Delta#phi(far lepton,jet)rad" Unit="F" Internal="far_dphi" Type="F" Min="1.79728866e-03" Max="3.14148879e+00"/>
    <Variable VarIndex="7" Expression="far_deta" Label="far_deta" Title="#Delta#eta(far lepton,jet)" Unit="F" Internal="far_deta" Type="F" Min="2.44408846e-04" Max="4.75982380e+00"/>
    <Variable VarIndex="8" Expression="far_lj2ll_dphi" Label="far_lj2ll_dphi" Title="#Delta#phi(far lepton+jet,dilepton)rad" Unit="F" Internal="far_lj2ll_dphi" Type="F" Min="6.64799518e-06" Max="3.14120388e+00"/>
    <Variable VarIndex="9" Expression="far_lj2ll_deta" Label="far_lj2ll_deta" Title="#Delta#eta(far lepton+jet,dilepton)" Unit="F" Internal="far_lj2ll_deta" Type="F" Min="2.16640474e-04" Max="7.03327560e+00"/>
    <Variable VarIndex="10" Expression="j2ll_dphi" Label="j2ll_dphi" Title="#Delta#phi(dilepton,jet)" Unit="rad" Internal="j2ll_dphi" Type="F" Min="1.89889426e-04" Max="3.14136553e+00"/>
    <Variable VarIndex="11" Expression="j2ll_deta" Label="j2ll_deta" Title="#Delta#eta(dilepton,jet)" Unit="" Internal="j2ll_deta" Type="F" Min="2.96843173e-05" Max="6.68989944e+00"/>
  </Variables>
  <Spectators NSpec="0"/>
  <Classes NClass="2">
    <Class Name="Signal" Index="0"/>
    <Class Name="Background" Index="1"/>
  </Classes>
  <Transformations NTransformations="0"/>
  <MVAPdfs/>
  <Weights NTrees="1000" AnalysisType="1">
    <BinaryTree type="DecisionTree" boostWeight="1.0000000000000000e+00" itree="0">
      <Node pos="s" depth="0" NCoef="0" IVar="0" Cut="1.4531945800781250e+02" cType="1" res="-9.6241763880176509e-15" rms="5.0000000000000000e-01" purity="5.0000000000000000e-01" nType="0">
        <Node pos="l" depth="1" NCoef="0" IVar="7" Cut="1.8052262067794800e+00" cType="1" res="4.4573884457349777e-02" rms="4.9800920486450195e-01" purity="5.4457390308380127e-01" nType="0">
          <Node pos="l" depth="2" NCoef="0" IVar="0" Cut="6.0412025451660156e+01" cType="1" res="9.9142208695411682e-02" rms="4.9007225036621094e-01" purity="5.9914219379425049e-01" nType="0">
            <Node pos="l" depth="3" NCoef="0" IVar="-1" Cut="0.0000000000000000e+00" cType="1" res="2.4401543661952019e-02" rms="4.9985110759735107e-01" purity="5.1220077276229858e-01" nType="-99"/>
            <Node pos="r" depth="3" NCoef="0" IVar="-1" Cut="0.0000000000000000e+00" cType="1" res="2.6599240303039551e-01" rms="4.8198756575584412e-01" purity="6.3299620151519775e-01" nType="-99"/>
          </Node>
          <Node pos="r" depth="2" NCoef="0" IVar="2" Cut="9.0230530500411987e-01" cType="1" res="-7.1409024298191071e-02" rms="4.9487447738647461e-01" purity="4.2859101295471191e-01" nType="0">
            <Node pos="l" depth="3" NCoef="0" IVar="-1" Cut="0.0000000000000000e+00" cType="1" res="3.8337264209985733e-02" rms="4.9963241815567017e-01" purity="5.1916867494583130e-01" nType="-99"/>
            <Node pos="r" depth="3" NCoef="0" IVar="-1" Cut="0.0000000000000000e+00" cType="1" res="-3.5864278674125671e-01" rms="4.6673744916915894e-01" purity="3.2067862153053284e-01" nType="-99"/>
          </Node>
        </Node>
        <Node pos="r" depth="1" NCoef="0" IVar="5" Cut="1.8113122558593750e+02" cType="1" res="-3.0064955353736877e-01" rms="3.9951202273368835e-01" purity="1.9935046136379242e-01" nType="0">
          <Node pos="l" depth="2" NCoef="0" IVar="-1" Cut="0.0000000000000000e+00" cType="1" res="-2.8564974665641785e-01" rms="4.7916704416275024e-01" purity="3.5717514157295227e-01" nType="-99"/>
          <Node pos="r" depth="2" NCoef="0" IVar="-1" Cut="0.0000000000000000e+00" cType="1" res="-8.4011971950531006e-01" rms="2.7120053768157959e-01" purity="7.9940155148506165e-02" nType="-99"/>
        </Node>
      </Node>
    </BinaryTree>
    <BinaryTree type="DecisionTree" boostWeight="1.0000000000000000e+00" itree="1">
      <Node pos="s" depth="0" NCoef="0" IVar="2" Cut="1.2499642372131348e+00" cType="1" res="-5.5058067664504051e-03" rms="4.7392559051513672e-01" purity="5.0000000000000000e-01" nType="0">
        <Node pos="l" depth="1" NCoef="0" IVar="0" Cut="8.7811347961425781e+01" cType="1" res="3.1121151521801949e-02" rms="4.8291558027267456e-01" purity="5.7384192943572998e-01" nType="0">
          <Node pos="l" depth="2" NCoef="0" IVar="7" Cut="2.4014425277709961e+00" cType="1" res="-1.4571704901754856e-02" rms="4.9094179272651672e-01" purity="5.2838617563247681e-01" nType="0">
            <Node pos="l" depth="3" NCoef="0" IVar="-1" Cut="0.0000000000000000e+00" cType="1" res="1.4111290220171213e-03" rms="4.9128147959709167e-01" purity="5.5452841520309448e-01" nType="-99"/>
            <Node pos="r" depth="3" NCoef="0" IVar="-1" Cut="0.0000000000000000e+00" cType="1" res="-2.4173684418201447e-01" rms="4.7614967823028564e-01" purity="3.5277900099754333e-01" nType="-99"/>
          </Node>
          <Node pos="r" depth="2" NCoef="0" IVar="1" Cut="1.5017646551132202e+00" cType="1" res="1.0998409241437912e-01" rms="4.5814195275306702e-01" purity="6.5229558944702148e-01" nType="0">
            <Node pos="l" depth="3" NCoef="0" IVar="-1" Cut="0.0000000000000000e+00" cType="1" res="4.2215183377265930e-01" rms="4.1656625270843506e-01" purity="7.6754182577133179e-01" nType="-99"/>
            <Node pos="r" depth="3" NCoef="0" IVar="-1" Cut="0.0000000000000000e+00" cType="1" res="9.4916604459285736e-02" rms="4.7750052809715271e-01" purity="5.6301695108413696e-01" nType="-99"/>
          </Node>
        </Node>
        <Node pos="r" depth="1" NCoef="0" IVar="10" Cut="2.3938431739807129e+00" cType="1" res="-8.7643541395664215e-02" rms="4.4222173094749451e-01" purity="3.3440592885017395e-01" nType="0">
          <Node pos="l" depth="2" NCoef="0" IVar="2" Cut="1.6458394527435303e+00" cType="1" res="-6.1838019639253616e-02" rms="4.4411355257034302e-01" purity="3.5472801327705383e-01" nType="0">
            <Node pos="l" depth="3" NCoef="0" IVar="-1" Cut="0.0000000000000000e+00" cType="1" res="8.1946868449449539e-03" rms="4.8553228378295898e-01" purity="4.9353125691413879e-01" nType="-99"/>
            <Node pos="r" depth="3" NCoef="0" IVar="-1" Cut="0.0000000000000000e+00" cType="1" res="-2.8341156244277954e-01" rms="4.0162011981010437e-01" purity="2.4661503732204437e-01" nType="-99"/>
          </Node>
          <Node pos="r" depth="2" NCoef="0" IVar="-1" Cut="0.0000000000000000e+00" cType="1" res="-3.5991153120994568e-01" rms="4.3128368258476257e-01" purity="2.8528067469596863e-01" nType="-99"/>
        </Node>
      </Node>
    </BinaryTree>
    <BinaryTree type="DecisionTree" boostWeight="1.0000000000000000e+00" itree="2">
      <Node pos="s" depth="0" NCoef="0" IVar="7" Cut="9.0683096647262573e-01" cType="1" res="3.9663421921432018e-04" rms="4.6420425176620483e-01" purity="5.0000000000000000e-01" nType="0">
        <Node pos="l" depth="1" NCoef="0" IVar="5" Cut="1.3698017883300781e+02" cType="1" res="3.7182047963142395e-02" rms="4.7145524621009827e-01" purity="6.1922878026962280e-01" nType="0">
          <Node pos="l" depth="2" NCoef="0" IVar="5" Cut="9.5166702270507812e+01" cType="1" res="5.5655486881732941e-02" rms="4.7333189845085144e-01" purity="6.3734960556030273e-01" nType="0">
            <Node pos="l" depth="3" NCoef="0" IVar="-1" Cut="0.0000000000000000e+00" cType="1" res="6.4525413326919079e-03" rms="4.8002347350120544e-01" purity="5.8877176046371460e-01" nType="-99"/>
            <Node pos="r" depth="3" NCoef="0" IVar="-1" Cut="0.0000000000000000e+00" cType="1" res="2.0909501612186432e-01" rms="4.6425688266754150e-01" purity="6.7406773567199707e-01" nType="-99"/>
          </Node>
          <Node pos="r" depth="2" NCoef="0" IVar="-1" Cut="0.0000000000000000e+00" cType="1" res="-4.8988722264766693e-02" rms="4.6067157387733459e-01" purity="5.6212502717971802e-01" nType="-99"/>
        </Node>
        <Node pos="r" depth="1" NCoef="0" IVar="6" Cut="1.1978545188903809e+00" cType="1" res="-1.9888348877429962e-02" rms="4.5889729261398315e-01" purity="4.3425238132476807e-01" nType="0">
          <Node pos="l" depth="2" NCoef="0" IVar="9" Cut="5.9996980428695679e-01" cType="1" res="3.6758251488208771e-02" rms="4.5013853907585144e-01" purity="4.8104128241539001e-01" nType="0">
            <Node pos="l" depth="3" NCoef="0" IVar="-1" Cut="0.0000000000000000e+00" cType="1" res="1.6347606480121613e-01" rms="4.5762568712234497e-01" purity="5.9832465648651123e-01" nType="-99"/>
            <Node pos="r" depth="3" NCoef="0" IVar="-1" Cut="0.0000000000000000e+00" cType="1" res="-1.0206005536019802e-02" rms="4.3845900893211365e-01" purity="3.5791382193565369e-01" nType="-99"/>
          </Node>
          <Node pos="r" depth="2" NCoef="0" IVar="7" Cut="1.8184478282928467e+00" cType="1" res="-3.1302738934755325e-02" rms="4.5979800820350647e-01" purity="4.2482432723045349e-01" nType="0">
            <Node pos="l" depth="3" NCoef="0" IVar="-1" Cut="0.0000000000000000e+00" cType="1" res="-1.3009543716907501e-01" rms="4.8024523258209229e-01" purity="5.1023423671722412e-01" nType="-99"/>
            <Node pos="r" depth="3" NCoef="0" IVar="-1" Cut="0.0000000000000000e+00" cType="1" res="-1.3790623284876347e-02" rms="4.3743804097175598e-01" purity="3.4171667695045471e-01" nType="-99"/>
          </Node>
        </Node>
      </Node>
    </BinaryTree>
    <BinaryTree type="DecisionTree" boostWeight="1.0000000000000000e+00" itree="3">
      <Node pos="s" depth="0" NCoef="0" IVar="10" Cut="2.3934664726257324e+00" cType="1" res="8.6633220780640841e-04" rms="4.6128776669502258e-01" purity="5.0000000000000000e-01" nType="0">
        <Node pos="l" depth="1" NCoef="0" IVar="7" Cut="2.7200932502746582e+00" cType="1" res="1.2591658160090446e-02" rms="4.6015861630439758e-01" purity="5.2143210172653198e-01" nType="0">
          <Node pos="l" depth="2" NCoef="0" IVar="5" Cut="8.3148170471191406e+01" cType="1" res="2.0768079906702042e-02" rms="4.6980667114257812e-01" purity="5.6655561923980713e-01" nType="0">
            <Node pos="l" depth="3" NCoef="0" IVar="-1" Cut="0.0000000000000000e+00" cType="1" res="-4.8849835991859436e-02" rms="4.7835877537727356e-01" purity="5.5541485548019409e-01" nType="-99"/>
            <Node pos="r" depth="3" NCoef="0" IVar="-1" Cut="0.0000000000000000e+00" cType="1" res="6.5017700195312500e-02" rms="4.6789309382438660e-01" purity="5.6849807500839233e-01" nType="-99"/>
          </Node>
          <Node pos="r" depth="2" NCoef="0" IVar="10" Cut="1.2545602321624756e+00" cType="1" res="-3.5684034228324890e-02" rms="3.9502608776092529e-01" purity="2.5501090288162231e-01" nType="0">
            <Node pos="l" depth="3" NCoef="0" IVar="-1" Cut="0.0000000000000000e+00" cType="1" res="-4.9949239939451218e-02" rms="4.0988716483116150e-01" purity="2.6649907231330872e-01" nType="-99"/>
            <Node pos="r" depth="3" NCoef="0" IVar="-1" Cut="0.0000000000000000e+00" cType="1" res="-1.4857675135135651e-01" rms="3.7916189432144165e-01" purity="2.4380351603031158e-01" nType="-99"/>
          </Node>
        </Node>
        <Node pos="r" depth="1" NCoef="0" IVar="8" Cut="8.9773803949356079e-01" cType="1" res="-2.8500266373157501e-02" rms="4.6280181407928467e-01" purity="4.4632232189178467e-01" nType="0">
          <Node pos="l" depth="2" NCoef="0" IVar="0" Cut="7.1623855590820312e+01" cType="1" res="-7.9533778131008148e-02" rms="4.6358063817024231e-01" purity="3.8552451133728027e-01" nType="0">
            <Node pos="l" depth="3" NCoef="0" IVar="-1" Cut="0.0000000000000000e+00" cType="1" res="-2.8371334075927734e-01" rms="4.6458312869071960e-01" purity="3.6991664767265320e-01" nType="-99"/>
            <Node pos="r" depth="3" NCoef="0" IVar="-1" Cut="0.0000000000000000e+00" cType="1" res="-1.0168288648128510e-01" rms="4.5909580588340759e-01" purity="3.9633262157440186e-01" nType="-99"/>
          </Node>
          <Node pos="r" depth="2" NCoef="0" IVar="3" Cut="1.9458204507827759e+00" cType="1" res="1.2154044583439827e-02" rms="4.5813018083572388e-01" purity="4.9475511908531189e-01" nType="0">
            <Node pos="l" depth="3" NCoef="0" IVar="-1" Cut="0.0000000000000000e+00" cType="1" res="-4.8120617866516113e-02" rms="4.5013013482093811e-01" purity="4.4735768437385559e-01" nType="-99"/>
            <Node pos="r" depth="3" NCoef="0" IVar="-1" Cut="0.0000000000000000e+00" cType="1" res="1.2161546200513840e-01" rms="4.6505922079086304e-01" purity="5.5533671379089355e-01" nType="-99"/>
          </Node>
        </Node>
      </Node>
    </BinaryTree>
    <BinaryTree type="DecisionTree" boostWeight="1.0000000000000000e+00" itree="4">
      <Node pos="s" depth="0" NCoef="0" IVar="0" Cut="1.7775523376464844e+02" cType="1" res="-1.6196595970541239e-04" rms="4.5920330286026001e-01" purity="5.0000000000000000e-01" nType="0">
        <Node pos="l" depth="1" NCoef="0" IVar="0" Cut="6.9552581787109375e+01" cType="1" res="3.7020959425717592e-03" rms="4.6960833668708801e-01" purity="5.3018200397491455e-01" nType="0">
          <Node pos="l" depth="2" NCoef="0" IVar="4" Cut="7.9560655355453491e-01" cType="1" res="-1.7076330259442329e-02" rms="4.8411291837692261e-01" purity="4.8930165171623230e-01" nType="0">
            <Node pos="l" depth="3" NCoef="0" IVar="-1" Cut="0.0000000000000000e+00" cType="1" res="-1.0319186002016068e-01" rms="4.8505330085754395e-01" purity="4.8485982418060303e-01" nType="-99"/>
            <Node pos="r" depth="3" NCoef="0" IVar="-1" Cut="0.0000000000000000e+00" cType="1" res="2.2265609353780746e-02" rms="4.8161795735359192e-01" purity="4.9314311146736145e-01" nType="-99"/>
          </Node>
          <Node pos="r" depth="2" NCoef="0" IVar="2" Cut="8.0288892984390259e-01" cType="1" res="1.4132814481854439e-02" rms="4.6180313825607300e-01" purity="5.5070382356643677e-01" nType="0">
            <Node pos="l" depth="3" NCoef="0" IVar="-1" Cut="0.0000000000000000e+00" cType="1" res="1.0597391426563263e-01" rms="4.5469635725021362e-01" purity="6.8196552991867065e-01" nType="-99"/>
            <Node pos="r" depth="3" NCoef="0" IVar="-1" Cut="0.0000000000000000e+00" cType="1" res="-1.5376664698123932e-02" rms="4.6523877978324890e-01" purity="4.6533918380737305e-01" nType="-99"/>
          </Node>
        </Node>
        <Node pos="r" depth="1" NCoef="0" IVar="-1" Cut="0.0000000000000000e+00" cType="1" res="-2.1757563948631287e-01" rms="2.8347289562225342e-01" purity="1.0116854310035706e-01" nType="-99"/>
      </Node>
    </BinaryTree>
    <BinaryTree type="DecisionTree" boostWeight="1.0000000000000000e+00" itree="5">
      <Node pos="s" depth="0" NCoef="0" IVar="1" Cut="1.0469464063644409e+00" cType="1" res="-1.1692109546856955e-04" rms="4.5801788568496704e-01" purity="5.0000000000000000e-01" nType="0">
        <Node pos="l" depth="1" NCoef="0" IVar="8" Cut="1.7950119972229004e+00" cType="1" res="1.8586533144116402e-02" rms="4.6379867196083069e-01" purity="5.1134425401687622e-01" nType="0">
          <Node pos="l" depth="2" NCoef="0" IVar="3" Cut="7.4944436550140381e-01" cType="1" res="2.7573795989155769e-02" rms="4.6325057744979858e-01" purity="5.1626688241958618e-01" nType="0">
            <Node pos="l" depth="3" NCoef="0" IVar="-1" Cut="0.0000000000000000e+00" cType="1" res="1.4095194637775421e-01" rms="4.4520306587219238e-01" purity="5.8433187007904053e-01" nType="-99"/>
            <Node pos="r" depth="3" NCoef="0" IVar="-1" Cut="0.0000000000000000e+00" cType="1" res="2.6224112138152122e-02" rms="4.7177490592002869e-01" purity="4.7994497418403625e-01" nType="-99"/>
          </Node>
          <Node pos="r" depth="2" NCoef="0" IVar="-1" Cut="0.0000000000000000e+00" cType="1" res="-1.0660152882337570e-01" rms="4.6287167072296143e-01" purity="4.7765088081359863e-01" nType="-99"/>
        </Node>
        <Node pos="r" depth="1" NCoef="0" IVar="10" Cut="8.9852952957153320e-01" cType="1" res="-1.7819225788116455e-02" rms="4.5176577568054199e-01" purity="4.8926296830177307e-01" nType="0">
          <Node pos="l" depth="2" NCoef="0" IVar="-1" Cut="0.0000000000000000e+00" cType="1" res="-1.9555330276489258e-01" rms="4.4438740611076355e-01" purity="4.2748874425888062e-01" nType="-99"/>
          <Node pos="r" depth="2" NCoef="0" IVar="3" Cut="2.2423954010009766e+00" cType="1" res="-1.1237080208957195e-02" rms="4.5207929611206055e-01" purity="4.9601715803146362e-01" nType="0">
            <Node pos="l" depth="3" NCoef="0" IVar="-1" Cut="0.0000000000000000e+00" cType="1" res="-7.1452031843364239e-03" rms="4.4870275259017944e-01" purity="5.0590890645980835e-01" nType="-99"/>
            <Node pos="r" depth="3" NCoef="0" IVar="-1" Cut="0.0000000000000000e+00" cType="1" res="-1.1224117130041122e-01" rms="4.6418008208274841e-01" purity="4.5506936311721802e-01" nType="-99"/>
          </Node>
        </Node>
      </Node>
    </BinaryTree>
    <BinaryTree type="DecisionTree" boostWeight="1.0000000000000000e+00" itree="6">
      <Node pos="s" depth="0" NCoef="0" IVar="0" Cut="1.4531945800781250e+02" cType="1" res="1.3933127047494054e-04" rms="4.5670151710510254e-01" purity="5.0000000000000000e-01" nType="0">
        <Node pos="l" depth="1" NCoef="0" IVar="5" Cut="2.5857818603515625e+02" cType="1" res="-3.4693067427724600e-03" rms="4.6979266405105591e-01" purity="5.4457390308380127e-01" nType="0">
          <Node pos="l" depth="2" NCoef="0" IVar="11" Cut="2.5911033153533936e+00" cType="1" res="-7.7397725544869900e-03" rms="4.7064697742462158e-01" purity="5.5387359857559204e-01" nType="0">
            <Node pos="l" depth="3" NCoef="0" IVar="-1" Cut="0.0000000000000000e+00" cType="1" res="-2.7666702866554260e-02" rms="4.7092851996421814e-01" purity="5.6385821104049683e-01" nType="-99"/>
            <Node pos="r" depth="3" NCoef="0" IVar="-1" Cut="0.0000000000000000e+00" cType="1" res="1.2742620706558228e-01" rms="4.6275296807289124e-01" purity="4.1770064830780029e-01" nType="-99"/>
          </Node>
          <Node pos="r" depth="2" NCoef="0" IVar="-1" Cut="0.0000000000000000e+00" cType="1" res="1.1566253006458282e-01" rms="4.5694825053215027e-01" purity="4.3730920553207397e-01" nType="-99"/>
        </Node>
        <Node pos="r" depth="1" NCoef="0" IVar="7" Cut="1.8139616250991821e+00" cType="1" res="2.4479489773511887e-02" rms="3.5508751869201660e-01" purity="1.9935046136379242e-01" nType="0">
          <Node pos="l" depth="2" NCoef="0" IVar="-1" Cut="0.0000000000000000e+00" cType="1" res="2.7786540985107422e-01" rms="4.3852210044860840e-01" purity="3.5679620504379272e-01" nType="-99"/>
          <Node pos="r" depth="2" NCoef="0" IVar="-1" Cut="0.0000000000000000e+00" cType="1" res="-1.4891313016414642e-01" rms="2.6723080873489380e-01" purity="8.3874292671680450e-02" nType="-99"/>
        </Node>
      </Node>
    </BinaryTree>
    <BinaryTree type="DecisionTree" boostWeight="1.0000000000000000e+00" itree="7">
      <Node pos="s" depth="0" NCoef="0" IVar="1" Cut="2.2434260845184326e+00" cType="1" res="-7.6484237797558308e-04" rms="4.5553934574127197e-01" purity="5.0000000000000000e-01" nType="0">
        <Node pos="l" depth="1" NCoef="0" IVar="11" Cut="2.8671166896820068e+00" cType="1" res="2.0942911505699158e-03" rms="4.5623144507408142e-01" purity="5.1026791334152222e-01" nType="0">
          <Node pos="l" depth="2" NCoef="0" IVar="5" Cut="2.1979046630859375e+02" cType="1" res="5.6187016889452934e-03" rms="4.6613249182701111e-01" purity="5.4589241743087769e-01" nType="0">
            <Node pos="l" depth="3" NCoef="0" IVar="-1" Cut="0.0000000000000000e+00" cType="1" res="2.1923140157014132e-03" rms="4.6795886754989624e-01" purity="5.5188685655593872e-01" nType="-99"/>
            <Node pos="r" depth="3" NCoef="0" IVar="-1" Cut="0.0000000000000000e+00" cType="1" res="1.2134891748428345e-01" rms="4.4776445627212524e-01" purity="4.9343919754028320e-01" nType="-99"/>
          </Node>
          <Node pos="r" depth="2" NCoef="0" IVar="-1" Cut="0.0000000000000000e+00" cType="1" res="-1.0070502012968063e-01" rms="3.5916721820831299e-01" purity="2.0548750460147858e-01" nType="-99"/>
        </Node>
        <Node pos="r" depth="1" NCoef="0" IVar="-1" Cut="0.0000000000000000e+00" cType="1" res="-8.2564316689968109e-02" rms="4.4641306996345520e-01" purity="3.8441675901412964e-01" nType="-99"/>
      </Node>
    </BinaryTree>
    <BinaryTree type="DecisionTree" boostWeight="1.0000000000000000e+00" itree="8">
      <Node pos="s" depth="0" NCoef="0" IVar="7" Cut="4.5353767275810242e-01" cType="1" res="-1.1666381760733202e-04" rms="4.5509746670722961e-01" purity="5.0000000000000000e-01" nType="0">
        <Node pos="l" depth="1" NCoef="0" IVar="6" Cut="2.4199931621551514e+00" cType="1" res="1.7787963151931763e-02" rms="4.5694276690483093e-01" purity="6.3438028097152710e-01" nType="0">
          <Node pos="l" depth="2" NCoef="0" IVar="-1" Cut="0.0000000000000000e+00" cType="1" res="1.2324794381856918e-01" rms="4.4145837426185608e-01" purity="7.0011365413665771e-01" nType="-99"/>
          <Node pos="r" depth="2" NCoef="0" IVar="-1" Cut="0.0000000000000000e+00" cType="1" res="-2.4277362972497940e-02" rms="4.6773147583007812e-01" purity="5.7900279760360718e-01" nType="-99"/>
        </Node>
        <Node pos="r" depth="1" NCoef="0" IVar="2" Cut="4.1688284277915955e-01" cType="1" res="-4.1800248436629772e-03" rms="4.5457944273948669e-01" purity="4.6950310468673706e-01" nType="0">
          <Node pos="l" depth="2" NCoef="0" IVar="0" Cut="5.5307155609130859e+01" cType="1" res="1.7197357490658760e-02" rms="4.6756371855735779e-01" purity="5.9209185838699341e-01" nType="0">
            <Node pos="l" depth="3" NCoef="0" IVar="-1" Cut="0.0000000000000000e+00" cType="1" res="-7.2829075157642365e-02" rms="4.7918546199798584e-01" purity="4.4067448377609253e-01" nType="-99"/>
            <Node pos="r" depth="3" NCoef="0" IVar="-1" Cut="0.0000000000000000e+00" cType="1" res="8.7755464017391205e-02" rms="4.6118479967117310e-01" purity="6.5277570486068726e-01" nType="-99"/>
          </Node>
          <Node pos="r" depth="2" NCoef="0" IVar="6" Cut="2.9919564723968506e+00" cType="1" res="-1.0879619047045708e-02" rms="4.5022433996200562e-01" purity="4.3108421564102173e-01" nType="0">
            <Node pos="l" depth="3" NCoef="0" IVar="-1" Cut="0.0000000000000000e+00" cType="1" res="-3.7720002233982086e-02" rms="4.4924712181091309e-01" purity="4.3086016178131104e-01" nType="-99"/>
            <Node pos="r" depth="3" NCoef="0" IVar="-1" Cut="0.0000000000000000e+00" cType="1" res="7.1473419666290283e-02" rms="4.5778918266296387e-01" purity="4.3325752019882202e-01" nType="-99"/>
          </Node>
        </Node>
      </Node>
    </BinaryTree>
    <BinaryTree type="DecisionTree" boostWeight="1.0000000000000000e+00" itree="9">
      <Node pos="s" depth="0" NCoef="0" IVar="6" Cut="1.4968885183334351e+00" cType="1" res="2.1640282648149878e-04" rms="4.5422551035881042e-01" purity="5.0000000000000000e-01" nType="0">
        <Node pos="l" depth="1" NCoef="0" IVar="8" Cut="2.9921492934226990e-01" cType="1" res="1.6771404072642326e-02" rms="4.3812882900238037e-01" purity="4.9822977185249329e-01" nType="0">
          <Node pos="l" depth="2" NCoef="0" IVar="-1" Cut="0.0000000000000000e+00" cType="1" res="1.3417518138885498e-01" rms="4.5115453004837036e-01" purity="5.5933600664138794e-01" nType="-99"/>
          <Node pos="r" depth="2" NCoef="0" IVar="10" Cut="8.8483417034149170e-01" cType="1" res="1.3603677507489920e-03" rms="4.3198746442794800e-01" purity="4.7452250123023987e-01" nType="0">
            <Node pos="l" depth="3" NCoef="0" IVar="-1" Cut="0.0000000000000000e+00" cType="1" res="-6.5312467515468597e-02" rms="4.3904313445091248e-01" purity="4.8587706685066223e-01" nType="-99"/>
            <Node pos="r" depth="3" NCoef="0" IVar="-1" Cut="0.0000000000000000e+00" cType="1" res="7.9654604196548462e-02" rms="4.2291855812072754e-01" purity="4.6302840113639832e-01" nType="-99"/>
          </Node>
        </Node>
        <Node pos="r" depth="1" NCoef="0" IVar="5" Cut="8.5830505371093750e+01" cType="1" res="-3.4786490723490715e-03" rms="4.5765924453735352e-01" purity="5.0039511919021606e-01" nType="0">
          <Node pos="l" depth="2" NCoef="0" IVar="-1" Cut="0.0000000000000000e+00" cType="1" res="-8.3993583917617798e-02" rms="4.7924384474754333e-01" purity="5.2356904745101929e-01" nType="-99"/>
          <Node pos="r" depth="2" NCoef="0" IVar="5" Cut="1.6122634887695312e+02" cType="1" res="5.7596468832343817e-04" rms="4.5489823818206787e-01" purity="4.9768793582916260e-01" nType="0">
            <Node pos="l" depth="3" NCoef="0" IVar="-1" Cut="0.0000000000000000e+00" cType="1" res="2.5260314345359802e-02" rms="4.7072923183441162e-01" purity="5.6967914104461670e-01" nType="-99"/>
            <Node pos="r" depth="3" NCoef="0" IVar="-1" Cut="0.0000000000000000e+00" cType="1" res="-4.5950330793857574e-02" rms="4.2701557278633118e-01" purity="3.7913602590560913e-01" nType="-99"/>
          </Node>
        </Node>
      </Node>
    </BinaryTree>
    <BinaryTree type="DecisionTree" boostWeight="1.0000000000000000e+00" itree="10">
      <Node pos="s" depth="0" NCoef="0" IVar="9" Cut="1.3398469686508179e+00" cType="1" res="4.1671213693916798e-05" rms="4.5361483097076416e-01" purity="5.0000000000000000e-01" nType="0">
        <Node pos="l" depth="1" NCoef="0" IVar="4" Cut="8.9799338579177856e-01" cType="1" res="-4.8653231933712959e-03" rms="4.6222212910652161e-01" purity="5.2605652809143066e-01" nType="0">
          <Node pos="l" depth="2" NCoef="0" IVar="2" Cut="8.9545840024948120e-01" cType="1" res="-1.6334932297468185e-02" rms="4.6042224764823914e-01" purity="5.7250535488128662e-01" nType="0">
            <Node pos="l" depth="3" NCoef="0" IVar="-1" Cut="0.0000000000000000e+00" cType="1" res="-1.2009536148980260e-03" rms="4.5272669196128845e-01" purity="6.1874759197235107e-01" nType="-99"/>
            <Node pos="r" depth="3" NCoef="0" IVar="-1" Cut="0.0000000000000000e+00" cType="1" res="-1.0882548987865448e-01" rms="4.7306805849075317e-01" purity="4.8595163226127625e-01" nType="-99"/>
          </Node>
          <Node pos="r" depth="2" NCoef="0" IVar="10" Cut="1.7947595119476318e+00" cType="1" res="8.0073168501257896e-03" rms="4.6389627456665039e-01" purity="4.7392579913139343e-01" nType="0">
            <Node pos="l" depth="3" NCoef="0" IVar="-1" Cut="0.0000000000000000e+00" cType="1" res="-3.2170083373785019e-02" rms="4.6147742867469788e-01" purity="4.7968494892120361e-01" nType="-99"/>
            <Node pos="r" depth="3" NCoef="0" IVar="-1" Cut="0.0000000000000000e+00" cType="1" res="6.4631395041942596e-02" rms="4.6516332030296326e-01" purity="4.6899494528770447e-01" nType="-99"/>
          </Node>
        </Node>
        <Node pos="r" depth="1" NCoef="0" IVar="7" Cut="1.3607519865036011e+00" cType="1" res="1.4264003373682499e-02" rms="4.2737191915512085e-01" purity="4.2447823286056519e-01" nType="0">
          <Node pos="l" depth="2" NCoef="0" IVar="7" Cut="5.1736068725585938e-01" cType="1" res="3.5265836864709854e-02" rms="4.6517771482467651e-01" purity="5.9412592649459839e-01" nType="0">
            <Node pos="l" depth="3" NCoef="0" IVar="-1" Cut="0.0000000000000000e+00" cType="1" res="1.4135603606700897e-01" rms="4.5576253533363342e-01" purity="6.5167105197906494e-01" nType="-99"/>
            <Node pos="r" depth="3" NCoef="0" IVar="-1" Cut="0.0000000000000000e+00" cType="1" res="3.8976185023784637e-02" rms="4.7116708755493164e-01" purity="5.5164188146591187e-01" nType="-99"/>
          </Node>
          <Node pos="r" depth="2" NCoef="0" IVar="4" Cut="1.7494767904281616e+00" cType="1" res="-4.2296610772609711e-03" rms="3.9013159275054932e-01" purity="2.7509093284606934e-01" nType="0">
            <Node pos="l" depth="3" NCoef="0" IVar="-1" Cut="0.0000000000000000e+00" cType="1" res="-8.7006211280822754e-02" rms="4.1929653286933899e-01" purity="3.4321871399879456e-01" nType="-99"/>
            <Node pos="r" depth="3" NCoef="0" IVar="-1" Cut="0.0000000000000000e+00" cType="1" res="8.0290436744689941e-02" rms="3.6114576458930969e-01" purity="2.1591237187385559e-01" nType="-99"/>
          </Node>
        </Node>
      </Node>
    </BinaryTree>
    <BinaryTree type="DecisionTree" boostWeight="1.0000000000000000e+00" itree="11">
      <Node pos="s" depth="0" NCoef="0" IVar="2" Cut="6.2515318393707275e-01" cType="1" res="2.1931651644990779e-05" rms="4.5268911123275757e-01" purity="5.0000000000000000e-01" nType="0">
        <Node pos="l" depth="1" NCoef="0" IVar="6" Cut="2.8436222076416016e+00" cType="1" res="-1.1774624697864056e-02" rms="4.6303176879882812e-01" purity="5.8597737550735474e-01" nType="0">
          <Node pos="l" depth="2" NCoef="0" IVar="8" Cut="8.9726442098617554e-01" cType="1" res="-3.5358034074306488e-04" rms="4.6271967887878418e-01" purity="6.0212010145187378e-01" nType="0">
            <Node pos="l" depth="3" NCoef="0" IVar="-1" Cut="0.0000000000000000e+00" cType="1" res="4.2009826749563217e-02" rms="4.6416035294532776e-01" purity="5.8231031894683838e-01" nType="-99"/>
            <Node pos="r" depth="3" NCoef="0" IVar="-1" Cut="0.0000000000000000e+00" cType="1" res="-4.4723235070705414e-02" rms="4.6060532331466675e-01" purity="6.2108832597732544e-01" nType="-99"/>
          </Node>
          <Node pos="r" depth="2" NCoef="0" IVar="-1" Cut="0.0000000000000000e+00" cType="1" res="-1.7002420127391815e-01" rms="4.5982572436332703e-01" purity="4.9866798520088196e-01" nType="-99"/>
        </Node>
        <Node pos="r" depth="1" NCoef="0" IVar="6" Cut="2.2444167137145996e+00" cType="1" res="6.6414289176464081e-03" rms="4.4664415717124939e-01" purity="4.5175480842590332e-01" nType="0">
          <Node pos="l" depth="2" NCoef="0" IVar="3" Cut="1.6442189216613770e+00" cType="1" res="-5.7117193937301636e-03" rms="4.3991354107856750e-01" purity="4.3796291947364807e-01" nType="0">
            <Node pos="l" depth="3" NCoef="0" IVar="-1" Cut="0.0000000000000000e+00" cType="1" res="3.0482599511742592e-02" rms="4.4015669822692871e-01" purity="4.6313756704330444e-01" nType="-99"/>
            <Node pos="r" depth="3" NCoef="0" IVar="-1" Cut="0.0000000000000000e+00" cType="1" res="-1.7345596849918365e-01" rms="4.3370795249938965e-01" purity="3.5001966357231140e-01" nType="-99"/>
          </Node>
          <Node pos="r" depth="2" NCoef="0" IVar="0" Cut="1.0871381378173828e+02" cType="1" res="1.5710005536675453e-02" rms="4.5130616426467896e-01" purity="4.6187958121299744e-01" nType="0">
            <Node pos="l" depth="3" NCoef="0" IVar="-1" Cut="0.0000000000000000e+00" cType="1" res="7.4723780155181885e-02" rms="4.7373554110527039e-01" purity="5.3608572483062744e-01" nType="-99"/>
            <Node pos="r" depth="3" NCoef="0" IVar="-1" Cut="0.0000000000000000e+00" cType="1" res="-2.2740965709090233e-02" rms="4.1643023490905762e-01" purity="3.5699865221977234e-01" nType="-99"/>
          </Node>
        </Node>
      </Node>
    </BinaryTree>
    <BinaryTree type="DecisionTree" boostWeight="1.0000000000000000e+00" itree="12">
      <Node pos="s" depth="0" NCoef="0" IVar="0" Cut="8.0447914123535156e+01" cType="1" res="3.5121429391438141e-05" rms="4.5157036185264587e-01" purity="5.0000000000000000e-01" nType="0">
        <Node pos="l" depth="1" NCoef="0" IVar="7" Cut="1.7465703487396240e+00" cType="1" res="-7.8000877983868122e-03" rms="4.7730547189712524e-01" purity="5.0412535667419434e-01" nType="0">
          <Node pos="l" depth="2" NCoef="0" IVar="6" Cut="1.9474055767059326e+00" cType="1" res="5.4442305117845535e-03" rms="4.7980746626853943e-01" purity="5.5262571573257446e-01" nType="0">
            <Node pos="l" depth="3" NCoef="0" IVar="-1" Cut="0.0000000000000000e+00" cType="1" res="1.0878973454236984e-01" rms="4.6618625521659851e-01" purity="6.2386506795883179e-01" nType="-99"/>
            <Node pos="r" depth="3" NCoef="0" IVar="-1" Cut="0.0000000000000000e+00" cType="1" res="-3.1376715749502182e-02" rms="4.8448091745376587e-01" purity="5.2076458930969238e-01" nType="-99"/>
          </Node>
          <Node pos="r" depth="2" NCoef="0" IVar="0" Cut="5.8817729949951172e+01" cType="1" res="-3.8814250379800797e-02" rms="4.6993637084960938e-01" purity="3.9055219292640686e-01" nType="0">
            <Node pos="l" depth="3" NCoef="0" IVar="-1" Cut="0.0000000000000000e+00" cType="1" res="-1.8928553164005280e-01" rms="4.5997923612594604e-01" purity="3.5836544632911682e-01" nType="-99"/>
            <Node pos="r" depth="3" NCoef="0" IVar="-1" Cut="0.0000000000000000e+00" cType="1" res="6.5635326318442822e-03" rms="4.7445896267890930e-01" purity="4.1842451691627502e-01" nType="-99"/>
          </Node>
        </Node>
        <Node pos="r" depth="1" NCoef="0" IVar="7" Cut="1.8137429952621460e+00" cType="1" res="5.8206692337989807e-03" rms="4.3149232864379883e-01" purity="4.9695381522178650e-01" nType="0">
          <Node pos="l" depth="2" NCoef="0" IVar="2" Cut="9.4384306669235229e-01" cType="1" res="-6.7642643116414547e-03" rms="4.4744029641151428e-01" purity="6.0454064607620239e-01" nType="0">
            <Node pos="l" depth="3" NCoef="0" IVar="-1" Cut="0.0000000000000000e+00" cType="1" res="2.8853535652160645e-02" rms="4.2420589923858643e-01" purity="7.2752422094345093e-01" nType="-99"/>
            <Node pos="r" depth="3" NCoef="0" IVar="-1" Cut="0.0000000000000000e+00" cType="1" res="-4.9382235854864120e-02" rms="4.6468314528465271e-01" purity="5.0639241933822632e-01" nType="-99"/>
          </Node>
          <Node pos="r" depth="2" NCoef="0" IVar="7" Cut="2.9375071525573730e+00" cType="1" res="2.4404546245932579e-02" rms="4.0608808398246765e-01" purity="3.3808287978172302e-01" nType="0">
            <Node pos="l" depth="3" NCoef="0" IVar="-1" Cut="0.0000000000000000e+00" cType="1" res="1.2598294019699097e-01" rms="4.3743637204170227e-01" purity="4.2208600044250488e-01" nType="-99"/>
            <Node pos="r" depth="3" NCoef="0" IVar="-1" Cut="0.0000000000000000e+00" cType="1" res="-5.7177633047103882e-02" rms="3.3721390366554260e-01" purity="1.8259404599666595e-01" nType="-99"/>
          </Node>
        </Node>
      </Node>
    </BinaryTree>
    <BinaryTree type="DecisionTree" boostWeight="1.0000000000000000e+00" itree="13">
      <Node pos="s" depth="0" NCoef="0" IVar="6" Cut="2.5434522628784180e+00" cType="1" res="-1.4198780991137028e-04" rms="4.5027831196784973e-01" purity="5.0000000000000000e-01" nType="0">
        <Node pos="l" depth="1" NCoef="0" IVar="1" Cut="2.2434964179992676e+00" cType="1" res="-6.9027883000671864e-03" rms="4.5044153928756714e-01" purity="5.0818872451782227e-01" nType="0">
          <Node pos="l" depth="2" NCoef="0" IVar="3" Cut="2.2439014911651611e+00" cType="1" res="-3.2692966051399708e-03" rms="4.5216977596282959e-01" purity="5.2481257915496826e-01" nType="0">
            <Node pos="l" depth="3" NCoef="0" IVar="-1" Cut="0.0000000000000000e+00" cType="1" res="-2.2784356027841568e-02" rms="4.4913876056671143e-01" purity="5.2733337879180908e-01" nType="-99"/>
            <Node pos="r" depth="3" NCoef="0" IVar="-1" Cut="0.0000000000000000e+00" cType="1" res="7.5198978185653687e-02" rms="4.6808451414108276e-01" purity="5.1006335020065308e-01" nType="-99"/>
          </Node>
          <Node pos="r" depth="2" NCoef="0" IVar="-1" Cut="0.0000000000000000e+00" cType="1" res="-1.2229152768850327e-01" rms="4.3029406666755676e-01" purity="3.3569604158401489e-01" nType="-99"/>
        </Node>
        <Node pos="r" depth="1" NCoef="0" IVar="6" Cut="2.9991066455841064e+00" cType="1" res="1.1000924743711948e-02" rms="4.4978746771812439e-01" purity="4.8650363087654114e-01" nType="0">
          <Node pos="l" depth="2" NCoef="0" IVar="8" Cut="5.9832990169525146e-01" cType="1" res="1.9492233172059059e-02" rms="4.4629636406898499e-01" purity="4.9770414829254150e-01" nType="0">
            <Node pos="l" depth="3" NCoef="0" IVar="-1" Cut="0.0000000000000000e+00" cType="1" res="-1.5726380050182343e-02" rms="4.4335842132568359e-01" purity="4.3749961256980896e-01" nType="-99"/>
            <Node pos="r" depth="3" NCoef="0" IVar="-1" Cut="0.0000000000000000e+00" cType="1" res="8.3904832601547241e-02" rms="4.4726213812828064e-01" purity="5.3068715333938599e-01" nType="-99"/>
          </Node>
          <Node pos="r" depth="2" NCoef="0" IVar="-1" Cut="0.0000000000000000e+00" cType="1" res="-3.8198031485080719e-02" rms="4.5947492122650146e-01" purity="4.5166561007499695e-01" nType="-99"/>
        </Node>
      </Node>
    </BinaryTree>
    <BinaryTree type="DecisionTree" boostWeight="1.0000000000000000e+00" itree="14">
      <Node pos="s" depth="0" NCoef="0" IVar="7" Cut="2.4933574199676514e+00" cType="1" res="5.1259062274766620e-06" rms="4.4965714216232300e-01" purity="5.0000000000000000e-01" nType="0">
        <Node pos="l" depth="1" NCoef="0" IVar="11" Cut="2.0381755828857422e+00" cType="1" res="-3.6248452961444855e-03" rms="4.6073913574218750e-01" purity="5.4962015151977539e-01" nType="0">
          <Node pos="l" depth="2" NCoef="0" IVar="1" Cut="7.4019753932952881e-01" cType="1" res="-1.9056915334658697e-05" rms="4.6109431982040405e-01" purity="5.7335537672042847e-01" nType="0">
            <Node pos="l" depth="3" NCoef="0" IVar="-1" Cut="0.0000000000000000e+00" cType="1" res="4.1566509753465652e-02" rms="4.5949339866638184e-01" purity="5.7163846492767334e-01" nType="-99"/>
            <Node pos="r" depth="3" NCoef="0" IVar="-1" Cut="0.0000000000000000e+00" cType="1" res="-2.0830338820815086e-02" rms="4.6161639690399170e-01" purity="5.7418572902679443e-01" nType="-99"/>
          </Node>
          <Node pos="r" depth="2" NCoef="0" IVar="2" Cut="1.4006145000457764e+00" cType="1" res="-2.5976961478590965e-02" rms="4.5789793133735657e-01" purity="4.0248638391494751e-01" nType="0">
            <Node pos="l" depth="3" NCoef="0" IVar="-1" Cut="0.0000000000000000e+00" cType="1" res="-1.2530049681663513e-01" rms="4.8696926236152649e-01" purity="4.9014669656753540e-01" nType="-99"/>
            <Node pos="r" depth="3" NCoef="0" IVar="-1" Cut="0.0000000000000000e+00" cType="1" res="3.1590224243700504e-03" rms="4.2632627487182617e-01" purity="3.1818202137947083e-01" nType="-99"/>
          </Node>
        </Node>
        <Node pos="r" depth="1" NCoef="0" IVar="2" Cut="1.8766860961914062e+00" cType="1" res="1.6078531742095947e-02" rms="3.9648595452308655e-01" purity="2.8028348088264465e-01" nType="0">
          <Node pos="l" depth="2" NCoef="0" IVar="9" Cut="6.7026209831237793e-01" cType="1" res="2.7731269598007202e-02" rms="4.4523259997367859e-01" purity="3.7062403559684753e-01" nType="0">
            <Node pos="l" depth="3" NCoef="0" IVar="-1" Cut="0.0000000000000000e+00" cType="1" res="-4.9313358031213284e-03" rms="4.4759628176689148e-01" purity="3.8140588998794556e-01" nType="-99"/>
            <Node pos="r" depth="3" NCoef="0" IVar="-1" Cut="0.0000000000000000e+00" cType="1" res="1.3265830278396606e-01" rms="4.4242098927497864e-01" purity="3.6315801739692688e-01" nType="-99"/>
          </Node>
          <Node pos="r" depth="2" NCoef="0" IVar="-1" Cut="0.0000000000000000e+00" cType="1" res="-8.1297636032104492e-02" rms="2.4620549380779266e-01" purity="6.9944977760314941e-02" nType="-99"/>
        </Node>
      </Node>
    </BinaryTree>
    <BinaryTree type="DecisionTree" boostWeight="1.0000000000000000e+00" itree="15">
      <Node pos="s" depth="0" NCoef="0" IVar="3" Cut="4.4907480478286743e-01" cType="1" res="-1.2341642286628485e-04" rms="4.4920179247856140e-01" purity="5.0000000000000000e-01" nType="0">
        <Node pos="l" depth="1" NCoef="0" IVar="0" Cut="9.9850296020507812e+01" cType="1" res="-1.2191475369036198e-02" rms="4.3435400724411011e-01" purity="5.2609300613403320e-01" nType="0">
          <Node pos="l" depth="2" NCoef="0" IVar="6" Cut="1.4949810504913330e+00" cType="1" res="-3.7973053753376007e-02" rms="4.6786907315254211e-01" purity="5.4283344745635986e-01" nType="0">
            <Node pos="l" depth="3" NCoef="0" IVar="-1" Cut="0.0000000000000000e+00" cType="1" res="-5.0661727786064148e-02" rms="4.6978187561035156e-01" purity="5.5194962024688721e-01" nType="-99"/>
            <Node pos="r" depth="3" NCoef="0" IVar="-1" Cut="0.0000000000000000e+00" cType="1" res="-1.2999472022056580e-01" rms="4.6528831124305725e-01" purity="5.3344458341598511e-01" nType="-99"/>
          </Node>
          <Node pos="r" depth="2" NCoef="0" IVar="-1" Cut="0.0000000000000000e+00" cType="1" res="4.4961694628000259e-02" rms="3.9407208561897278e-01" purity="5.0841712951660156e-01" nType="-99"/>
        </Node>
        <Node pos="r" depth="1" NCoef="0" IVar="7" Cut="2.2689104080200195e-01" cType="1" res="2.8577684424817562e-03" rms="4.5274513959884644e-01" purity="4.9355423450469971e-01" nType="0">
          <Node pos="l" depth="2" NCoef="0" IVar="-1" Cut="0.0000000000000000e+00" cType="1" res="-6.1625964939594269e-02" rms="4.6250081062316895e-01" purity="5.9459900856018066e-01" nType="-99"/>
          <Node pos="r" depth="2" NCoef="0" IVar="9" Cut="3.3536666631698608e-01" cType="1" res="6.0562938451766968e-03" rms="4.5151329040527344e-01" purity="4.8208403587341309e-01" nType="0">
            <Node pos="l" depth="3" NCoef="0" IVar="-1" Cut="0.0000000000000000e+00" cType="1" res="6.2476344406604767e-02" rms="4.6527153253555298e-01" purity="5.4630494117736816e-01" nType="-99"/>
            <Node pos="r" depth="3" NCoef="0" IVar="-1" Cut="0.0000000000000000e+00" cType="1" res="-1.7218508291989565e-03" rms="4.4671985507011414e-01" purity="4.6110019087791443e-01" nType="-99"/>
          </Node>
        </Node>
      </Node>
    </BinaryTree>
    <BinaryTree type="DecisionTree" boostWeight="1.0000000000000000e+00" itree="16">
      <Node pos="s" depth="0" NCoef="0" IVar="3" Cut="1.4993703365325928e-01" cType="1" res="8.8207969383802265e-05" rms="4.4878083467483521e-01" purity="5.0000000000000000e-01" nType="0">
        <Node pos="l" depth="1" NCoef="0" IVar="-1" Cut="0.0000000000000000e+00" cType="1" res="8.2283131778240204e-02" rms="4.2951911687850952e-01" purity="5.5551075935363770e-01" nType="-99"/>
        <Node pos="r" depth="1" NCoef="0" IVar="6" Cut="1.0483610630035400e+00" cType="1" res="-2.1890357602387667e-03" rms="4.5007681846618652e-01" purity="4.9592861533164978e-01" nType="0">
          <Node pos="l" depth="2" NCoef="0" IVar="-1" Cut="0.0000000000000000e+00" cType="1" res="-6.8109951913356781e-02" rms="4.3165647983551025e-01" purity="4.5170506834983826e-01" nType="-99"/>
          <Node pos="r" depth="2" NCoef="0" IVar="0" Cut="4.4055480957031250e+01" cType="1" res="-3.7358803092502058e-04" rms="4.5139101147651672e-01" purity="4.9928161501884460e-01" nType="0">
            <Node pos="l" depth="3" NCoef="0" IVar="-1" Cut="0.0000000000000000e+00" cType="1" res="-5.2072551101446152e-02" rms="4.6682709455490112e-01" purity="4.4002118706703186e-01" nType="-99"/>
            <Node pos="r" depth="3" NCoef="0" IVar="-1" Cut="0.0000000000000000e+00" cType="1" res="5.0719324499368668e-03" rms="4.4972473382949829e-01" purity="5.0530117750167847e-01" nType="-99"/>
          </Node>
        </Node>
      </Node>
    </BinaryTree>
    <BinaryTree type="DecisionTree" boostWeight="1.0000000000000000e+00" itree="17">
      <Node pos="s" depth="0" NCoef="0" IVar="6" Cut="7.4934285879135132e-01" cType="1" res="8.3027407526969910e-06" rms="4.4859930872917175e-01" purity="5.0000000000000000e-01" nType="0">
        <Node pos="l" depth="1" NCoef="0" IVar="-1" Cut="0.0000000000000000e+00" cType="1" res="7.6460808515548706e-02" rms="4.3527099490165710e-01" purity="4.8745843768119812e-01" nType="-99"/>
        <Node pos="r" depth="1" NCoef="0" IVar="3" Cut="4.4907480478286743e-01" cType="1" res="-1.8124945927411318e-03" rms="4.4935956597328186e-01" purity="5.0078660249710083e-01" nType="0">
          <Node pos="l" depth="2" NCoef="0" IVar="10" Cut="8.9605629444122314e-01" cType="1" res="-1.7395446076989174e-02" rms="4.2989045381546021e-01" purity="5.2687209844589233e-01" nType="0">
            <Node pos="l" depth="3" NCoef="0" IVar="-1" Cut="0.0000000000000000e+00" cType="1" res="3.3171346876770258e-03" rms="4.3546023964881897e-01" purity="5.4733151197433472e-01" nType="-99"/>
            <Node pos="r" depth="3" NCoef="0" IVar="-1" Cut="0.0000000000000000e+00" cType="1" res="-1.3300168514251709e-01" rms="4.1881704330444336e-01" purity="4.9337995052337646e-01" nType="-99"/>
          </Node>
          <Node pos="r" depth="2" NCoef="0" IVar="5" Cut="1.3706604003906250e+02" cType="1" res="1.2126199435442686e-03" rms="4.5298001170158386e-01" purity="4.9572262167930603e-01" nType="0">
            <Node pos="l" depth="3" NCoef="0" IVar="-1" Cut="0.0000000000000000e+00" cType="1" res="2.2649871185421944e-02" rms="4.7021186351776123e-01" purity="5.8309817314147949e-01" nType="-99"/>
            <Node pos="r" depth="3" NCoef="0" IVar="-1" Cut="0.0000000000000000e+00" cType="1" res="-1.9145177677273750e-02" rms="4.3543499708175659e-01" purity="4.1089344024658203e-01" nType="-99"/>
          </Node>
        </Node>
      </Node>
    </BinaryTree>
    <BinaryTree type="DecisionTree" boostWeight="1.0000000000000000e+00" itree="18">
      <Node pos="s" depth="0" NCoef="0" IVar="4" Cut="2.6938917636871338e+00" cType="1" res="4.2962357838405296e-05" rms="4.4826582074165344e-01" purity="5.0000000000000000e-01" nType="0">
        <Node pos="l" depth="1" NCoef="0" IVar="4" Cut="2.0503723621368408e+00" cType="1" res="-1.7579902196303010e-03" rms="4.5257481932640076e-01" purity="5.1913493871688843e-01" nType="0">
          <Node pos="l" depth="2" NCoef="0" IVar="4" Cut="1.6592855453491211e+00" cType="1" res="6.7814585054293275e-04" rms="4.5503208041191101e-01" purity="5.3718966245651245e-01" nType="0">
            <Node pos="l" depth="3" NCoef="0" IVar="-1" Cut="0.0000000000000000e+00" cType="1" res="-6.6163414157927036e-03" rms="4.5667204260826111e-01" purity="5.4722064733505249e-01" nType="-99"/>
            <Node pos="r" depth="3" NCoef="0" IVar="-1" Cut="0.0000000000000000e+00" cType="1" res="8.0979466438293457e-02" rms="4.3879532814025879e-01" purity="4.4686082005500793e-01" nType="-99"/>
          </Node>
          <Node pos="r" depth="2" NCoef="0" IVar="-1" Cut="0.0000000000000000e+00" cType="1" res="-7.2097450494766235e-02" rms="4.2641937732696533e-01" purity="3.3831620216369629e-01" nType="-99"/>
        </Node>
        <Node pos="r" depth="1" NCoef="0" IVar="-1" Cut="0.0000000000000000e+00" cType="1" res="6.8868167698383331e-02" rms="3.9495080709457397e-01" purity="2.8067213296890259e-01" nType="-99"/>
      </Node>
    </BinaryTree>
    <BinaryTree type="DecisionTree" boostWeight="1.0000000000000000e+00" itree="19">
      <Node pos="s" depth="0" NCoef="0" IVar="2" Cut="4.1688284277915955e-01" cType="1" res="-6.6996879468206316e-05" rms="4.4800704717636108e-01" purity="5.0000000000000000e-01" nType="0">
        <Node pos="l" depth="1" NCoef="0" IVar="1" Cut="1.4008496999740601e+00" cType="1" res="9.3783549964427948e-03" rms="4.5707949995994568e-01" purity="5.9942919015884399e-01" nType="0">
          <Node pos="l" depth="2" NCoef="0" IVar="5" Cut="1.1477180480957031e+02" cType="1" res="3.2545175403356552e-02" rms="4.4813239574432373e-01" purity="6.0012060403823853e-01" nType="0">
            <Node pos="l" depth="3" NCoef="0" IVar="-1" Cut="0.0000000000000000e+00" cType="1" res="-4.1801702231168747e-02" rms="4.6840816736221313e-01" purity="5.5401265621185303e-01" nType="-99"/>
            <Node pos="r" depth="3" NCoef="0" IVar="-1" Cut="0.0000000000000000e+00" cType="1" res="1.6260802745819092e-01" rms="4.3126058578491211e-01" purity="6.3013553619384766e-01" nType="-99"/>
          </Node>
          <Node pos="r" depth="2" NCoef="0" IVar="10" Cut="2.3890733718872070e+00" cType="1" res="-1.9202442839741707e-02" rms="4.6629863977432251e-01" purity="5.9857618808746338e-01" nType="0">
            <Node pos="l" depth="3" NCoef="0" IVar="-1" Cut="0.0000000000000000e+00" cType="1" res="-9.4129532575607300e-02" rms="4.7281730175018311e-01" purity="5.9727799892425537e-01" nType="-99"/>
            <Node pos="r" depth="3" NCoef="0" IVar="-1" Cut="0.0000000000000000e+00" cType="1" res="2.1247423719614744e-03" rms="4.5882719755172729e-01" purity="5.9987008571624756e-01" nType="-99"/>
          </Node>
        </Node>
        <Node pos="r" depth="1" NCoef="0" IVar="5" Cut="1.1245838928222656e+02" cType="1" res="-2.9560420662164688e-03" rms="4.4515511393547058e-01" purity="4.6958765387535095e-01" nType="0">
          <Node pos="l" depth="2" NCoef="0" IVar="1" Cut="1.3965573310852051e+00" cType="1" res="1.3725706376135349e-02" rms="4.6492588520050049e-01" purity="5.9790217876434326e-01" nType="0">
            <Node pos="l" depth="3" NCoef="0" IVar="-1" Cut="0.0000000000000000e+00" cType="1" res="6.7403877619653940e-04" rms="4.6388357877731323e-01" purity="5.8828097581863403e-01" nType="-99"/>
            <Node pos="r" depth="3" NCoef="0" IVar="-1" Cut="0.0000000000000000e+00" cType="1" res="1.2910646200180054e-01" rms="4.6565723419189453e-01" purity="6.2847673892974854e-01" nType="-99"/>
          </Node>
          <Node pos="r" depth="2" NCoef="0" IVar="1" Cut="1.7940174341201782e+00" cType="1" res="-1.0843969881534576e-02" rms="4.3527153134346008e-01" purity="4.0891435742378235e-01" nType="0">
            <Node pos="l" depth="3" NCoef="0" IVar="-1" Cut="0.0000000000000000e+00" cType="1" res="-1.4153786003589630e-02" rms="4.3827816843986511e-01" purity="4.3459510803222656e-01" nType="-99"/>
            <Node pos="r" depth="3" NCoef="0" IVar="-1" Cut="0.0000000000000000e+00" cType="1" res="-8.9316464960575104e-02" rms="4.2310136556625366e-01" purity="3.1205922365188599e-01" nType="-99"/>
          </Node>
        </Node>
      </Node>
    </BinaryTree>
    <BinaryTree type="DecisionTree" boostWeight="1.0000000000000000e+00" itree="20">
      <Node pos="s" depth="0" NCoef="0" IVar="1" Cut="2.3929860591888428e+00" cType="1" res="1.4828167331870645e-04" rms="4.4700992107391357e-01" purity="5.0000000000000000e-01" nType="0">
        <Node pos="l" depth="1" NCoef="0" IVar="1" Cut="2.0497670173645020e+00" cType="1" res="-1.7767605604603887e-03" rms="4.4766202569007874e-01" purity="5.0606518983840942e-01" nType="0">
          <Node pos="l" depth="2" NCoef="0" IVar="1" Cut="1.6591069698333740e+00" cType="1" res="-3.4529852564446628e-04" rms="4.4782322645187378e-01" purity="5.1263374090194702e-01" nType="0">
            <Node pos="l" depth="3" NCoef="0" IVar="-1" Cut="0.0000000000000000e+00" cType="1" res="-7.5926263816654682e-03" rms="4.4859376549720764e-01" purity="5.1254785060882568e-01" nType="-99"/>
            <Node pos="r" depth="3" NCoef="0" IVar="-1" Cut="0.0000000000000000e+00" cType="1" res="4.2077697813510895e-02" rms="4.4250094890594482e-01" purity="5.1318079233169556e-01" nType="-99"/>
          </Node>
          <Node pos="r" depth="2" NCoef="0" IVar="-1" Cut="0.0000000000000000e+00" cType="1" res="-6.0745626688003540e-02" rms="4.4471305608749390e-01" purity="4.0834462642669678e-01" nType="-99"/>
        </Node>
        <Node pos="r" depth="1" NCoef="0" IVar="-1" Cut="0.0000000000000000e+00" cType="1" res="8.0192290246486664e-02" rms="4.3585342168807983e-01" purity="4.0720728039741516e-01" nType="-99"/>
      </Node>
    </BinaryTree>
    <BinaryTree type="DecisionTree" boostWeight="1.0000000000000000e+00" itree="21">
      <Node pos="s" depth="0" NCoef="0" IVar="8" Cut="2.8420422077178955e+00" cType="1" res="-7.5089687925355975e-06" rms="4.4685730338096619e-01" purity="5.0000000000000000e-01" nType="0">
        <Node pos="l" depth="1" NCoef="0" IVar="8" Cut="2.4359602928161621e+00" cType="1" res="1.2116892030462623e-03" rms="4.4708725810050964e-01" purity="5.0027012825012207e-01" nType="0">
          <Node pos="l" depth="2" NCoef="0" IVar="8" Cut="2.0877909660339355e+00" cType="1" res="-1.7156703397631645e-03" rms="4.4880449771881104e-01" purity="4.9599453806877136e-01" nType="0">
            <Node pos="l" depth="3" NCoef="0" IVar="-1" Cut="0.0000000000000000e+00" cType="1" res="2.2010728716850281e-03" rms="4.4952207803726196e-01" purity="4.9746978282928467e-01" nType="-99"/>
            <Node pos="r" depth="3" NCoef="0" IVar="-1" Cut="0.0000000000000000e+00" cType="1" res="-1.0921105742454529e-01" rms="4.3572202324867249e-01" purity="4.7337090969085693e-01" nType="-99"/>
          </Node>
          <Node pos="r" depth="2" NCoef="0" IVar="-1" Cut="0.0000000000000000e+00" cType="1" res="1.1646469682455063e-01" rms="4.1891568899154663e-01" purity="5.6265473365783691e-01" nType="-99"/>
        </Node>
        <Node pos="r" depth="1" NCoef="0" IVar="-1" Cut="0.0000000000000000e+00" cType="1" res="-5.9839162975549698e-02" rms="4.4194331765174866e-01" purity="4.9497342109680176e-01" nType="-99"/>
      </Node>
    </BinaryTree>
    <BinaryTree type="DecisionTree" boostWeight="1.0000000000000000e+00" itree="22">
      <Node pos="s" depth="0" NCoef="0" IVar="10" Cut="1.6455676555633545e+00" cType="1" res="5.6612494518049061e-05" rms="4.4663795828819275e-01" purity="5.0000000000000000e-01" nType="0">
        <Node pos="l" depth="1" NCoef="0" IVar="10" Cut="1.1753822565078735e+00" cType="1" res="5.0603705458343029e-03" rms="4.4137087464332581e-01" purity="5.2874815464019775e-01" nType="0">
          <Node pos="l" depth="2" NCoef="0" IVar="3" Cut="9.3783897161483765e-01" cType="1" res="-2.6494157500565052e-03" rms="4.4253289699554443e-01" purity="5.2419584989547729e-01" nType="0">
            <Node pos="l" depth="3" NCoef="0" IVar="-1" Cut="0.0000000000000000e+00" cType="1" res="1.8328377977013588e-02" rms="4.4049885869026184e-01" purity="5.4291123151779175e-01" nType="-99"/>
            <Node pos="r" depth="3" NCoef="0" IVar="-1" Cut="0.0000000000000000e+00" cType="1" res="-1.1985218524932861e-01" rms="4.4891777634620667e-01" purity="4.3959373235702515e-01" nType="-99"/>
          </Node>
          <Node pos="r" depth="2" NCoef="0" IVar="10" Cut="1.3768571615219116e+00" cType="1" res="2.1545326337218285e-02" rms="4.3842127919197083e-01" purity="5.3848177194595337e-01" nType="0">
            <Node pos="l" depth="3" NCoef="0" IVar="-1" Cut="0.0000000000000000e+00" cType="1" res="1.1686006933450699e-01" rms="4.3124252557754517e-01" purity="5.7118290662765503e-01" nType="-99"/>
            <Node pos="r" depth="3" NCoef="0" IVar="-1" Cut="0.0000000000000000e+00" cType="1" res="8.3175199106335640e-03" rms="4.4286984205245972e-01" purity="5.1388496160507202e-01" nType="-99"/>
          </Node>
        </Node>
        <Node pos="r" depth="1" NCoef="0" IVar="3" Cut="1.1988868713378906e+00" cType="1" res="-4.0280483663082123e-03" rms="4.5085081458091736e-01" purity="4.7653231024742126e-01" nType="0">
          <Node pos="l" depth="2" NCoef="0" IVar="11" Cut="1.3398660421371460e+00" cType="1" res="-2.9031464830040932e-02" rms="4.3517252802848816e-01" purity="4.7131410241127014e-01" nType="0">
            <Node pos="l" depth="3" NCoef="0" IVar="-1" Cut="0.0000000000000000e+00" cType="1" res="-1.1398973315954208e-01" rms="4.5467498898506165e-01" purity="5.5294477939605713e-01" nType="-99"/>
            <Node pos="r" depth="3" NCoef="0" IVar="-1" Cut="0.0000000000000000e+00" cType="1" res="1.9535480067133904e-02" rms="3.9420595765113831e-01" purity="3.2049661874771118e-01" nType="-99"/>
          </Node>
          <Node pos="r" depth="2" NCoef="0" IVar="8" Cut="1.6417219638824463e+00" cType="1" res="4.9605611711740494e-03" rms="4.5602059364318848e-01" purity="4.7840824723243713e-01" nType="0">
            <Node pos="l" depth="3" NCoef="0" IVar="-1" Cut="0.0000000000000000e+00" cType="1" res="-9.0771103277802467e-03" rms="4.6150588989257812e-01" purity="4.5631372928619385e-01" nType="-99"/>
            <Node pos="r" depth="3" NCoef="0" IVar="-1" Cut="0.0000000000000000e+00" cType="1" res="9.2777982354164124e-02" rms="4.3479302525520325e-01" purity="5.5619359016418457e-01" nType="-99"/>
          </Node>
        </Node>
      </Node>
    </BinaryTree>
    <BinaryTree type="DecisionTree" boostWeight="1.0000000000000000e+00" itree="23">
      <Node pos="s" depth="0" NCoef="0" IVar="1" Cut="1.9443062543869019e+00" cType="1" res="1.4309748075902462e-04" rms="4.4589218497276306e-01" purity="5.0000000000000000e-01" nType="0">
        <Node pos="l" depth="1" NCoef="0" IVar="8" Cut="1.0470724105834961e+00" cType="1" res="-2.8938108589500189e-03" rms="4.4767916202545166e-01" purity="5.1162618398666382e-01" nType="0">
          <Node pos="l" depth="2" NCoef="0" IVar="8" Cut="9.9666923284530640e-02" cType="1" res="2.7089631184935570e-03" rms="4.5096498727798462e-01" purity="4.9742361903190613e-01" nType="0">
            <Node pos="l" depth="3" NCoef="0" IVar="-1" Cut="0.0000000000000000e+00" cType="1" res="8.4097385406494141e-02" rms="4.4157633185386658e-01" purity="5.3595632314682007e-01" nType="-99"/>
            <Node pos="r" depth="3" NCoef="0" IVar="-1" Cut="0.0000000000000000e+00" cType="1" res="-6.3572088256478310e-03" rms="4.5228067040443420e-01" purity="4.9105697870254517e-01" nType="-99"/>
          </Node>
          <Node pos="r" depth="2" NCoef="0" IVar="4" Cut="1.3728234767913818e+00" cType="1" res="-1.2080922722816467e-02" rms="4.4208472967147827e-01" purity="5.3491473197937012e-01" nType="0">
            <Node pos="l" depth="3" NCoef="0" IVar="-1" Cut="0.0000000000000000e+00" cType="1" res="-6.6524278372526169e-03" rms="4.4890552759170532e-01" purity="5.8732002973556519e-01" nType="-99"/>
            <Node pos="r" depth="3" NCoef="0" IVar="-1" Cut="0.0000000000000000e+00" cType="1" res="-1.0971804708242416e-01" rms="4.2094650864601135e-01" purity="3.8597947359085083e-01" nType="-99"/>
          </Node>
        </Node>
        <Node pos="r" depth="1" NCoef="0" IVar="5" Cut="1.4896401977539062e+02" cType="1" res="1.7755901440978050e-02" rms="4.3496614694595337e-01" purity="4.3257299065589905e-01" nType="0">
          <Node pos="l" depth="2" NCoef="0" IVar="-1" Cut="0.0000000000000000e+00" cType="1" res="9.6816271543502808e-02" rms="4.5919883251190186e-01" purity="5.8072930574417114e-01" nType="-99"/>
          <Node pos="r" depth="2" NCoef="0" IVar="-1" Cut="0.0000000000000000e+00" cType="1" res="1.7648124776314944e-04" rms="4.1598168015480042e-01" purity="3.2726752758026123e-01" nType="-99"/>
        </Node>
      </Node>
    </BinaryTree>
    <BinaryTree type="DecisionTree" boostWeight="1.0000000000000000e+00" itree="24">
      <Node pos="s" depth="0" NCoef="0" IVar="11" Cut="2.2299861907958984e+00" cType="1" res="1.8619433831190690e-05" rms="4.4553324580192566e-01" purity="5.0000000000000000e-01" nType="0">
        <Node pos="l" depth="1" NCoef="0" IVar="0" Cut="3.8492725372314453e+01" cType="1" res="-2.6291012763977051e-03" rms="4.5588162541389465e-01" purity="5.5547505617141724e-01" nType="0">
          <Node pos="l" depth="2" NCoef="0" IVar="-1" Cut="0.0000000000000000e+00" cType="1" res="-8.4775976836681366e-02" rms="4.5897075533866882e-01" purity="4.5258039236068726e-01" nType="-99"/>
          <Node pos="r" depth="2" NCoef="0" IVar="0" Cut="6.0326999664306641e+01" cType="1" res="-1.5477791021112353e-04" rms="4.5556393265724182e-01" purity="5.6255507469177246e-01" nType="0">
            <Node pos="l" depth="3" NCoef="0" IVar="-1" Cut="0.0000000000000000e+00" cType="1" res="4.4240452349185944e-02" rms="4.6899211406707764e-01" purity="4.9061703681945801e-01" nType="-99"/>
            <Node pos="r" depth="3" NCoef="0" IVar="-1" Cut="0.0000000000000000e+00" cType="1" res="-1.3029878027737141e-02" rms="4.5197072625160217e-01" purity="5.8070272207260132e-01" nType="-99"/>
          </Node>
        </Node>
        <Node pos="r" depth="1" NCoef="0" IVar="8" Cut="1.6456228494644165e+00" cType="1" res="1.0219816118478775e-02" rms="4.0302479267120361e-01" purity="2.8626450896263123e-01" nType="0">
          <Node pos="l" depth="2" NCoef="0" IVar="8" Cut="6.2720066308975220e-01" cType="1" res="-1.7484636045992374e-03" rms="4.0598693490028381e-01" purity="2.7442544698715210e-01" nType="0">
            <Node pos="l" depth="3" NCoef="0" IVar="-1" Cut="0.0000000000000000e+00" cType="1" res="4.8999685794115067e-02" rms="4.1937837004661560e-01" purity="2.9217249155044556e-01" nType="-99"/>
            <Node pos="r" depth="3" NCoef="0" IVar="-1" Cut="0.0000000000000000e+00" cType="1" res="-6.1116792261600494e-02" rms="3.9172214269638062e-01" purity="2.5713294744491577e-01" nType="-99"/>
          </Node>
          <Node pos="r" depth="2" NCoef="0" IVar="-1" Cut="0.0000000000000000e+00" cType="1" res="1.5861169993877411e-01" rms="3.9217239618301392e-01" purity="3.2080912590026855e-01" nType="-99"/>
        </Node>
      </Node>
    </BinaryTree>
    <BinaryTree type="DecisionTree" boostWeight="1.0000000000000000e+00" itree="25">
      <Node pos="s" depth="0" NCoef="0" IVar="8" Cut="1.7949764728546143e+00" cType="1" res="-1.2005779717583209e-04" rms="4.4511982798576355e-01" purity="5.0000000000000000e-01" nType="0">
        <Node pos="l" depth="1" NCoef="0" IVar="9" Cut="1.5470505952835083e+00" cType="1" res="2.8092546854168177e-03" rms="4.4911390542984009e-01" purity="4.9793636798858643e-01" nType="0">
          <Node pos="l" depth="2" NCoef="0" IVar="11" Cut="2.6495566964149475e-01" cType="1" res="-1.0229311883449554e-03" rms="4.5626977086067200e-01" purity="5.1565092802047729e-01" nType="0">
            <Node pos="l" depth="3" NCoef="0" IVar="-1" Cut="0.0000000000000000e+00" cType="1" res="6.9366768002510071e-02" rms="4.5818057656288147e-01" purity="6.1247044801712036e-01" nType="-99"/>
            <Node pos="r" depth="3" NCoef="0" IVar="-1" Cut="0.0000000000000000e+00" cType="1" res="-1.5027416869997978e-02" rms="4.5574796199798584e-01" purity="4.9931925535202026e-01" nType="-99"/>
          </Node>
          <Node pos="r" depth="2" NCoef="0" IVar="11" Cut="1.9182887077331543e+00" cType="1" res="2.1053224802017212e-02" rms="4.1286396980285645e-01" purity="4.1360223293304443e-01" nType="0">
            <Node pos="l" depth="3" NCoef="0" IVar="-1" Cut="0.0000000000000000e+00" cType="1" res="1.1270613968372345e-01" rms="4.4507408142089844e-01" purity="5.8061438798904419e-01" nType="-99"/>
            <Node pos="r" depth="3" NCoef="0" IVar="-1" Cut="0.0000000000000000e+00" cType="1" res="-5.5780042894184589e-03" rms="3.8117778301239014e-01" purity="2.6822182536125183e-01" nType="-99"/>
          </Node>
        </Node>
        <Node pos="r" depth="1" NCoef="0" IVar="9" Cut="1.6753306388854980e+00" cType="1" res="-1.0416791774332523e-02" rms="4.3062859773635864e-01" purity="5.0725370645523071e-01" nType="0">
          <Node pos="l" depth="2" NCoef="0" IVar="8" Cut="2.2448306083679199e+00" cType="1" res="2.1617976017296314e-03" rms="4.3494552373886108e-01" purity="5.5695909261703491e-01" nType="0">
            <Node pos="l" depth="3" NCoef="0" IVar="-1" Cut="0.0000000000000000e+00" cType="1" res="-8.7652802467346191e-02" rms="4.4002473354339600e-01" purity="5.1276314258575439e-01" nType="-99"/>
            <Node pos="r" depth="3" NCoef="0" IVar="-1" Cut="0.0000000000000000e+00" cType="1" res="5.9288643300533295e-02" rms="4.3065440654754639e-01" purity="5.8191430568695068e-01" nType="-99"/>
          </Node>
          <Node pos="r" depth="2" NCoef="0" IVar="-1" Cut="0.0000000000000000e+00" cType="1" res="-1.2395776063203812e-01" rms="4.1695588827133179e-01" purity="3.7389528751373291e-01" nType="-99"/>
        </Node>
      </Node>
    </BinaryTree>
    <BinaryTree type="DecisionTree" boostWeight="1.0000000000000000e+00" itree="26">
      <Node pos="s" depth="0" NCoef="0" IVar="8" Cut="1.4958746731281281e-01" cType="1" res="7.4299692641943693e-05" rms="4.4452047348022461e-01" purity="5.0000000000000000e-01" nType="0">
        <Node pos="l" depth="1" NCoef="0" IVar="5" Cut="1.4773017883300781e+02" cType="1" res="-1.5617467463016510e-02" rms="4.4964426755905151e-01" purity="4.9855408072471619e-01" nType="0">
          <Node pos="l" depth="2" NCoef="0" IVar="-1" Cut="0.0000000000000000e+00" cType="1" res="6.5679796040058136e-02" rms="4.5859393477439880e-01" purity="6.3547557592391968e-01" nType="-99"/>
          <Node pos="r" depth="2" NCoef="0" IVar="-1" Cut="0.0000000000000000e+00" cType="1" res="-1.5848261117935181e-01" rms="4.3493801355361938e-01" purity="3.5041937232017517e-01" nType="-99"/>
        </Node>
        <Node pos="r" depth="1" NCoef="0" IVar="1" Cut="2.9914662241935730e-01" cType="1" res="2.1609780378639698e-03" rms="4.4379287958145142e-01" purity="5.0019228458404541e-01" nType="0">
          <Node pos="l" depth="2" NCoef="0" IVar="-1" Cut="0.0000000000000000e+00" cType="1" res="-5.0195865333080292e-02" rms="4.5497944951057434e-01" purity="4.6462789177894592e-01" nType="-99"/>
          <Node pos="r" depth="2" NCoef="0" IVar="0" Cut="1.8115489196777344e+02" cType="1" res="4.4098393991589546e-03" rms="4.4258117675781250e-01" purity="5.0379705429077148e-01" nType="0">
            <Node pos="l" depth="3" NCoef="0" IVar="-1" Cut="0.0000000000000000e+00" cType="1" res="1.5623432584106922e-02" rms="4.5356184244155884e-01" purity="5.3511506319046021e-01" nType="-99"/>
            <Node pos="r" depth="3" NCoef="0" IVar="-1" Cut="0.0000000000000000e+00" cType="1" res="-1.3539996743202209e-01" rms="2.5440895557403564e-01" purity="8.8731683790683746e-02" nType="-99"/>
          </Node>
        </Node>
      </Node>
    </BinaryTree>
    <BinaryTree type="DecisionTree" boostWeight="1.0000000000000000e+00" itree="27">
      <Node pos="s" depth="0" NCoef="0" IVar="7" Cut="2.0400640964508057e+00" cType="1" res="-1.4994230878073722e-04" rms="4.4407972693443298e-01" purity="5.0000000000000000e-01" nType="0">
        <Node pos="l" depth="1" NCoef="0" IVar="3" Cut="2.5433471202850342e+00" cType="1" res="-4.9983025528490543e-03" rms="4.5577615499496460e-01" purity="5.6660538911819458e-01" nType="0">
          <Node pos="l" depth="2" NCoef="0" IVar="0" Cut="1.0101370239257812e+02" cType="1" res="-7.9481294378638268e-03" rms="4.5413845777511597e-01" purity="5.7662475109100342e-01" nType="0">
            <Node pos="l" depth="3" NCoef="0" IVar="-1" Cut="0.0000000000000000e+00" cType="1" res="-3.9904255419969559e-02" rms="4.6646472811698914e-01" purity="5.7920145988464355e-01" nType="-99"/>
            <Node pos="r" depth="3" NCoef="0" IVar="-1" Cut="0.0000000000000000e+00" cType="1" res="2.6006661355495453e-02" rms="4.2855140566825867e-01" purity="5.7160472869873047e-01" nType="-99"/>
          </Node>
          <Node pos="r" depth="2" NCoef="0" IVar="-1" Cut="0.0000000000000000e+00" cType="1" res="4.0784172713756561e-02" rms="4.6729588508605957e-01" purity="4.9136933684349060e-01" nType="-99"/>
        </Node>
        <Node pos="r" depth="1" NCoef="0" IVar="10" Cut="7.4929410219192505e-01" cType="1" res="1.1879986152052879e-02" rms="4.1338670253753662e-01" purity="3.3473640680313110e-01" nType="0">
          <Node pos="l" depth="2" NCoef="0" IVar="-1" Cut="0.0000000000000000e+00" cType="1" res="1.1747167259454727e-01" rms="4.1607549786567688e-01" purity="3.7789514660835266e-01" nType="-99"/>
          <Node pos="r" depth="2" NCoef="0" IVar="2" Cut="1.2505857944488525e+00" cType="1" res="4.2673666030168533e-03" rms="4.1234770417213440e-01" purity="3.2360282540321350e-01" nType="0">
            <Node pos="l" depth="3" NCoef="0" IVar="-1" Cut="0.0000000000000000e+00" cType="1" res="-3.9796963334083557e-02" rms="4.5497030019760132e-01" purity="4.3402007222175598e-01" nType="-99"/>
            <Node pos="r" depth="3" NCoef="0" IVar="-1" Cut="0.0000000000000000e+00" cType="1" res="1.4259196817874908e-01" rms="3.4810119867324829e-01" purity="1.8155184388160706e-01" nType="-99"/>
          </Node>
        </Node>
      </Node>
    </BinaryTree>
    <BinaryTree type="DecisionTree" boostWeight="1.0000000000000000e+00" itree="28">
      <Node pos="s" depth="0" NCoef="0" IVar="2" Cut="1.0416939258575439e+00" cType="1" res="-2.4070718791335821e-04" rms="4.4354194402694702e-01" purity="5.0000000000000000e-01" nType="0">
        <Node pos="l" depth="1" NCoef="0" IVar="10" Cut="2.5418550968170166e+00" cType="1" res="6.0048722662031651e-03" rms="4.5312482118606567e-01" purity="5.8516228199005127e-01" nType="0">
          <Node pos="l" depth="2" NCoef="0" IVar="5" Cut="1.6605722045898438e+02" cType="1" res="1.4458522200584412e-02" rms="4.5044940710067749e-01" purity="6.0191553831100464e-01" nType="0">
            <Node pos="l" depth="3" NCoef="0" IVar="-1" Cut="0.0000000000000000e+00" cType="1" res="1.1862579733133316e-02" rms="4.5298013091087341e-01" purity="6.0717761516571045e-01" nType="-99"/>
            <Node pos="r" depth="3" NCoef="0" IVar="-1" Cut="0.0000000000000000e+00" cType="1" res="1.0331793874502182e-01" rms="4.4182574748992920e-01" purity="5.8658701181411743e-01" nType="-99"/>
          </Node>
          <Node pos="r" depth="2" NCoef="0" IVar="2" Cut="5.9282362461090088e-01" cType="1" res="-2.2204186767339706e-02" rms="4.6081951260566711e-01" purity="5.2925819158554077e-01" nType="0">
            <Node pos="l" depth="3" NCoef="0" IVar="-1" Cut="0.0000000000000000e+00" cType="1" res="-1.4824525453150272e-02" rms="4.5318764448165894e-01" purity="5.6127285957336426e-01" nType="-99"/>
            <Node pos="r" depth="3" NCoef="0" IVar="-1" Cut="0.0000000000000000e+00" cType="1" res="-1.1141292005777359e-01" rms="4.7144362330436707e-01" purity="4.7904774546623230e-01" nType="-99"/>
          </Node>
        </Node>
        <Node pos="r" depth="1" NCoef="0" IVar="10" Cut="2.5433077812194824e+00" cType="1" res="-9.3410462141036987e-03" rms="4.2903330922126770e-01" purity="3.7591132521629333e-01" nType="0">
          <Node pos="l" depth="2" NCoef="0" IVar="10" Cut="1.9379669427871704e+00" cType="1" res="-1.8619809299707413e-02" rms="4.3038684129714966e-01" purity="3.8728660345077515e-01" nType="0">
            <Node pos="l" depth="3" NCoef="0" IVar="-1" Cut="0.0000000000000000e+00" cType="1" res="-2.4049980565905571e-02" rms="4.3198111653327942e-01" purity="4.0787884593009949e-01" nType="-99"/>
            <Node pos="r" depth="3" NCoef="0" IVar="-1" Cut="0.0000000000000000e+00" cType="1" res="-1.1419828981161118e-01" rms="4.2563065886497498e-01" purity="3.3767893910408020e-01" nType="-99"/>
          </Node>
          <Node pos="r" depth="2" NCoef="0" IVar="-1" Cut="0.0000000000000000e+00" cType="1" res="6.1312418431043625e-02" rms="4.2305609583854675e-01" purity="3.3816841244697571e-01" nType="-99"/>
        </Node>
      </Node>
    </BinaryTree>
    <BinaryTree type="DecisionTree" boostWeight="1.0000000000000000e+00" itree="29">
      <Node pos="s" depth="0" NCoef="0" IVar="7" Cut="2.9466507434844971e+00" cType="1" res="-3.7379901186795905e-05" rms="4.4292235374450684e-01" purity="5.0000000000000000e-01" nType="0">
        <Node pos="l" depth="1" NCoef="0" IVar="6" Cut="9.0261095762252808e-01" cType="1" res="2.5500657502561808e-03" rms="4.5171177387237549e-01" purity="5.3374159336090088e-01" nType="0">
          <Node pos="l" depth="2" NCoef="0" IVar="-1" Cut="0.0000000000000000e+00" cType="1" res="-7.4311755597591400e-02" rms="4.4238767027854919e-01" purity="5.7577657699584961e-01" nType="-99"/>
          <Node pos="r" depth="2" NCoef="0" IVar="5" Cut="1.1321822357177734e+02" cType="1" res="4.5217825099825859e-03" rms="4.5219635963439941e-01" purity="5.3119033575057983e-01" nType="0">
            <Node pos="l" depth="3" NCoef="0" IVar="-1" Cut="0.0000000000000000e+00" cType="1" res="2.9380738735198975e-02" rms="4.6232455968856812e-01" purity="5.9684085845947266e-01" nType="-99"/>
            <Node pos="r" depth="3" NCoef="0" IVar="-1" Cut="0.0000000000000000e+00" cType="1" res="-5.1963212899863720e-04" rms="4.4610893726348877e-01" purity="4.9286124110221863e-01" nType="-99"/>
          </Node>
        </Node>
        <Node pos="r" depth="1" NCoef="0" IVar="0" Cut="1.2108671569824219e+02" cType="1" res="-2.2215185686945915e-02" rms="3.5809510946273804e-01" purity="2.1079041063785553e-01" nType="0">
          <Node pos="l" depth="2" NCoef="0" IVar="-1" Cut="0.0000000000000000e+00" cType="1" res="-1.0007934272289276e-01" rms="4.3048936128616333e-01" purity="3.1661558151245117e-01" nType="-99"/>
          <Node pos="r" depth="2" NCoef="0" IVar="-1" Cut="0.0000000000000000e+00" cType="1" res="-2.3124229162931442e-02" rms="2.6215940713882446e-01" purity="1.0177968442440033e-01" nType="-99"/>
        </Node>
      </Node>
    </BinaryTree>
    <BinaryTree type="DecisionTree" boostWeight="1.0000000000000000e+00" itree="30">
      <Node pos="s" depth="0" NCoef="0" IVar="8" Cut="2.5428805351257324e+00" cType="1" res="-2.3871099983807653e-05" rms="4.4268572330474854e-01" purity="5.0000000000000000e-01" nType="0">
        <Node pos="l" depth="1" NCoef="0" IVar="10" Cut="5.9850907325744629e-01" cType="1" res="2.0209264475852251e-03" rms="4.4370850920677185e-01" purity="4.9807313084602356e-01" nType="0">
          <Node pos="l" depth="2" NCoef="0" IVar="11" Cut="1.2791856527328491e+00" cType="1" res="-1.3167277909815311e-02" rms="4.4013223052024841e-01" purity="5.2243107557296753e-01" nType="0">
            <Node pos="l" depth="3" NCoef="0" IVar="-1" Cut="0.0000000000000000e+00" cType="1" res="2.6871966198086739e-02" rms="4.3544259667396545e-01" purity="6.3296318054199219e-01" nType="-99"/>
            <Node pos="r" depth="3" NCoef="0" IVar="-1" Cut="0.0000000000000000e+00" cType="1" res="-1.0251274704933167e-01" rms="4.4372481107711792e-01" purity="4.0108698606491089e-01" nType="-99"/>
          </Node>
          <Node pos="r" depth="2" NCoef="0" IVar="10" Cut="8.4111493825912476e-01" cType="1" res="4.7831623815000057e-03" rms="4.4430002570152283e-01" purity="4.9364319443702698e-01" nType="0">
            <Node pos="l" depth="3" NCoef="0" IVar="-1" Cut="0.0000000000000000e+00" cType="1" res="9.0865619480609894e-02" rms="4.2999988794326782e-01" purity="5.4441636800765991e-01" nType="-99"/>
            <Node pos="r" depth="3" NCoef="0" IVar="-1" Cut="0.0000000000000000e+00" cType="1" res="5.0306594930589199e-03" rms="4.4549912214279175e-01" purity="4.8893550038337708e-01" nType="-99"/>
          </Node>
        </Node>
        <Node pos="r" depth="1" NCoef="0" IVar="-1" Cut="0.0000000000000000e+00" cType="1" res="-5.2608814090490341e-02" rms="4.3233773112297058e-01" purity="5.1835399866104126e-01" nType="-99"/>
      </Node>
    </BinaryTree>
    <BinaryTree type="DecisionTree" boostWeight="1.0000000000000000e+00" itree="31">
      <Node pos="s" depth="0" NCoef="0" IVar="11" Cut="6.3716012239456177e-01" cType="1" res="9.0638804977061227e-06" rms="4.4238653779029846e-01" purity="5.0000000000000000e-01" nType="0">
        <Node pos="l" depth="1" NCoef="0" IVar="5" Cut="1.0955408477783203e+02" cType="1" res="-9.1398879885673523e-03" rms="4.5078593492507935e-01" purity="5.9185522794723511e-01" nType="0">
          <Node pos="l" depth="2" NCoef="0" IVar="8" Cut="8.9632922410964966e-01" cType="1" res="-2.6337740942835808e-02" rms="4.6166947484016418e-01" purity="5.8932536840438843e-01" nType="0">
            <Node pos="l" depth="3" NCoef="0" IVar="-1" Cut="0.0000000000000000e+00" cType="1" res="-1.1161390691995621e-01" rms="4.7385862469673157e-01" purity="5.5493509769439697e-01" nType="-99"/>
            <Node pos="r" depth="3" NCoef="0" IVar="-1" Cut="0.0000000000000000e+00" cType="1" res="-1.1913444846868515e-02" rms="4.4848370552062988e-01" purity="6.2269866466522217e-01" nType="-99"/>
          </Node>
          <Node pos="r" depth="2" NCoef="0" IVar="6" Cut="2.2514531612396240e+00" cType="1" res="3.2439257483929396e-03" rms="4.4236940145492554e-01" purity="5.9367680549621582e-01" nType="0">
            <Node pos="l" depth="3" NCoef="0" IVar="-1" Cut="0.0000000000000000e+00" cType="1" res="6.8917781114578247e-02" rms="4.3363788723945618e-01" purity="6.5262973308563232e-01" nType="-99"/>
            <Node pos="r" depth="3" NCoef="0" IVar="-1" Cut="0.0000000000000000e+00" cType="1" res="-2.4312913417816162e-02" rms="4.4656684994697571e-01" purity="5.6118142604827881e-01" nType="-99"/>
          </Node>
        </Node>
        <Node pos="r" depth="1" NCoef="0" IVar="6" Cut="2.8424706459045410e+00" cType="1" res="3.9189839735627174e-03" rms="4.3868970870971680e-01" purity="4.6074452996253967e-01" nType="0">
          <Node pos="l" depth="2" NCoef="0" IVar="4" Cut="6.0074317455291748e-01" cType="1" res="3.2980600371956825e-04" rms="4.3814483284950256e-01" purity="4.6520310640335083e-01" nType="0">
            <Node pos="l" depth="3" NCoef="0" IVar="-1" Cut="0.0000000000000000e+00" cType="1" res="-5.4707750678062439e-02" rms="4.4946685433387756e-01" purity="5.4625087976455688e-01" nType="-99"/>
            <Node pos="r" depth="3" NCoef="0" IVar="-1" Cut="0.0000000000000000e+00" cType="1" res="1.5953298658132553e-02" rms="4.3507385253906250e-01" purity="4.4486546516418457e-01" nType="-99"/>
          </Node>
          <Node pos="r" depth="2" NCoef="0" IVar="8" Cut="1.0365715026855469e+00" cType="1" res="1.9996091723442078e-02" rms="4.4076362252235413e-01" purity="4.4077318906784058e-01" nType="0">
            <Node pos="l" depth="3" NCoef="0" IVar="-1" Cut="0.0000000000000000e+00" cType="1" res="4.5575960539281368e-03" rms="4.3215826153755188e-01" purity="3.8697758316993713e-01" nType="-99"/>
            <Node pos="r" depth="3" NCoef="0" IVar="-1" Cut="0.0000000000000000e+00" cType="1" res="1.1357099562883377e-01" rms="4.5081853866577148e-01" purity="5.1235282421112061e-01" nType="-99"/>
          </Node>
        </Node>
      </Node>
    </BinaryTree>
    <BinaryTree type="DecisionTree" boostWeight="1.0000000000000000e+00" itree="32">
      <Node pos="s" depth="0" NCoef="0" IVar="3" Cut="2.8421769142150879e+00" cType="1" res="8.7772903498262167e-05" rms="4.4188809394836426e-01" purity="5.0000000000000000e-01" nType="0">
        <Node pos="l" depth="1" NCoef="0" IVar="8" Cut="1.0470724105834961e+00" cType="1" res="1.3685664162039757e-03" rms="4.4111421704292297e-01" purity="5.0487631559371948e-01" nType="0">
          <Node pos="l" depth="2" NCoef="0" IVar="9" Cut="1.2378898859024048e+00" cType="1" res="5.9746243059635162e-03" rms="4.4523257017135620e-01" purity="4.9830016493797302e-01" nType="0">
            <Node pos="l" depth="3" NCoef="0" IVar="-1" Cut="0.0000000000000000e+00" cType="1" res="3.0499568209052086e-02" rms="4.5101317763328552e-01" purity="5.2271199226379395e-01" nType="-99"/>
            <Node pos="r" depth="3" NCoef="0" IVar="-1" Cut="0.0000000000000000e+00" cType="1" res="-3.9512082934379578e-02" rms="4.2596179246902466e-01" purity="4.2180803418159485e-01" nType="-99"/>
          </Node>
          <Node pos="r" depth="2" NCoef="0" IVar="11" Cut="3.1900799274444580e-01" cType="1" res="-4.8279128968715668e-03" rms="4.3543553352355957e-01" purity="5.1372313499450684e-01" nType="0">
            <Node pos="l" depth="3" NCoef="0" IVar="-1" Cut="0.0000000000000000e+00" cType="1" res="-9.2310830950737000e-02" rms="4.4667154550552368e-01" purity="5.8690541982650757e-01" nType="-99"/>
            <Node pos="r" depth="3" NCoef="0" IVar="-1" Cut="0.0000000000000000e+00" cType="1" res="3.2565332949161530e-03" rms="4.3299594521522522e-01" purity="4.9977168440818787e-01" nType="-99"/>
          </Node>
        </Node>
        <Node pos="r" depth="1" NCoef="0" IVar="-1" Cut="0.0000000000000000e+00" cType="1" res="-5.8657266199588776e-02" rms="4.5520028471946716e-01" purity="4.1063508391380310e-01" nType="-99"/>
      </Node>
    </BinaryTree>
    <BinaryTree type="DecisionTree" boostWeight="1.0000000000000000e+00" itree="33">
      <Node pos="s" depth="0" NCoef="0" IVar="9" Cut="6.7003178596496582e-01" cType="1" res="3.5466007830109447e-05" rms="4.4166550040245056e-01" purity="5.0000000000000000e-01" nType="0">
        <Node pos="l" depth="1" NCoef="0" IVar="11" Cut="4.6700119972229004e-01" cType="1" res="-5.8624069206416607e-03" rms="4.5161733031272888e-01" purity="5.4090344905853271e-01" nType="0">
          <Node pos="l" depth="2" NCoef="0" IVar="2" Cut="4.0718093514442444e-01" cType="1" res="9.0558584779500961e-03" rms="4.4954732060432434e-01" purity="6.0969340801239014e-01" nType="0">
            <Node pos="l" depth="3" NCoef="0" IVar="-1" Cut="0.0000000000000000e+00" cType="1" res="-4.3630491942167282e-02" rms="4.5271471142768860e-01" purity="6.0795140266418457e-01" nType="-99"/>
            <Node pos="r" depth="3" NCoef="0" IVar="-1" Cut="0.0000000000000000e+00" cType="1" res="6.9187171757221222e-02" rms="4.4608110189437866e-01" purity="6.1102509498596191e-01" nType="-99"/>
          </Node>
          <Node pos="r" depth="2" NCoef="0" IVar="2" Cut="7.2970932722091675e-01" cType="1" res="-1.1669543571770191e-02" rms="4.5228749513626099e-01" purity="5.1412600278854370e-01" nType="0">
            <Node pos="l" depth="3" NCoef="0" IVar="-1" Cut="0.0000000000000000e+00" cType="1" res="-6.6640920937061310e-02" rms="4.5284700393676758e-01" purity="5.6236457824707031e-01" nType="-99"/>
            <Node pos="r" depth="3" NCoef="0" IVar="-1" Cut="0.0000000000000000e+00" cType="1" res="1.9568616524338722e-02" rms="4.5085272192955017e-01" purity="4.5595836639404297e-01" nType="-99"/>
          </Node>
        </Node>
        <Node pos="r" depth="1" NCoef="0" IVar="4" Cut="8.7232887744903564e-01" cType="1" res="5.2092238329350948e-03" rms="4.3268093466758728e-01" purity="4.6411851048469543e-01" nType="0">
          <Node pos="l" depth="2" NCoef="0" IVar="5" Cut="1.2847254943847656e+02" cType="1" res="1.5727819874882698e-02" rms="4.5038956403732300e-01" purity="5.6715691089630127e-01" nType="0">
            <Node pos="l" depth="3" NCoef="0" IVar="-1" Cut="0.0000000000000000e+00" cType="1" res="1.7316630110144615e-03" rms="4.5978099107742310e-01" purity="5.8095157146453857e-01" nType="-99"/>
            <Node pos="r" depth="3" NCoef="0" IVar="-1" Cut="0.0000000000000000e+00" cType="1" res="1.2504947185516357e-01" rms="4.2740428447723389e-01" purity="5.3710848093032837e-01" nType="-99"/>
          </Node>
          <Node pos="r" depth="2" NCoef="0" IVar="10" Cut="2.6928222179412842e+00" cType="1" res="-3.8417086470872164e-03" rms="4.1662892699241638e-01" purity="3.7545710802078247e-01" nType="0">
            <Node pos="l" depth="3" NCoef="0" IVar="-1" Cut="0.0000000000000000e+00" cType="1" res="5.9378002770245075e-03" rms="4.1846042871475220e-01" purity="3.8194960355758667e-01" nType="-99"/>
            <Node pos="r" depth="3" NCoef="0" IVar="-1" Cut="0.0000000000000000e+00" cType="1" res="-8.1775061786174774e-02" rms="4.0794181823730469e-01" purity="3.4830072522163391e-01" nType="-99"/>
          </Node>
        </Node>
      </Node>
    </BinaryTree>
    <BinaryTree type="DecisionTree" boostWeight="1.0000000000000000e+00" itree="34">
      <Node pos="s" depth="0" NCoef="0" IVar="2" Cut="2.0861248672008514e-01" cType="1" res="5.3342322644311935e-05" rms="4.4111433625221252e-01" purity="5.0000000000000000e-01" nType="0">
        <Node pos="l" depth="1" NCoef="0" IVar="2" Cut="9.9431917071342468e-02" cType="1" res="1.5955748036503792e-02" rms="4.4823351502418518e-01" purity="6.0426831245422363e-01" nType="0">
          <Node pos="l" depth="2" NCoef="0" IVar="-1" Cut="0.0000000000000000e+00" cType="1" res="-4.7237046062946320e-02" rms="4.6227344870567322e-01" purity="5.7371360063552856e-01" nType="-99"/>
          <Node pos="r" depth="2" NCoef="0" IVar="-1" Cut="0.0000000000000000e+00" cType="1" res="1.1021867394447327e-01" rms="4.3380925059318542e-01" purity="6.3006806373596191e-01" nType="-99"/>
        </Node>
        <Node pos="r" depth="1" NCoef="0" IVar="5" Cut="1.1245838928222656e+02" cType="1" res="-2.0176491234451532e-03" rms="4.4013643264770508e-01" purity="4.8642098903656006e-01" nType="0">
          <Node pos="l" depth="2" NCoef="0" IVar="4" Cut="3.6700290441513062e-01" cType="1" res="8.2214903086423874e-03" rms="4.6024933457374573e-01" purity="5.9541344642639160e-01" nType="0">
            <Node pos="l" depth="3" NCoef="0" IVar="-1" Cut="0.0000000000000000e+00" cType="1" res="7.4369356036186218e-02" rms="4.4876334071159363e-01" purity="6.3932931423187256e-01" nType="-99"/>
            <Node pos="r" depth="3" NCoef="0" IVar="-1" Cut="0.0000000000000000e+00" cType="1" res="-9.2591010034084320e-03" rms="4.6579489111900330e-01" purity="5.7200372219085693e-01" nType="-99"/>
          </Node>
          <Node pos="r" depth="2" NCoef="0" IVar="0" Cut="1.1659176635742188e+02" cType="1" res="-6.8853441625833511e-03" rms="4.3015965819358826e-01" purity="4.3460589647293091e-01" nType="0">
            <Node pos="l" depth="3" NCoef="0" IVar="-1" Cut="0.0000000000000000e+00" cType="1" res="2.2810401860624552e-03" rms="4.5665001869201660e-01" purity="5.0644075870513916e-01" nType="-99"/>
            <Node pos="r" depth="3" NCoef="0" IVar="-1" Cut="0.0000000000000000e+00" cType="1" res="-8.0575622618198395e-02" rms="3.6980995535850525e-01" purity="2.8814175724983215e-01" nType="-99"/>
          </Node>
        </Node>
      </Node>
    </BinaryTree>
    <BinaryTree type="DecisionTree" boostWeight="1.0000000000000000e+00" itree="35">
      <Node pos="s" depth="0" NCoef="0" IVar="4" Cut="2.9936063289642334e-01" cType="1" res="2.7527959900908172e-05" rms="4.4056433439254761e-01" purity="5.0000000000000000e-01" nType="0">
        <Node pos="l" depth="1" NCoef="0" IVar="8" Cut="4.4882017374038696e-01" cType="1" res="-1.6323197633028030e-02" rms="4.4235238432884216e-01" purity="5.8694577217102051e-01" nType="0">
          <Node pos="l" depth="2" NCoef="0" IVar="-1" Cut="0.0000000000000000e+00" cType="1" res="-1.4266715943813324e-01" rms="4.3347486853599548e-01" purity="5.3000080585479736e-01" nType="-99"/>
          <Node pos="r" depth="2" NCoef="0" IVar="7" Cut="5.2127605676651001e-01" cType="1" res="2.1217095199972391e-03" rms="4.4508931040763855e-01" purity="6.1272937059402466e-01" nType="0">
            <Node pos="l" depth="3" NCoef="0" IVar="-1" Cut="0.0000000000000000e+00" cType="1" res="6.3632167875766754e-02" rms="4.3063393235206604e-01" purity="6.7539924383163452e-01" nType="-99"/>
            <Node pos="r" depth="3" NCoef="0" IVar="-1" Cut="0.0000000000000000e+00" cType="1" res="-3.2875828444957733e-02" rms="4.5401260256767273e-01" purity="5.7010364532470703e-01" nType="-99"/>
          </Node>
        </Node>
        <Node pos="r" depth="1" NCoef="0" IVar="7" Cut="2.2689104080200195e-01" cType="1" res="3.6768810823559761e-03" rms="4.4008135795593262e-01" purity="4.8059436678886414e-01" nType="0">
          <Node pos="l" depth="2" NCoef="0" IVar="-1" Cut="0.0000000000000000e+00" cType="1" res="-6.0598552227020264e-02" rms="4.4814756512641907e-01" purity="5.8557957410812378e-01" nType="-99"/>
          <Node pos="r" depth="2" NCoef="0" IVar="10" Cut="1.7951474189758301e+00" cType="1" res="5.8020767755806446e-03" rms="4.3939700722694397e-01" purity="4.7272396087646484e-01" nType="0">
            <Node pos="l" depth="3" NCoef="0" IVar="-1" Cut="0.0000000000000000e+00" cType="1" res="-1.1896524578332901e-02" rms="4.3699008226394653e-01" purity="4.8774257302284241e-01" nType="-99"/>
            <Node pos="r" depth="3" NCoef="0" IVar="-1" Cut="0.0000000000000000e+00" cType="1" res="4.1166506707668304e-02" rms="4.4147151708602905e-01" purity="4.5825457572937012e-01" nType="-99"/>
          </Node>
        </Node>
      </Node>
    </BinaryTree>
    <BinaryTree type="DecisionTree" boostWeight="1.0000000000000000e+00" itree="36">
      <Node pos="s" depth="0" NCoef="0" IVar="3" Cut="1.4960570335388184e+00" cType="1" res="7.6695978350471705e-05" rms="4.4008490443229675e-01" purity="5.0000000000000000e-01" nType="0">
        <Node pos="l" depth="1" NCoef="0" IVar="6" Cut="1.9454158544540405e+00" cType="1" res="4.6483799815177917e-03" rms="4.3497896194458008e-01" purity="5.2371239662170410e-01" nType="0">
          <Node pos="l" depth="2" NCoef="0" IVar="2" Cut="5.2718496322631836e-01" cType="1" res="1.9275300204753876e-02" rms="4.3224525451660156e-01" purity="5.3168636560440063e-01" nType="0">
            <Node pos="l" depth="3" NCoef="0" IVar="-1" Cut="0.0000000000000000e+00" cType="1" res="1.0795672237873077e-01" rms="4.3247109651565552e-01" purity="6.4379793405532837e-01" nType="-99"/>
            <Node pos="r" depth="3" NCoef="0" IVar="-1" Cut="0.0000000000000000e+00" cType="1" res="1.5674840658903122e-02" rms="4.3152564764022827e-01" purity="4.7148519754409790e-01" nType="-99"/>
          </Node>
          <Node pos="r" depth="2" NCoef="0" IVar="8" Cut="2.9916828870773315e-01" cType="1" res="-5.7422416284680367e-03" rms="4.3661296367645264e-01" purity="5.1804786920547485e-01" nType="0">
            <Node pos="l" depth="3" NCoef="0" IVar="-1" Cut="0.0000000000000000e+00" cType="1" res="6.7874111235141754e-02" rms="4.4725129008293152e-01" purity="5.5608469247817993e-01" nType="-99"/>
            <Node pos="r" depth="3" NCoef="0" IVar="-1" Cut="0.0000000000000000e+00" cType="1" res="-2.9463911429047585e-02" rms="4.3456402420997620e-01" purity="5.1170432567596436e-01" nType="-99"/>
          </Node>
        </Node>
        <Node pos="r" depth="1" NCoef="0" IVar="10" Cut="2.1524846553802490e+00" cType="1" res="-7.5847688131034374e-03" rms="4.4840684533119202e-01" purity="4.6026158332824707e-01" nType="0">
          <Node pos="l" depth="2" NCoef="0" IVar="5" Cut="1.5507092285156250e+02" cType="1" res="-3.6735426634550095e-02" rms="4.5423102378845215e-01" purity="4.5357361435890198e-01" nType="0">
            <Node pos="l" depth="3" NCoef="0" IVar="-1" Cut="0.0000000000000000e+00" cType="1" res="-1.3932820875197649e-03" rms="4.7995531558990479e-01" purity="5.6522709131240845e-01" nType="-99"/>
            <Node pos="r" depth="3" NCoef="0" IVar="-1" Cut="0.0000000000000000e+00" cType="1" res="-2.0507931709289551e-01" rms="4.2314341664314270e-01" purity="3.3938857913017273e-01" nType="-99"/>
          </Node>
          <Node pos="r" depth="2" NCoef="0" IVar="0" Cut="1.0492804718017578e+02" cType="1" res="4.9652750603854656e-03" rms="4.4528871774673462e-01" purity="4.6314093470573425e-01" nType="0">
            <Node pos="l" depth="3" NCoef="0" IVar="-1" Cut="0.0000000000000000e+00" cType="1" res="3.7011597305536270e-02" rms="4.5779249072074890e-01" purity="5.1697325706481934e-01" nType="-99"/>
            <Node pos="r" depth="3" NCoef="0" IVar="-1" Cut="0.0000000000000000e+00" cType="1" res="-6.6877722740173340e-02" rms="4.1222113370895386e-01" purity="3.3259636163711548e-01" nType="-99"/>
          </Node>
        </Node>
      </Node>
    </BinaryTree>
    <BinaryTree type="DecisionTree" boostWeight="1.0000000000000000e+00" itree="37">
      <Node pos="s" depth="0" NCoef="0" IVar="0" Cut="8.0447914123535156e+01" cType="1" res="-1.3832840522809420e-05" rms="4.3924295902252197e-01" purity="5.0000000000000000e-01" nType="0">
        <Node pos="l" depth="1" NCoef="0" IVar="4" Cut="1.1973098516464233e+00" cType="1" res="-1.1009427718818188e-02" rms="4.6414068341255188e-01" purity="5.0412535667419434e-01" nType="0">
          <Node pos="l" depth="2" NCoef="0" IVar="0" Cut="6.4999618530273438e+01" cType="1" res="-2.2388238459825516e-02" rms="4.6660223603248596e-01" purity="5.2353501319885254e-01" nType="0">
            <Node pos="l" depth="3" NCoef="0" IVar="-1" Cut="0.0000000000000000e+00" cType="1" res="-1.5373884700238705e-02" rms="4.6260395646095276e-01" purity="5.0340414047241211e-01" nType="-99"/>
            <Node pos="r" depth="3" NCoef="0" IVar="-1" Cut="0.0000000000000000e+00" cType="1" res="-1.1687729507684708e-01" rms="4.7225081920623779e-01" purity="5.5848282575607300e-01" nType="-99"/>
          </Node>
          <Node pos="r" depth="2" NCoef="0" IVar="7" Cut="2.1893777847290039e+00" cType="1" res="9.5008993521332741e-03" rms="4.5895838737487793e-01" purity="4.6913936734199524e-01" nType="0">
            <Node pos="l" depth="3" NCoef="0" IVar="-1" Cut="0.0000000000000000e+00" cType="1" res="6.7940302193164825e-02" rms="4.6494615077972412e-01" purity="5.5086004734039307e-01" nType="-99"/>
            <Node pos="r" depth="3" NCoef="0" IVar="-1" Cut="0.0000000000000000e+00" cType="1" res="-6.3634172081947327e-02" rms="4.4624277949333191e-01" purity="3.2910785079002380e-01" nType="-99"/>
          </Node>
        </Node>
        <Node pos="r" depth="1" NCoef="0" IVar="8" Cut="5.9826093912124634e-01" cType="1" res="8.1053553149104118e-03" rms="4.1972711682319641e-01" purity="4.9695381522178650e-01" nType="0">
          <Node pos="l" depth="2" NCoef="0" IVar="9" Cut="8.9052748680114746e-01" cType="1" res="2.5211881846189499e-02" rms="4.2509305477142334e-01" purity="4.8093873262405396e-01" nType="0">
            <Node pos="l" depth="3" NCoef="0" IVar="-1" Cut="0.0000000000000000e+00" cType="1" res="9.7628170624375343e-03" rms="4.1664350032806396e-01" purity="5.1507490873336792e-01" nType="-99"/>
            <Node pos="r" depth="3" NCoef="0" IVar="-1" Cut="0.0000000000000000e+00" cType="1" res="1.3051961362361908e-01" rms="4.3164250254631042e-01" purity="4.5011386275291443e-01" nType="-99"/>
          </Node>
          <Node pos="r" depth="2" NCoef="0" IVar="7" Cut="4.5401340723037720e-01" cType="1" res="1.6842640470713377e-03" rms="4.1751426458358765e-01" purity="5.0296521186828613e-01" nType="0">
            <Node pos="l" depth="3" NCoef="0" IVar="-1" Cut="0.0000000000000000e+00" cType="1" res="6.6385500133037567e-02" rms="4.0639150142669678e-01" purity="6.9876974821090698e-01" nType="-99"/>
            <Node pos="r" depth="3" NCoef="0" IVar="-1" Cut="0.0000000000000000e+00" cType="1" res="-8.0184955149888992e-03" rms="4.1954648494720459e-01" purity="4.6402868628501892e-01" nType="-99"/>
          </Node>
        </Node>
      </Node>
    </BinaryTree>
    <BinaryTree type="DecisionTree" boostWeight="1.0000000000000000e+00" itree="38">
      <Node pos="s" depth="0" NCoef="0" IVar="8" Cut="1.6453956365585327e+00" cType="1" res="8.6937827290967107e-05" rms="4.3849131464958191e-01" purity="5.0000000000000000e-01" nType="0">
        <Node pos="l" depth="1" NCoef="0" IVar="11" Cut="1.9087947607040405e+00" cType="1" res="-3.7359779234975576e-03" rms="4.4201847910881042e-01" purity="4.9509143829345703e-01" nType="0">
          <Node pos="l" depth="2" NCoef="0" IVar="4" Cut="1.3319127559661865e+00" cType="1" res="-8.3459569141268730e-03" rms="4.5197790861129761e-01" purity="5.6159579753875732e-01" nType="0">
            <Node pos="l" depth="3" NCoef="0" IVar="-1" Cut="0.0000000000000000e+00" cType="1" res="-8.7949503213167191e-03" rms="4.5121186971664429e-01" purity="5.7234561443328857e-01" nType="-99"/>
            <Node pos="r" depth="3" NCoef="0" IVar="-1" Cut="0.0000000000000000e+00" cType="1" res="-7.7267065644264221e-02" rms="4.5517557859420776e-01" purity="5.0506824254989624e-01" nType="-99"/>
          </Node>
          <Node pos="r" depth="2" NCoef="0" IVar="10" Cut="8.9879852533340454e-01" cType="1" res="8.6099999025464058e-03" rms="4.1391548514366150e-01" purity="3.1698638200759888e-01" nType="0">
            <Node pos="l" depth="3" NCoef="0" IVar="-1" Cut="0.0000000000000000e+00" cType="1" res="-6.9748915731906891e-02" rms="4.2282080650329590e-01" purity="3.0890187621116638e-01" nType="-99"/>
            <Node pos="r" depth="3" NCoef="0" IVar="-1" Cut="0.0000000000000000e+00" cType="1" res="6.6241450607776642e-02" rms="4.0961471199989319e-01" purity="3.2017922401428223e-01" nType="-99"/>
          </Node>
        </Node>
        <Node pos="r" depth="1" NCoef="0" IVar="6" Cut="2.5492887496948242e+00" cType="1" res="1.1368449777364731e-02" rms="4.2771399021148682e-01" purity="5.1448518037796021e-01" nType="0">
