<?xml version="1.0"?>
<MethodSetup Method="BDT::BDT">
  <GeneralInfo>
    <Info name="TMVA Release" value="4.2.1 [262657]"/>
    <Info name="ROOT Release" value="6.12/07 [396295]"/>
    <Info name="Creator" value="jthomasw"/>
    <Info name="Date" value="Tue Jan 29 18:41:47 2019"/>
    <Info name="Host" value="Linux cmsbuild92.cern.ch 2.6.32-696.30.1.el6.x86_64 #1 SMP Tue May 22 06:09:36 CEST 2018 x86_64 x86_64 x86_64 GNU/Linux"/>
    <Info name="Dir" value="/afs/cern.ch/work/j/jthomasw/private/IHEP/BTV/CMSSW/Moriond19/2018Data/CMSSW_10_2_7/src/RecoBTag/PerformanceMeasurements/test/ttbar"/>
    <Info name="Training events" value="8000"/>
    <Info name="TrainingTime" value="1.14841480e+01"/>
    <Info name="AnalysisType" value="Classification"/>
  </GeneralInfo>
  <Options>
    <Option name="V" modified="No">False</Option>
    <Option name="VerbosityLevel" modified="No">Default</Option>
    <Option name="VarTransform" modified="No">None</Option>
    <Option name="H" modified="No">False</Option>
    <Option name="CreateMVAPdfs" modified="No">False</Option>
    <Option name="IgnoreNegWeightsInTraining" modified="No">False</Option>
    <Option name="NTrees" modified="Yes">1000</Option>
    <Option name="MaxDepth" modified="Yes">3</Option>
    <Option name="MinNodeSize" modified="Yes">5%</Option>
    <Option name="nCuts" modified="No">20</Option>
    <Option name="BoostType" modified="Yes">Grad</Option>
    <Option name="AdaBoostR2Loss" modified="No">quadratic</Option>
    <Option name="UseBaggedBoost" modified="No">False</Option>
    <Option name="Shrinkage" modified="Yes">1.000000e+00</Option>
    <Option name="AdaBoostBeta" modified="No">5.000000e-01</Option>
    <Option name="UseRandomisedTrees" modified="No">False</Option>
    <Option name="UseNvars" modified="No">4</Option>
    <Option name="UsePoissonNvars" modified="No">True</Option>
    <Option name="BaggedSampleFraction" modified="No">6.000000e-01</Option>
    <Option name="UseYesNoLeaf" modified="No">True</Option>
    <Option name="NegWeightTreatment" modified="Yes">pray</Option>
    <Option name="Css" modified="No">1.000000e+00</Option>
    <Option name="Cts_sb" modified="No">1.000000e+00</Option>
    <Option name="Ctb_ss" modified="No">1.000000e+00</Option>
    <Option name="Cbb" modified="No">1.000000e+00</Option>
    <Option name="NodePurityLimit" modified="No">5.000000e-01</Option>
    <Option name="SeparationType" modified="No">giniindex</Option>
    <Option name="RegressionLossFunctionBDTG" modified="No">huber</Option>
    <Option name="HuberQuantile" modified="No">7.000000e-01</Option>
    <Option name="DoBoostMonitor" modified="No">False</Option>
    <Option name="UseFisherCuts" modified="No">False</Option>
    <Option name="MinLinCorrForFisher" modified="No">8.000000e-01</Option>
    <Option name="UseExclusiveVars" modified="No">False</Option>
    <Option name="DoPreselection" modified="No">False</Option>
    <Option name="SigToBkgFraction" modified="No">1.000000e+00</Option>
    <Option name="PruneMethod" modified="No">nopruning</Option>
    <Option name="PruneStrength" modified="No">0.000000e+00</Option>
    <Option name="PruningValFraction" modified="No">5.000000e-01</Option>
    <Option name="SkipNormalization" modified="No">False</Option>
    <Option name="nEventsMin" modified="No">0</Option>
    <Option name="UseBaggedGrad" modified="No">False</Option>
    <Option name="GradBaggingFraction" modified="No">6.000000e-01</Option>
    <Option name="UseNTrainEvents" modified="No">0</Option>
    <Option name="NNodesMax" modified="No">0</Option>
  </Options>
  <Variables NVar="12">
    <Variable VarIndex="0" Expression="close_mlj[0]" Label="close_mlj[0]" Title="M(close lepton,jet)GeV" Unit="F" Internal="close_mlj_0_" Type="F" Min="2.01436939e+01" Max="8.60200562e+02"/>
    <Variable VarIndex="1" Expression="close_dphi" Label="close_dphi" Title="#Delta#phi(close lepton,jet)rad" Unit="F" Internal="close_dphi" Type="F" Min="6.37173653e-04" Max="3.13622785e+00"/>
    <Variable VarIndex="2" Expression="close_deta" Label="close_deta" Title="#Delta#eta(close lepton,jet)" Unit="F" Internal="close_deta" Type="F" Min="3.76820564e-04" Max="4.45121193e+00"/>
    <Variable VarIndex="3" Expression="close_lj2ll_dphi" Label="close_lj2ll_dphi" Title="#Delta#phi(close lepton+jet,dilepton)rad" Unit="F" Internal="close_lj2ll_dphi" Type="F" Min="1.86297329e-04" Max="3.14123154e+00"/>
    <Variable VarIndex="4" Expression="close_lj2ll_deta" Label="close_lj2ll_deta" Title="#Delta#eta(close lepton+jet,dilepton)" Unit="F" Internal="close_lj2ll_deta" Type="F" Min="7.95512606e-05" Max="7.31474113e+00"/>
    <Variable VarIndex="5" Expression="far_mlj" Label="far_mlj" Title="M(far lepton,jet)GeV" Unit="F" Internal="far_mlj" Type="F" Min="4.15614891e+01" Max="1.13036267e+03"/>
    <Variable VarIndex="6" Expression="far_dphi" Label="far_dphi" Title="#Delta#phi(far lepton,jet)rad" Unit="F" Internal="far_dphi" Type="F" Min="1.50132179e-03" Max="3.14156032e+00"/>
    <Variable VarIndex="7" Expression="far_deta" Label="far_deta" Title="#Delta#eta(far lepton,jet)" Unit="F" Internal="far_deta" Type="F" Min="7.53700733e-05" Max="4.84409237e+00"/>
    <Variable VarIndex="8" Expression="far_lj2ll_dphi" Label="far_lj2ll_dphi" Title="#Delta#phi(far lepton+jet,dilepton)rad" Unit="F" Internal="far_lj2ll_dphi" Type="F" Min="4.14077251e-04" Max="3.14158726e+00"/>
    <Variable VarIndex="9" Expression="far_lj2ll_deta" Label="far_lj2ll_deta" Title="#Delta#eta(far lepton+jet,dilepton)" Unit="F" Internal="far_lj2ll_deta" Type="F" Min="6.23874017e-04" Max="8.16477680e+00"/>
    <Variable VarIndex="10" Expression="j2ll_dphi" Label="j2ll_dphi" Title="#Delta#phi(dilepton,jet)" Unit="rad" Internal="j2ll_dphi" Type="F" Min="3.20204592e-04" Max="3.14156508e+00"/>
    <Variable VarIndex="11" Expression="j2ll_deta" Label="j2ll_deta" Title="#Delta#eta(dilepton,jet)" Unit="" Internal="j2ll_deta" Type="F" Min="1.68177372e-04" Max="6.85286760e+00"/>
  </Variables>
  <Spectators NSpec="0"/>
  <Classes NClass="2">
    <Class Name="Signal" Index="0"/>
    <Class Name="Background" Index="1"/>
  </Classes>
  <Transformations NTransformations="0"/>
  <MVAPdfs/>
  <Weights NTrees="1000" AnalysisType="1">
    <BinaryTree type="DecisionTree" boostWeight="1.0000000000000000e+00" itree="0">
      <Node pos="s" depth="0" NCoef="0" IVar="0" Cut="1.4015182495117188e+02" cType="1" res="6.1328997029473989e-15" rms="5.0000000000000000e-01" purity="5.0000000000000000e-01" nType="0">
        <Node pos="l" depth="1" NCoef="0" IVar="7" Cut="1.8016006946563721e+00" cType="1" res="7.4890658259391785e-02" rms="4.9435958266258240e-01" purity="5.7489067316055298e-01" nType="0">
          <Node pos="l" depth="2" NCoef="0" IVar="0" Cut="7.1582626342773438e+01" cType="1" res="1.1603233218193054e-01" rms="4.8635017871856689e-01" purity="6.1603230237960815e-01" nType="0">
            <Node pos="l" depth="3" NCoef="0" IVar="-1" Cut="0.0000000000000000e+00" cType="1" res="7.7993042767047882e-02" rms="4.9847695231437683e-01" purity="5.3899651765823364e-01" nType="-99"/>
            <Node pos="r" depth="3" NCoef="0" IVar="-1" Cut="0.0000000000000000e+00" cType="1" res="3.1461286544799805e-01" rms="4.7461003065109253e-01" purity="6.5730643272399902e-01" nType="-99"/>
          </Node>
          <Node pos="r" depth="2" NCoef="0" IVar="2" Cut="1.1254650354385376e+00" cType="1" res="-3.0677424743771553e-02" rms="4.9905800819396973e-01" purity="4.6932259202003479e-01" nType="0">
            <Node pos="l" depth="3" NCoef="0" IVar="-1" Cut="0.0000000000000000e+00" cType="1" res="4.3304730206727982e-02" rms="4.9953094124794006e-01" purity="5.2165234088897705e-01" nType="-99"/>
            <Node pos="r" depth="3" NCoef="0" IVar="-1" Cut="0.0000000000000000e+00" cType="1" res="-3.3067193627357483e-01" rms="4.7187289595603943e-01" purity="3.3466401696205139e-01" nType="-99"/>
          </Node>
        </Node>
        <Node pos="r" depth="1" NCoef="0" IVar="5" Cut="1.6251129150390625e+02" cType="1" res="-3.3808353543281555e-01" rms="3.6837416887283325e-01" purity="1.6191646456718445e-01" nType="0">
          <Node pos="l" depth="2" NCoef="0" IVar="-1" Cut="0.0000000000000000e+00" cType="1" res="-2.4498064815998077e-01" rms="4.8476397991180420e-01" purity="3.7750968337059021e-01" nType="-99"/>
          <Node pos="r" depth="2" NCoef="0" IVar="0" Cut="2.0876695251464844e+02" cType="1" res="-4.2016574740409851e-01" rms="2.7103641629219055e-01" purity="7.9834252595901489e-02" nType="0">
            <Node pos="l" depth="3" NCoef="0" IVar="-1" Cut="0.0000000000000000e+00" cType="1" res="-7.3551815748214722e-01" rms="3.3875250816345215e-01" purity="1.3224093616008759e-01" nType="-99"/>
            <Node pos="r" depth="3" NCoef="0" IVar="-1" Cut="0.0000000000000000e+00" cType="1" res="-9.6648800373077393e-01" rms="1.2835584580898285e-01" purity="1.6755985096096992e-02" nType="-99"/>
          </Node>
        </Node>
      </Node>
    </BinaryTree>
    <BinaryTree type="DecisionTree" boostWeight="1.0000000000000000e+00" itree="1">
      <Node pos="s" depth="0" NCoef="0" IVar="2" Cut="1.4839885234832764e+00" cType="1" res="-9.0063251554965973e-03" rms="4.6352142095565796e-01" purity="5.0000000000000000e-01" nType="0">
        <Node pos="l" depth="1" NCoef="0" IVar="0" Cut="9.0781661987304688e+01" cType="1" res="1.6795855015516281e-02" rms="4.7883909940719604e-01" purity="5.6367367506027222e-01" nType="0">
          <Node pos="l" depth="2" NCoef="0" IVar="7" Cut="4.5045667886734009e-01" cType="1" res="-1.7242174595594406e-02" rms="4.9372246861457825e-01" purity="5.4403400421142578e-01" nType="0">
            <Node pos="l" depth="3" NCoef="0" IVar="-1" Cut="0.0000000000000000e+00" cType="1" res="1.0385543853044510e-01" rms="4.7872504591941833e-01" purity="6.3488692045211792e-01" nType="-99"/>
            <Node pos="r" depth="3" NCoef="0" IVar="-1" Cut="0.0000000000000000e+00" cType="1" res="-7.3610186576843262e-02" rms="4.9618497490882874e-01" purity="5.1902687549591064e-01" nType="-99"/>
          </Node>
          <Node pos="r" depth="2" NCoef="0" IVar="3" Cut="5.9934502840042114e-01" cType="1" res="5.8564074337482452e-02" rms="4.5646277070045471e-01" purity="5.8777362108230591e-01" nType="0">
            <Node pos="l" depth="3" NCoef="0" IVar="-1" Cut="0.0000000000000000e+00" cType="1" res="3.0289620161056519e-01" rms="4.3582946062088013e-01" purity="6.7698341608047485e-01" nType="-99"/>
            <Node pos="r" depth="3" NCoef="0" IVar="-1" Cut="0.0000000000000000e+00" cType="1" res="6.3416682183742523e-02" rms="4.6078899502754211e-01" purity="5.5227428674697876e-01" nType="-99"/>
          </Node>
        </Node>
        <Node pos="r" depth="1" NCoef="0" IVar="2" Cut="1.7668046951293945e+00" cType="1" res="-1.1216008663177490e-01" rms="3.7926435470581055e-01" purity="2.4544075131416321e-01" nType="0">
          <Node pos="l" depth="2" NCoef="0" IVar="-1" Cut="0.0000000000000000e+00" cType="1" res="-1.5575985610485077e-01" rms="4.3918466567993164e-01" purity="3.7727424502372742e-01" nType="-99"/>
          <Node pos="r" depth="2" NCoef="0" IVar="8" Cut="7.4763417243957520e-01" cType="1" res="-1.3903000950813293e-01" rms="3.3815255761146545e-01" purity="1.7155849933624268e-01" nType="0">
            <Node pos="l" depth="3" NCoef="0" IVar="-1" Cut="0.0000000000000000e+00" cType="1" res="-4.7381186485290527e-01" rms="3.4794154763221741e-01" purity="1.7849320173263550e-01" nType="-99"/>
            <Node pos="r" depth="3" NCoef="0" IVar="-1" Cut="0.0000000000000000e+00" cType="1" res="-3.2520443201065063e-01" rms="3.2718828320503235e-01" purity="1.6618396341800690e-01" nType="-99"/>
          </Node>
        </Node>
      </Node>
    </BinaryTree>
    <BinaryTree type="DecisionTree" boostWeight="1.0000000000000000e+00" itree="2">
      <Node pos="s" depth="0" NCoef="0" IVar="0" Cut="1.8015452575683594e+02" cType="1" res="-1.2560773175209761e-03" rms="4.5747303962707520e-01" purity="5.0000000000000000e-01" nType="0">
        <Node pos="l" depth="1" NCoef="0" IVar="5" Cut="1.2833000183105469e+02" cType="1" res="8.0648548901081085e-03" rms="4.7552961111068726e-01" purity="5.4876530170440674e-01" nType="0">
          <Node pos="l" depth="2" NCoef="0" IVar="5" Cut="8.2874244689941406e+01" cType="1" res="3.4157600253820419e-02" rms="4.8046925663948059e-01" purity="6.2014234066009521e-01" nType="0">
            <Node pos="l" depth="3" NCoef="0" IVar="-1" Cut="0.0000000000000000e+00" cType="1" res="-7.0616677403450012e-02" rms="4.8424965143203735e-01" purity="5.6121742725372314e-01" nType="-99"/>
            <Node pos="r" depth="3" NCoef="0" IVar="-1" Cut="0.0000000000000000e+00" cType="1" res="1.0339231789112091e-01" rms="4.7858536243438721e-01" purity="6.3205462694168091e-01" nType="-99"/>
          </Node>
          <Node pos="r" depth="2" NCoef="0" IVar="8" Cut="5.9848552942276001e-01" cType="1" res="-9.0541327372193336e-03" rms="4.7147685289382935e-01" purity="5.0193613767623901e-01" nType="0">
            <Node pos="l" depth="3" NCoef="0" IVar="-1" Cut="0.0000000000000000e+00" cType="1" res="-1.0389874130487442e-01" rms="4.7595718502998352e-01" purity="4.5156982541084290e-01" nType="-99"/>
            <Node pos="r" depth="3" NCoef="0" IVar="-1" Cut="0.0000000000000000e+00" cType="1" res="2.7711275964975357e-02" rms="4.6758162975311279e-01" purity="5.3056645393371582e-01" nType="-99"/>
          </Node>
        </Node>
        <Node pos="r" depth="1" NCoef="0" IVar="-1" Cut="0.0000000000000000e+00" cType="1" res="-3.9993545413017273e-01" rms="2.1460680663585663e-01" purity="5.1142919808626175e-02" nType="-99"/>
      </Node>
    </BinaryTree>
    <BinaryTree type="DecisionTree" boostWeight="1.0000000000000000e+00" itree="3">
      <Node pos="s" depth="0" NCoef="0" IVar="1" Cut="5.9789252281188965e-01" cType="1" res="-1.6414046986028552e-03" rms="4.5515245199203491e-01" purity="5.0000000000000000e-01" nType="0">
        <Node pos="l" depth="1" NCoef="0" IVar="0" Cut="6.0146400451660156e+01" cType="1" res="2.7975874021649361e-02" rms="4.5609605312347412e-01" purity="5.0954532623291016e-01" nType="0">
          <Node pos="l" depth="2" NCoef="0" IVar="-1" Cut="0.0000000000000000e+00" cType="1" res="-7.7786031179130077e-03" rms="4.9430495500564575e-01" purity="5.1292902231216431e-01" nType="-99"/>
          <Node pos="r" depth="2" NCoef="0" IVar="2" Cut="1.2490532398223877e+00" cType="1" res="4.2886216193437576e-02" rms="4.3621894717216492e-01" purity="5.0795751810073853e-01" nType="0">
            <Node pos="l" depth="3" NCoef="0" IVar="-1" Cut="0.0000000000000000e+00" cType="1" res="1.6812804341316223e-01" rms="4.5810034871101379e-01" purity="6.6982686519622803e-01" nType="-99"/>
            <Node pos="r" depth="3" NCoef="0" IVar="-1" Cut="0.0000000000000000e+00" cType="1" res="3.9905823767185211e-02" rms="4.1266486048698425e-01" purity="3.5767498612403870e-01" nType="-99"/>
          </Node>
        </Node>
        <Node pos="r" depth="1" NCoef="0" IVar="5" Cut="2.5216696166992188e+02" cType="1" res="-1.2063603848218918e-02" rms="4.5436096191406250e-01" purity="4.9664103984832764e-01" nType="0">
          <Node pos="l" depth="2" NCoef="0" IVar="4" Cut="6.2084335088729858e-01" cType="1" res="-2.6646752376109362e-03" rms="4.7100076079368591e-01" purity="5.5077362060546875e-01" nType="0">
            <Node pos="l" depth="3" NCoef="0" IVar="-1" Cut="0.0000000000000000e+00" cType="1" res="4.6171922236680984e-02" rms="4.6596610546112061e-01" purity="6.1147826910018921e-01" nType="-99"/>
            <Node pos="r" depth="3" NCoef="0" IVar="-1" Cut="0.0000000000000000e+00" cType="1" res="-4.1712731122970581e-02" rms="4.7380402684211731e-01" purity="5.0925022363662720e-01" nType="-99"/>
          </Node>
          <Node pos="r" depth="2" NCoef="0" IVar="1" Cut="1.3240107297897339e+00" cType="1" res="-5.6936722248792648e-02" rms="3.6124080419540405e-01" purity="2.3819692432880402e-01" nType="0">
            <Node pos="l" depth="3" NCoef="0" IVar="-1" Cut="0.0000000000000000e+00" cType="1" res="-6.5911069512367249e-02" rms="4.0032094717025757e-01" purity="3.3509647846221924e-01" nType="-99"/>
            <Node pos="r" depth="3" NCoef="0" IVar="-1" Cut="0.0000000000000000e+00" cType="1" res="-2.8668391704559326e-01" rms="3.2920730113983154e-01" purity="1.7066068947315216e-01" nType="-99"/>
          </Node>
        </Node>
      </Node>
    </BinaryTree>
    <BinaryTree type="DecisionTree" boostWeight="1.0000000000000000e+00" itree="4">
      <Node pos="s" depth="0" NCoef="0" IVar="0" Cut="1.0014910888671875e+02" cType="1" res="-2.0430561562534422e-04" rms="4.5374989509582520e-01" purity="5.0000000000000000e-01" nType="0">
        <Node pos="l" depth="1" NCoef="0" IVar="6" Cut="1.9463858604431152e+00" cType="1" res="-1.2832383625209332e-02" rms="4.8748394846916199e-01" purity="5.5185419321060181e-01" nType="0">
          <Node pos="l" depth="2" NCoef="0" IVar="4" Cut="1.1276532411575317e+00" cType="1" res="2.6435349136590958e-02" rms="4.8396810889244080e-01" purity="5.7348018884658813e-01" nType="0">
            <Node pos="l" depth="3" NCoef="0" IVar="-1" Cut="0.0000000000000000e+00" cType="1" res="7.4214991182088852e-03" rms="4.8200920224189758e-01" purity="5.9001129865646362e-01" nType="-99"/>
            <Node pos="r" depth="3" NCoef="0" IVar="-1" Cut="0.0000000000000000e+00" cType="1" res="1.2638379633426666e-01" rms="4.8486340045928955e-01" purity="5.4993695020675659e-01" nType="-99"/>
          </Node>
          <Node pos="r" depth="2" NCoef="0" IVar="0" Cut="8.1094131469726562e+01" cType="1" res="-2.9154971241950989e-02" rms="4.8800918459892273e-01" purity="5.4286479949951172e-01" nType="0">
            <Node pos="l" depth="3" NCoef="0" IVar="-1" Cut="0.0000000000000000e+00" cType="1" res="-8.9634306728839874e-02" rms="4.9268677830696106e-01" purity="5.0601184368133545e-01" nType="-99"/>
            <Node pos="r" depth="3" NCoef="0" IVar="-1" Cut="0.0000000000000000e+00" cType="1" res="-9.0401619672775269e-03" rms="4.7808012366294861e-01" purity="6.1208838224411011e-01" nType="-99"/>
          </Node>
        </Node>
        <Node pos="r" depth="1" NCoef="0" IVar="2" Cut="6.3859468698501587e-01" cType="1" res="1.5092265792191029e-02" rms="4.0865707397460938e-01" purity="4.3718829751014709e-01" nType="0">
          <Node pos="l" depth="2" NCoef="0" IVar="1" Cut="1.6350637674331665e+00" cType="1" res="6.3849717378616333e-02" rms="4.3726369738578796e-01" purity="6.5322607755661011e-01" nType="0">
            <Node pos="l" depth="3" NCoef="0" IVar="-1" Cut="0.0000000000000000e+00" cType="1" res="2.6142817735671997e-01" rms="4.0863114595413208e-01" purity="7.4844592809677124e-01" nType="-99"/>
            <Node pos="r" depth="3" NCoef="0" IVar="-1" Cut="0.0000000000000000e+00" cType="1" res="5.3076144307851791e-02" rms="4.6295353770256042e-01" purity="5.4887205362319946e-01" nType="-99"/>
          </Node>
          <Node pos="r" depth="2" NCoef="0" IVar="4" Cut="3.4912145137786865e-01" cType="1" res="-1.9063383806496859e-03" rms="3.9679494500160217e-01" purity="3.6186975240707397e-01" nType="0">
            <Node pos="l" depth="3" NCoef="0" IVar="-1" Cut="0.0000000000000000e+00" cType="1" res="1.5532995760440826e-01" rms="4.4234499335289001e-01" purity="5.9434258937835693e-01" nType="-99"/>
            <Node pos="r" depth="3" NCoef="0" IVar="-1" Cut="0.0000000000000000e+00" cType="1" res="-4.8800386488437653e-02" rms="3.8560494780540466e-01" purity="3.1426206231117249e-01" nType="-99"/>
          </Node>
        </Node>
      </Node>
    </BinaryTree>
    <BinaryTree type="DecisionTree" boostWeight="1.0000000000000000e+00" itree="5">
      <Node pos="s" depth="0" NCoef="0" IVar="6" Cut="1.9453473091125488e+00" cType="1" res="6.6857249476015568e-04" rms="4.5194411277770996e-01" purity="5.0000000000000000e-01" nType="0">
        <Node pos="l" depth="1" NCoef="0" IVar="0" Cut="9.4612640380859375e+01" cType="1" res="-1.5881167724728584e-02" rms="4.4881495833396912e-01" purity="4.9702474474906921e-01" nType="0">
          <Node pos="l" depth="2" NCoef="0" IVar="9" Cut="6.6455048322677612e-01" cType="1" res="1.1979196220636368e-02" rms="4.8238143324851990e-01" purity="5.7498455047607422e-01" nType="0">
            <Node pos="l" depth="3" NCoef="0" IVar="-1" Cut="0.0000000000000000e+00" cType="1" res="-1.3145818375051022e-02" rms="4.8348566889762878e-01" purity="5.5698853731155396e-01" nType="-99"/>
            <Node pos="r" depth="3" NCoef="0" IVar="-1" Cut="0.0000000000000000e+00" cType="1" res="8.8070489466190338e-02" rms="4.7923654317855835e-01" purity="6.0334968566894531e-01" nType="-99"/>
          </Node>
          <Node pos="r" depth="2" NCoef="0" IVar="7" Cut="1.8519085645675659e+00" cType="1" res="-4.6231694519519806e-02" rms="4.0696114301681519e-01" purity="4.1209694743156433e-01" nType="0">
            <Node pos="l" depth="3" NCoef="0" IVar="-1" Cut="0.0000000000000000e+00" cType="1" res="-2.4763940274715424e-01" rms="4.5009103417396545e-01" purity="5.9620344638824463e-01" nType="-99"/>
            <Node pos="r" depth="3" NCoef="0" IVar="-1" Cut="0.0000000000000000e+00" cType="1" res="-6.2023505568504333e-02" rms="3.7126791477203369e-01" purity="2.8325369954109192e-01" nType="-99"/>
          </Node>
        </Node>
        <Node pos="r" depth="1" NCoef="0" IVar="4" Cut="1.8623709678649902e+00" cType="1" res="7.0575280115008354e-03" rms="4.5298457145690918e-01" purity="5.0114858150482178e-01" nType="0">
          <Node pos="l" depth="2" NCoef="0" IVar="10" Cut="2.3936495780944824e+00" cType="1" res="1.2593948049470782e-03" rms="4.6028465032577515e-01" purity="5.3472703695297241e-01" nType="0">
            <Node pos="l" depth="3" NCoef="0" IVar="-1" Cut="0.0000000000000000e+00" cType="1" res="2.8583800420165062e-02" rms="4.5789480209350586e-01" purity="5.5393362045288086e-01" nType="-99"/>
            <Node pos="r" depth="3" NCoef="0" IVar="-1" Cut="0.0000000000000000e+00" cType="1" res="-4.0085956454277039e-02" rms="4.6381205320358276e-01" purity="5.0172173976898193e-01" nType="-99"/>
          </Node>
          <Node pos="r" depth="2" NCoef="0" IVar="9" Cut="1.1693309545516968e+00" cType="1" res="3.2452091574668884e-02" rms="4.1857287287712097e-01" purity="3.5408207774162292e-01" nType="0">
            <Node pos="l" depth="3" NCoef="0" IVar="-1" Cut="0.0000000000000000e+00" cType="1" res="1.6275563836097717e-01" rms="4.6344688534736633e-01" purity="4.5814490318298340e-01" nType="-99"/>
            <Node pos="r" depth="3" NCoef="0" IVar="-1" Cut="0.0000000000000000e+00" cType="1" res="1.5507011674344540e-02" rms="3.7636148929595947e-01" purity="2.7049770951271057e-01" nType="-99"/>
          </Node>
        </Node>
      </Node>
    </BinaryTree>
    <BinaryTree type="DecisionTree" boostWeight="1.0000000000000000e+00" itree="6">
      <Node pos="s" depth="0" NCoef="0" IVar="0" Cut="1.0014910888671875e+02" cType="1" res="3.4866345231421292e-04" rms="4.5092204213142395e-01" purity="5.0000000000000000e-01" nType="0">
        <Node pos="l" depth="1" NCoef="0" IVar="3" Cut="8.9762777090072632e-01" cType="1" res="-7.5873006135225296e-03" rms="4.8548403382301331e-01" purity="5.5185419321060181e-01" nType="0">
          <Node pos="l" depth="2" NCoef="0" IVar="8" Cut="8.9818596839904785e-01" cType="1" res="-2.9850708320736885e-02" rms="4.8248112201690674e-01" purity="5.6330525875091553e-01" nType="0">
            <Node pos="l" depth="3" NCoef="0" IVar="-1" Cut="0.0000000000000000e+00" cType="1" res="2.5076640769839287e-02" rms="4.8178747296333313e-01" purity="5.9019482135772705e-01" nType="-99"/>
            <Node pos="r" depth="3" NCoef="0" IVar="-1" Cut="0.0000000000000000e+00" cType="1" res="-1.9048397243022919e-01" rms="4.7778028249740601e-01" purity="5.2711856365203857e-01" nType="-99"/>
          </Node>
          <Node pos="r" depth="2" NCoef="0" IVar="8" Cut="1.9433373212814331e+00" cType="1" res="2.2598702926188707e-03" rms="4.8648142814636230e-01" purity="5.4678928852081299e-01" nType="0">
            <Node pos="l" depth="3" NCoef="0" IVar="-1" Cut="0.0000000000000000e+00" cType="1" res="-1.7396349459886551e-02" rms="4.8773637413978577e-01" purity="5.2920597791671753e-01" nType="-99"/>
            <Node pos="r" depth="3" NCoef="0" IVar="-1" Cut="0.0000000000000000e+00" cType="1" res="1.3400910794734955e-01" rms="4.7484424710273743e-01" purity="6.4756798744201660e-01" nType="-99"/>
          </Node>
        </Node>
        <Node pos="r" depth="1" NCoef="0" IVar="9" Cut="3.8939306139945984e-01" cType="1" res="9.9616097286343575e-03" rms="4.0491843223571777e-01" purity="4.3718829751014709e-01" nType="0">
          <Node pos="l" depth="2" NCoef="0" IVar="-1" Cut="0.0000000000000000e+00" cType="1" res="-7.3552273213863373e-02" rms="4.3741613626480103e-01" purity="5.2558284997940063e-01" nType="-99"/>
          <Node pos="r" depth="2" NCoef="0" IVar="0" Cut="1.7254095458984375e+02" cType="1" res="1.7071697860956192e-02" rms="3.9788842201232910e-01" purity="4.1996484994888306e-01" nType="0">
            <Node pos="l" depth="3" NCoef="0" IVar="-1" Cut="0.0000000000000000e+00" cType="1" res="8.1660188734531403e-02" rms="4.4517076015472412e-01" purity="5.5204492807388306e-01" nType="-99"/>
            <Node pos="r" depth="3" NCoef="0" IVar="-1" Cut="0.0000000000000000e+00" cType="1" res="-1.9093807041645050e-01" rms="2.1100093424320221e-01" purity="5.0244111567735672e-02" nType="-99"/>
          </Node>
        </Node>
      </Node>
    </BinaryTree>
    <BinaryTree type="DecisionTree" boostWeight="1.0000000000000000e+00" itree="7">
      <Node pos="s" depth="0" NCoef="0" IVar="10" Cut="1.9449003934860229e+00" cType="1" res="6.2641687691211700e-05" rms="4.4942304491996765e-01" purity="5.0000000000000000e-01" nType="0">
        <Node pos="l" depth="1" NCoef="0" IVar="9" Cut="3.8939306139945984e-01" cType="1" res="9.1925291344523430e-03" rms="4.5208218693733215e-01" purity="5.3303903341293335e-01" nType="0">
          <Node pos="l" depth="2" NCoef="0" IVar="1" Cut="9.2906820774078369e-01" cType="1" res="3.8853533565998077e-02" rms="4.6413117647171021e-01" purity="6.0841256380081177e-01" nType="0">
            <Node pos="l" depth="3" NCoef="0" IVar="-1" Cut="0.0000000000000000e+00" cType="1" res="1.4345905184745789e-01" rms="4.5851284265518188e-01" purity="6.3074916601181030e-01" nType="-99"/>
            <Node pos="r" depth="3" NCoef="0" IVar="-1" Cut="0.0000000000000000e+00" cType="1" res="-1.8740157829597592e-03" rms="4.6975788474082947e-01" purity="5.7451671361923218e-01" nType="-99"/>
          </Node>
          <Node pos="r" depth="2" NCoef="0" IVar="6" Cut="2.6928603649139404e+00" cType="1" res="-5.4432719480246305e-04" rms="4.4762790203094482e-01" purity="5.0829607248306274e-01" nType="0">
            <Node pos="l" depth="3" NCoef="0" IVar="-1" Cut="0.0000000000000000e+00" cType="1" res="2.5636453181505203e-02" rms="4.4862926006317139e-01" purity="5.1048314571380615e-01" nType="-99"/>
            <Node pos="r" depth="3" NCoef="0" IVar="-1" Cut="0.0000000000000000e+00" cType="1" res="-1.0014131665229797e-01" rms="4.4222217798233032e-01" purity="5.0076150894165039e-01" nType="-99"/>
          </Node>
        </Node>
        <Node pos="r" depth="1" NCoef="0" IVar="6" Cut="2.7122590541839600e+00" cType="1" res="-1.0208408348262310e-02" rms="4.4618937373161316e-01" purity="4.6283134818077087e-01" nType="0">
          <Node pos="l" depth="2" NCoef="0" IVar="8" Cut="2.3921186923980713e+00" cType="1" res="-2.4135582149028778e-02" rms="4.4210863113403320e-01" purity="4.5084020495414734e-01" nType="0">
            <Node pos="l" depth="3" NCoef="0" IVar="-1" Cut="0.0000000000000000e+00" cType="1" res="-9.2643097043037415e-02" rms="4.5210456848144531e-01" purity="4.3959376215934753e-01" nType="-99"/>
            <Node pos="r" depth="3" NCoef="0" IVar="-1" Cut="0.0000000000000000e+00" cType="1" res="5.1064256578683853e-02" rms="4.0562239289283752e-01" purity="4.8686403036117554e-01" nType="-99"/>
          </Node>
          <Node pos="r" depth="2" NCoef="0" IVar="1" Cut="1.3367023468017578e+00" cType="1" res="9.9677573889493942e-03" rms="4.5127400755882263e-01" purity="4.8020279407501221e-01" nType="0">
            <Node pos="l" depth="3" NCoef="0" IVar="-1" Cut="0.0000000000000000e+00" cType="1" res="-4.3361596763134003e-02" rms="4.5541378855705261e-01" purity="4.4237482547760010e-01" nType="-99"/>
            <Node pos="r" depth="3" NCoef="0" IVar="-1" Cut="0.0000000000000000e+00" cType="1" res="1.3211528956890106e-01" rms="4.4241350889205933e-01" purity="5.3368341922760010e-01" nType="-99"/>
          </Node>
        </Node>
      </Node>
    </BinaryTree>
    <BinaryTree type="DecisionTree" boostWeight="1.0000000000000000e+00" itree="8">
      <Node pos="s" depth="0" NCoef="0" IVar="3" Cut="2.6925108432769775e+00" cType="1" res="2.5000996538437903e-04" rms="4.4811514019966125e-01" purity="5.0000000000000000e-01" nType="0">
        <Node pos="l" depth="1" NCoef="0" IVar="7" Cut="9.0775913000106812e-01" cType="1" res="-3.7915511056780815e-03" rms="4.4791889190673828e-01" purity="5.0360494852066040e-01" nType="0">
          <Node pos="l" depth="2" NCoef="0" IVar="8" Cut="1.9449892044067383e+00" cType="1" res="1.0595755651593208e-02" rms="4.5921093225479126e-01" purity="6.0974365472793579e-01" nType="0">
            <Node pos="l" depth="3" NCoef="0" IVar="-1" Cut="0.0000000000000000e+00" cType="1" res="5.3060710430145264e-02" rms="4.6211537718772888e-01" purity="6.1633193492889404e-01" nType="-99"/>
            <Node pos="r" depth="3" NCoef="0" IVar="-1" Cut="0.0000000000000000e+00" cType="1" res="-7.4302330613136292e-02" rms="4.4729864597320557e-01" purity="5.8794355392456055e-01" nType="-99"/>
          </Node>
          <Node pos="r" depth="2" NCoef="0" IVar="0" Cut="5.7763710021972656e+01" cType="1" res="-1.2314465828239918e-02" rms="4.4087189435958862e-01" purity="4.4072932004928589e-01" nType="0">
            <Node pos="l" depth="3" NCoef="0" IVar="-1" Cut="0.0000000000000000e+00" cType="1" res="-1.3628874719142914e-01" rms="4.8665180802345276e-01" purity="4.2583325505256653e-01" nType="-99"/>
            <Node pos="r" depth="3" NCoef="0" IVar="-1" Cut="0.0000000000000000e+00" cType="1" res="-1.0825690813362598e-02" rms="4.3272548913955688e-01" purity="4.4304436445236206e-01" nType="-99"/>
          </Node>
        </Node>
        <Node pos="r" depth="1" NCoef="0" IVar="-1" Cut="0.0000000000000000e+00" cType="1" res="9.7549498081207275e-02" rms="4.4812288880348206e-01" purity="4.6495795249938965e-01" nType="-99"/>
      </Node>
    </BinaryTree>
    <BinaryTree type="DecisionTree" boostWeight="1.0000000000000000e+00" itree="9">
      <Node pos="s" depth="0" NCoef="0" IVar="2" Cut="8.4815496206283569e-01" cType="1" res="5.6603887060191482e-05" rms="4.4733324646949768e-01" purity="5.0000000000000000e-01" nType="0">
        <Node pos="l" depth="1" NCoef="0" IVar="10" Cut="2.3931756019592285e+00" cType="1" res="1.0319040156900883e-02" rms="4.6333646774291992e-01" purity="5.8303433656692505e-01" nType="0">
          <Node pos="l" depth="2" NCoef="0" IVar="10" Cut="1.3674226999282837e+00" cType="1" res="1.9210938364267349e-02" rms="4.6006816625595093e-01" purity="6.0798573493957520e-01" nType="0">
            <Node pos="l" depth="3" NCoef="0" IVar="-1" Cut="0.0000000000000000e+00" cType="1" res="2.6503237895667553e-03" rms="4.6248635649681091e-01" purity="6.0013419389724731e-01" nType="-99"/>
            <Node pos="r" depth="3" NCoef="0" IVar="-1" Cut="0.0000000000000000e+00" cType="1" res="8.6412511765956879e-02" rms="4.5694401860237122e-01" purity="6.1579197645187378e-01" nType="-99"/>
          </Node>
          <Node pos="r" depth="2" NCoef="0" IVar="9" Cut="6.7114198207855225e-01" cType="1" res="-9.3020331114530563e-03" rms="4.6987313032150269e-01" purity="5.2797609567642212e-01" nType="0">
            <Node pos="l" depth="3" NCoef="0" IVar="-1" Cut="0.0000000000000000e+00" cType="1" res="-8.6077377200126648e-02" rms="4.7152161598205566e-01" purity="4.9392202496528625e-01" nType="-99"/>
            <Node pos="r" depth="3" NCoef="0" IVar="-1" Cut="0.0000000000000000e+00" cType="1" res="6.9988369941711426e-02" rms="4.6477076411247253e-01" purity="5.7412862777709961e-01" nType="-99"/>
          </Node>
        </Node>
        <Node pos="r" depth="1" NCoef="0" IVar="9" Cut="1.5557006597518921e+00" cType="1" res="-1.0830075480043888e-02" rms="4.2943754792213440e-01" purity="4.1191479563713074e-01" nType="0">
          <Node pos="l" depth="2" NCoef="0" IVar="7" Cut="4.5493260025978088e-01" cType="1" res="-2.5355482473969460e-02" rms="4.5300719141960144e-01" purity="4.6015116572380066e-01" nType="0">
            <Node pos="l" depth="3" NCoef="0" IVar="-1" Cut="0.0000000000000000e+00" cType="1" res="-1.6161385178565979e-01" rms="4.7811219096183777e-01" purity="5.6191134452819824e-01" nType="-99"/>
            <Node pos="r" depth="3" NCoef="0" IVar="-1" Cut="0.0000000000000000e+00" cType="1" res="-3.7548772990703583e-02" rms="4.4515272974967957e-01" purity="4.3189543485641479e-01" nType="-99"/>
          </Node>
          <Node pos="r" depth="2" NCoef="0" IVar="8" Cut="1.7948715686798096e+00" cType="1" res="1.3990340754389763e-02" rms="3.8457736372947693e-01" purity="3.2949051260948181e-01" nType="0">
            <Node pos="l" depth="3" NCoef="0" IVar="-1" Cut="0.0000000000000000e+00" cType="1" res="1.1140374839305878e-01" rms="3.9946207404136658e-01" purity="3.5258308053016663e-01" nType="-99"/>
            <Node pos="r" depth="3" NCoef="0" IVar="-1" Cut="0.0000000000000000e+00" cType="1" res="-9.9565617740154266e-02" rms="3.4855654835700989e-01" purity="2.8185716271400452e-01" nType="-99"/>
          </Node>
        </Node>
      </Node>
    </BinaryTree>
    <BinaryTree type="DecisionTree" boostWeight="1.0000000000000000e+00" itree="10">
      <Node pos="s" depth="0" NCoef="0" IVar="7" Cut="2.7680850028991699e+00" cType="1" res="2.2305690799839795e-04" rms="4.4612476229667664e-01" purity="5.0000000000000000e-01" nType="0">
        <Node pos="l" depth="1" NCoef="0" IVar="0" Cut="1.4015182495117188e+02" cType="1" res="3.1713617499917746e-03" rms="4.5572730898857117e-01" purity="5.3540784120559692e-01" nType="0">
          <Node pos="l" depth="2" NCoef="0" IVar="0" Cut="1.2300529479980469e+02" cType="1" res="-1.2453099479898810e-03" rms="4.7076487541198730e-01" purity="5.9117960929870605e-01" nType="0">
            <Node pos="l" depth="3" NCoef="0" IVar="-1" Cut="0.0000000000000000e+00" cType="1" res="1.1629059910774231e-02" rms="4.7166523337364197e-01" purity="5.9049314260482788e-01" nType="-99"/>
            <Node pos="r" depth="3" NCoef="0" IVar="-1" Cut="0.0000000000000000e+00" cType="1" res="-1.4862480759620667e-01" rms="4.5892804861068726e-01" purity="5.9723633527755737e-01" nType="-99"/>
          </Node>
          <Node pos="r" depth="2" NCoef="0" IVar="7" Cut="1.1873859167098999e+00" cType="1" res="2.8753805905580521e-02" rms="3.5527649521827698e-01" purity="2.1236415207386017e-01" nType="0">
            <Node pos="l" depth="3" NCoef="0" IVar="-1" Cut="0.0000000000000000e+00" cType="1" res="2.4871054291725159e-01" rms="4.0777912735939026e-01" purity="3.1856232881546021e-01" nType="-99"/>
            <Node pos="r" depth="3" NCoef="0" IVar="-1" Cut="0.0000000000000000e+00" cType="1" res="-1.4325678348541260e-02" rms="3.0947536230087280e-01" purity="1.3809557259082794e-01" nType="-99"/>
          </Node>
        </Node>
        <Node pos="r" depth="1" NCoef="0" IVar="4" Cut="2.7922272682189941e+00" cType="1" res="-2.2956497967243195e-02" rms="3.6102086305618286e-01" purity="2.2162373363971710e-01" nType="0">
          <Node pos="l" depth="2" NCoef="0" IVar="-1" Cut="0.0000000000000000e+00" cType="1" res="-1.4693427085876465e-01" rms="3.7060707807540894e-01" purity="2.3517017066478729e-01" nType="-99"/>
          <Node pos="r" depth="2" NCoef="0" IVar="-1" Cut="0.0000000000000000e+00" cType="1" res="-2.2467276721727103e-04" rms="3.4860527515411377e-01" purity="2.0652845501899719e-01" nType="-99"/>
        </Node>
      </Node>
    </BinaryTree>
    <BinaryTree type="DecisionTree" boostWeight="1.0000000000000000e+00" itree="11">
      <Node pos="s" depth="0" NCoef="0" IVar="4" Cut="3.4839677810668945e-01" cType="1" res="-2.0215926633682102e-04" rms="4.4520586729049683e-01" purity="5.0000000000000000e-01" nType="0">
        <Node pos="l" depth="1" NCoef="0" IVar="7" Cut="3.7297007441520691e-01" cType="1" res="-1.5186552889645100e-02" rms="4.5596960186958313e-01" purity="6.0813349485397339e-01" nType="0">
          <Node pos="l" depth="2" NCoef="0" IVar="-1" Cut="0.0000000000000000e+00" cType="1" res="-1.1732887476682663e-01" rms="4.5655497908592224e-01" purity="6.0663074254989624e-01" nType="-99"/>
          <Node pos="r" depth="2" NCoef="0" IVar="3" Cut="1.1970152854919434e+00" cType="1" res="-8.6636835476383567e-05" rms="4.5491501688957214e-01" purity="6.0885095596313477e-01" nType="0">
            <Node pos="l" depth="3" NCoef="0" IVar="-1" Cut="0.0000000000000000e+00" cType="1" res="5.5379673838615417e-02" rms="4.3829196691513062e-01" purity="6.6158819198608398e-01" nType="-99"/>
            <Node pos="r" depth="3" NCoef="0" IVar="-1" Cut="0.0000000000000000e+00" cType="1" res="-6.9324575364589691e-02" rms="4.7487878799438477e-01" purity="5.3745681047439575e-01" nType="-99"/>
          </Node>
        </Node>
        <Node pos="r" depth="1" NCoef="0" IVar="9" Cut="1.5557210445404053e+00" cType="1" res="3.7501582410186529e-03" rms="4.4223853945732117e-01" purity="4.7147846221923828e-01" nType="0">
          <Node pos="l" depth="2" NCoef="0" IVar="9" Cut="5.1884818077087402e-01" cType="1" res="8.4953419864177704e-03" rms="4.5832505822181702e-01" purity="5.1643842458724976e-01" nType="0">
            <Node pos="l" depth="3" NCoef="0" IVar="-1" Cut="0.0000000000000000e+00" cType="1" res="-2.0643137395381927e-02" rms="4.6818912029266357e-01" purity="5.1279181241989136e-01" nType="-99"/>
            <Node pos="r" depth="3" NCoef="0" IVar="-1" Cut="0.0000000000000000e+00" cType="1" res="5.1748573780059814e-02" rms="4.5074024796485901e-01" purity="5.1904034614562988e-01" nType="-99"/>
          </Node>
          <Node pos="r" depth="2" NCoef="0" IVar="11" Cut="2.9372789859771729e+00" cType="1" res="-1.1071670800447464e-02" rms="3.8734245300292969e-01" purity="3.3104372024536133e-01" nType="0">
            <Node pos="l" depth="3" NCoef="0" IVar="-1" Cut="0.0000000000000000e+00" cType="1" res="-8.4420286118984222e-02" rms="4.1493514180183411e-01" purity="3.8479509949684143e-01" nType="-99"/>
            <Node pos="r" depth="3" NCoef="0" IVar="-1" Cut="0.0000000000000000e+00" cType="1" res="1.3862295448780060e-01" rms="3.1585302948951721e-01" purity="2.1457725763320923e-01" nType="-99"/>
          </Node>
        </Node>
      </Node>
    </BinaryTree>
    <BinaryTree type="DecisionTree" boostWeight="1.0000000000000000e+00" itree="12">
      <Node pos="s" depth="0" NCoef="0" IVar="10" Cut="2.2440664768218994e+00" cType="1" res="9.5750991022214293e-05" rms="4.4440925121307373e-01" purity="5.0000000000000000e-01" nType="0">
        <Node pos="l" depth="1" NCoef="0" IVar="10" Cut="1.9232451915740967e+00" cType="1" res="-5.7371514849364758e-03" rms="4.4647386670112610e-01" purity="5.1949471235275269e-01" nType="0">
          <Node pos="l" depth="2" NCoef="0" IVar="10" Cut="1.3731417655944824e+00" cType="1" res="-1.2013464001938701e-03" rms="4.4748079776763916e-01" purity="5.3309047222137451e-01" nType="0">
            <Node pos="l" depth="3" NCoef="0" IVar="-1" Cut="0.0000000000000000e+00" cType="1" res="-1.9297337159514427e-02" rms="4.4827279448509216e-01" purity="5.2741581201553345e-01" nType="-99"/>
            <Node pos="r" depth="3" NCoef="0" IVar="-1" Cut="0.0000000000000000e+00" cType="1" res="2.9103647917509079e-02" rms="4.4564059376716614e-01" purity="5.4425913095474243e-01" nType="-99"/>
          </Node>
          <Node pos="r" depth="2" NCoef="0" IVar="7" Cut="1.3265669345855713e+00" cType="1" res="-2.7540303766727448e-02" rms="4.4095078110694885e-01" purity="4.5414116978645325e-01" nType="0">
            <Node pos="l" depth="3" NCoef="0" IVar="-1" Cut="0.0000000000000000e+00" cType="1" res="-1.2845803797245026e-01" rms="4.7201347351074219e-01" purity="5.3619509935379028e-01" nType="-99"/>
            <Node pos="r" depth="3" NCoef="0" IVar="-1" Cut="0.0000000000000000e+00" cType="1" res="-4.2507005855441093e-03" rms="4.0439778566360474e-01" purity="3.6859279870986938e-01" nType="-99"/>
          </Node>
        </Node>
        <Node pos="r" depth="1" NCoef="0" IVar="11" Cut="6.0338246822357178e-01" cType="1" res="1.0094218887388706e-02" rms="4.4066810607910156e-01" purity="4.6658310294151306e-01" nType="0">
          <Node pos="l" depth="2" NCoef="0" IVar="3" Cut="2.1094639301300049e+00" cType="1" res="4.6760492026805878e-02" rms="4.5737734436988831e-01" purity="5.8969509601593018e-01" nType="0">
            <Node pos="l" depth="3" NCoef="0" IVar="-1" Cut="0.0000000000000000e+00" cType="1" res="5.2224855870008469e-02" rms="4.5129403471946716e-01" purity="6.1648035049438477e-01" nType="-99"/>
            <Node pos="r" depth="3" NCoef="0" IVar="-1" Cut="0.0000000000000000e+00" cType="1" res="1.5982106328010559e-01" rms="4.6198236942291260e-01" purity="5.6305104494094849e-01" nType="-99"/>
          </Node>
          <Node pos="r" depth="2" NCoef="0" IVar="5" Cut="1.6251129150390625e+02" cType="1" res="-4.1941818781197071e-03" rms="4.3314293026924133e-01" purity="4.1860786080360413e-01" nType="0">
            <Node pos="l" depth="3" NCoef="0" IVar="-1" Cut="0.0000000000000000e+00" cType="1" res="2.8962373733520508e-02" rms="4.8021876811981201e-01" purity="5.5614459514617920e-01" nType="-99"/>
            <Node pos="r" depth="3" NCoef="0" IVar="-1" Cut="0.0000000000000000e+00" cType="1" res="-4.8036918044090271e-02" rms="3.9801770448684692e-01" purity="3.2629463076591492e-01" nType="-99"/>
          </Node>
        </Node>
      </Node>
    </BinaryTree>
    <BinaryTree type="DecisionTree" boostWeight="1.0000000000000000e+00" itree="13">
      <Node pos="s" depth="0" NCoef="0" IVar="1" Cut="1.1951478719711304e+00" cType="1" res="1.0098251368617639e-04" rms="4.4378468394279480e-01" purity="5.0000000000000000e-01" nType="0">
        <Node pos="l" depth="1" NCoef="0" IVar="0" Cut="1.0014910888671875e+02" cType="1" res="5.8010462671518326e-03" rms="4.5163282752037048e-01" purity="5.1662796735763550e-01" nType="0">
          <Node pos="l" depth="2" NCoef="0" IVar="11" Cut="1.6317632198333740e+00" cType="1" res="-5.7900790125131607e-04" rms="4.7923669219017029e-01" purity="5.4545801877975464e-01" nType="0">
            <Node pos="l" depth="3" NCoef="0" IVar="-1" Cut="0.0000000000000000e+00" cType="1" res="1.6993487253785133e-02" rms="4.7958308458328247e-01" purity="5.7261312007904053e-01" nType="-99"/>
            <Node pos="r" depth="3" NCoef="0" IVar="-1" Cut="0.0000000000000000e+00" cType="1" res="-5.4722879081964493e-02" rms="4.7740432620048523e-01" purity="4.6688473224639893e-01" nType="-99"/>
          </Node>
          <Node pos="r" depth="2" NCoef="0" IVar="2" Cut="1.0414015054702759e+00" cType="1" res="1.7688600346446037e-02" rms="3.9481392502784729e-01" purity="4.6291059255599976e-01" nType="0">
            <Node pos="l" depth="3" NCoef="0" IVar="-1" Cut="0.0000000000000000e+00" cType="1" res="1.6174376010894775e-01" rms="3.9169463515281677e-01" purity="7.7343195676803589e-01" nType="-99"/>
            <Node pos="r" depth="3" NCoef="0" IVar="-1" Cut="0.0000000000000000e+00" cType="1" res="7.4930572882294655e-03" rms="3.9498132467269897e-01" purity="3.4021699428558350e-01" nType="-99"/>
          </Node>
        </Node>
        <Node pos="r" depth="1" NCoef="0" IVar="8" Cut="6.0029858350753784e-01" cType="1" res="-7.6154400594532490e-03" rms="4.3281415104866028e-01" purity="4.7749009728431702e-01" nType="0">
          <Node pos="l" depth="2" NCoef="0" IVar="-1" Cut="0.0000000000000000e+00" cType="1" res="-1.4053225517272949e-01" rms="4.4508597254753113e-01" purity="4.0970924496650696e-01" nType="-99"/>
          <Node pos="r" depth="2" NCoef="0" IVar="4" Cut="1.0461776256561279e+00" cType="1" res="1.8401938723400235e-03" rms="4.2977589368820190e-01" purity="4.9048113822937012e-01" nType="0">
            <Node pos="l" depth="3" NCoef="0" IVar="-1" Cut="0.0000000000000000e+00" cType="1" res="-4.2513582855463028e-02" rms="4.5015588402748108e-01" purity="5.6863552331924438e-01" nType="-99"/>
            <Node pos="r" depth="3" NCoef="0" IVar="-1" Cut="0.0000000000000000e+00" cType="1" res="6.2250245362520218e-02" rms="4.0653076767921448e-01" purity="4.0893059968948364e-01" nType="-99"/>
          </Node>
        </Node>
      </Node>
    </BinaryTree>
    <BinaryTree type="DecisionTree" boostWeight="1.0000000000000000e+00" itree="14">
      <Node pos="s" depth="0" NCoef="0" IVar="8" Cut="2.9957342147827148e-01" cType="1" res="2.1811411716043949e-04" rms="4.4302427768707275e-01" purity="5.0000000000000000e-01" nType="0">
        <Node pos="l" depth="1" NCoef="0" IVar="11" Cut="7.3488938808441162e-01" cType="1" res="1.3908009976148605e-02" rms="4.5357078313827515e-01" purity="4.9166670441627502e-01" nType="0">
          <Node pos="l" depth="2" NCoef="0" IVar="-1" Cut="0.0000000000000000e+00" cType="1" res="8.7795667350292206e-02" rms="4.7097462415695190e-01" purity="6.0878759622573853e-01" nType="-99"/>
          <Node pos="r" depth="2" NCoef="0" IVar="4" Cut="1.3208533525466919e+00" cType="1" res="8.3106168312951922e-04" rms="4.4374102354049683e-01" purity="4.3111705780029297e-01" nType="0">
            <Node pos="l" depth="3" NCoef="0" IVar="-1" Cut="0.0000000000000000e+00" cType="1" res="-5.5611830204725266e-02" rms="4.6368303894996643e-01" purity="4.8147508502006531e-01" nType="-99"/>
            <Node pos="r" depth="3" NCoef="0" IVar="-1" Cut="0.0000000000000000e+00" cType="1" res="7.5239375233650208e-02" rms="4.1946956515312195e-01" purity="3.7659019231796265e-01" nType="-99"/>
          </Node>
        </Node>
        <Node pos="r" depth="1" NCoef="0" IVar="8" Cut="4.3507099151611328e-01" cType="1" res="-2.9024358373135328e-03" rms="4.4052538275718689e-01" purity="5.0189954042434692e-01" nType="0">
          <Node pos="l" depth="2" NCoef="0" IVar="-1" Cut="0.0000000000000000e+00" cType="1" res="-8.2856394350528717e-02" rms="4.5788931846618652e-01" purity="4.4508466124534607e-01" nType="-99"/>
          <Node pos="r" depth="2" NCoef="0" IVar="7" Cut="4.6230182051658630e-01" cType="1" res="-4.1588045860407874e-05" rms="4.3879154324531555e-01" purity="5.0709640979766846e-01" nType="0">
            <Node pos="l" depth="3" NCoef="0" IVar="-1" Cut="0.0000000000000000e+00" cType="1" res="4.6929877251386642e-02" rms="4.4217628240585327e-01" purity="6.3543504476547241e-01" nType="-99"/>
            <Node pos="r" depth="3" NCoef="0" IVar="-1" Cut="0.0000000000000000e+00" cType="1" res="-1.2158236466348171e-02" rms="4.3786624073982239e-01" purity="4.7684994339942932e-01" nType="-99"/>
          </Node>
        </Node>
      </Node>
    </BinaryTree>
    <BinaryTree type="DecisionTree" boostWeight="1.0000000000000000e+00" itree="15">
      <Node pos="s" depth="0" NCoef="0" IVar="1" Cut="1.4995101094245911e-01" cType="1" res="4.7751014790264890e-05" rms="4.4265449047088623e-01" purity="5.0000000000000000e-01" nType="0">
        <Node pos="l" depth="1" NCoef="0" IVar="-1" Cut="0.0000000000000000e+00" cType="1" res="-5.6070394814014435e-02" rms="4.4518101215362549e-01" purity="4.5820167660713196e-01" nType="-99"/>
        <Node pos="r" depth="1" NCoef="0" IVar="1" Cut="5.7686257362365723e-01" cType="1" res="1.3933719601482153e-03" rms="4.4246593117713928e-01" purity="5.0251597166061401e-01" nType="0">
          <Node pos="l" depth="2" NCoef="0" IVar="9" Cut="6.7923700809478760e-01" cType="1" res="1.8487926572561264e-02" rms="4.4752818346023560e-01" purity="5.2681142091751099e-01" nType="0">
            <Node pos="l" depth="3" NCoef="0" IVar="-1" Cut="0.0000000000000000e+00" cType="1" res="-1.6603102907538414e-02" rms="4.6784588694572449e-01" purity="5.5245590209960938e-01" nType="-99"/>
            <Node pos="r" depth="3" NCoef="0" IVar="-1" Cut="0.0000000000000000e+00" cType="1" res="9.6945375204086304e-02" rms="4.3214967846870422e-01" purity="5.0921213626861572e-01" nType="-99"/>
          </Node>
          <Node pos="r" depth="2" NCoef="0" IVar="9" Cut="7.1935963630676270e-01" cType="1" res="-3.0010158661752939e-03" rms="4.4104817509651184e-01" purity="4.9627047777175903e-01" nType="0">
            <Node pos="l" depth="3" NCoef="0" IVar="-1" Cut="0.0000000000000000e+00" cType="1" res="2.5882728397846222e-02" rms="4.5495048165321350e-01" purity="5.4697406291961670e-01" nType="-99"/>
            <Node pos="r" depth="3" NCoef="0" IVar="-1" Cut="0.0000000000000000e+00" cType="1" res="-4.0193300694227219e-02" rms="4.2889305949211121e-01" purity="4.5441123843193054e-01" nType="-99"/>
          </Node>
        </Node>
      </Node>
    </BinaryTree>
    <BinaryTree type="DecisionTree" boostWeight="1.0000000000000000e+00" itree="16">
      <Node pos="s" depth="0" NCoef="0" IVar="4" Cut="6.9671398401260376e-01" cType="1" res="4.9932070396607742e-05" rms="4.4227185845375061e-01" purity="5.0000000000000000e-01" nType="0">
        <Node pos="l" depth="1" NCoef="0" IVar="11" Cut="8.5274094343185425e-01" cType="1" res="-7.2975880466401577e-03" rms="4.5319819450378418e-01" purity="5.9362459182739258e-01" nType="0">
          <Node pos="l" depth="2" NCoef="0" IVar="8" Cut="1.3466833829879761e+00" cType="1" res="-1.7713546752929688e-02" rms="4.5254740118980408e-01" purity="6.0416567325592041e-01" nType="0">
            <Node pos="l" depth="3" NCoef="0" IVar="-1" Cut="0.0000000000000000e+00" cType="1" res="-7.5893215835094452e-02" rms="4.5962196588516235e-01" purity="5.9271496534347534e-01" nType="-99"/>
            <Node pos="r" depth="3" NCoef="0" IVar="-1" Cut="0.0000000000000000e+00" cType="1" res="1.4780273661017418e-02" rms="4.3937763571739197e-01" purity="6.2343186140060425e-01" nType="-99"/>
          </Node>
          <Node pos="r" depth="2" NCoef="0" IVar="-1" Cut="0.0000000000000000e+00" cType="1" res="5.8293025940656662e-02" rms="4.5372706651687622e-01" purity="5.6286168098449707e-01" nType="-99"/>
        </Node>
        <Node pos="r" depth="1" NCoef="0" IVar="2" Cut="2.1253030002117157e-01" cType="1" res="4.7940015792846680e-03" rms="4.3500536680221558e-01" purity="4.3954947590827942e-01" nType="0">
          <Node pos="l" depth="2" NCoef="0" IVar="-1" Cut="0.0000000000000000e+00" cType="1" res="7.8862704336643219e-02" rms="4.6043217182159424e-01" purity="5.7801878452301025e-01" nType="-99"/>
          <Node pos="r" depth="2" NCoef="0" IVar="5" Cut="3.5916290283203125e+02" cType="1" res="8.4124988643452525e-04" rms="4.3140161037445068e-01" purity="4.2137956619262695e-01" nType="0">
            <Node pos="l" depth="3" NCoef="0" IVar="-1" Cut="0.0000000000000000e+00" cType="1" res="1.2150427326560020e-02" rms="4.4455435872077942e-01" purity="4.5440018177032471e-01" nType="-99"/>
            <Node pos="r" depth="3" NCoef="0" IVar="-1" Cut="0.0000000000000000e+00" cType="1" res="-1.6126847267150879e-01" rms="2.9795286059379578e-01" purity="1.4582134783267975e-01" nType="-99"/>
          </Node>
        </Node>
      </Node>
    </BinaryTree>
    <BinaryTree type="DecisionTree" boostWeight="1.0000000000000000e+00" itree="17">
      <Node pos="s" depth="0" NCoef="0" IVar="1" Cut="1.7924032211303711e+00" cType="1" res="3.4603217500261962e-05" rms="4.4170483946800232e-01" purity="5.0000000000000000e-01" nType="0">
        <Node pos="l" depth="1" NCoef="0" IVar="11" Cut="3.2648718357086182e-01" cType="1" res="2.6837619952857494e-03" rms="4.4551533460617065e-01" purity="5.1881927251815796e-01" nType="0">
          <Node pos="l" depth="2" NCoef="0" IVar="8" Cut="8.9797455072402954e-01" cType="1" res="2.4467267096042633e-02" rms="4.5309075713157654e-01" purity="6.2181836366653442e-01" nType="0">
            <Node pos="l" depth="3" NCoef="0" IVar="-1" Cut="0.0000000000000000e+00" cType="1" res="-9.7064618021249771e-03" rms="4.7159725427627563e-01" purity="5.6865388154983521e-01" nType="-99"/>
            <Node pos="r" depth="3" NCoef="0" IVar="-1" Cut="0.0000000000000000e+00" cType="1" res="1.4418151974678040e-01" rms="4.2743566632270813e-01" purity="6.8524795770645142e-01" nType="-99"/>
          </Node>
          <Node pos="r" depth="2" NCoef="0" IVar="9" Cut="7.7816224098205566e-01" cType="1" res="-1.3987362617626786e-03" rms="4.4396233558654785e-01" purity="4.9951598048210144e-01" nType="0">
            <Node pos="l" depth="3" NCoef="0" IVar="-1" Cut="0.0000000000000000e+00" cType="1" res="-2.6907082647085190e-02" rms="4.6453556418418884e-01" purity="5.3776627779006958e-01" nType="-99"/>
            <Node pos="r" depth="3" NCoef="0" IVar="-1" Cut="0.0000000000000000e+00" cType="1" res="1.8536368384957314e-02" rms="4.2640411853790283e-01" purity="4.6854391694068909e-01" nType="-99"/>
          </Node>
        </Node>
        <Node pos="r" depth="1" NCoef="0" IVar="7" Cut="1.8460251092910767e+00" cType="1" res="-1.1771454475820065e-02" rms="4.2410627007484436e-01" purity="4.1613128781318665e-01" nType="0">
          <Node pos="l" depth="2" NCoef="0" IVar="-1" Cut="0.0000000000000000e+00" cType="1" res="-7.5705602765083313e-02" rms="4.5771551132202148e-01" purity="5.2099925279617310e-01" nType="-99"/>
          <Node pos="r" depth="2" NCoef="0" IVar="-1" Cut="0.0000000000000000e+00" cType="1" res="1.0930691845715046e-02" rms="3.9343875646591187e-01" purity="3.2922732830047607e-01" nType="-99"/>
        </Node>
      </Node>
    </BinaryTree>
    <BinaryTree type="DecisionTree" boostWeight="1.0000000000000000e+00" itree="18">
      <Node pos="s" depth="0" NCoef="0" IVar="8" Cut="7.4831247329711914e-01" cType="1" res="1.5983131015673280e-04" rms="4.4129770994186401e-01" purity="5.0000000000000000e-01" nType="0">
        <Node pos="l" depth="1" NCoef="0" IVar="9" Cut="7.7816224098205566e-01" cType="1" res="8.0527104437351227e-03" rms="4.5327794551849365e-01" purity="4.8838081955909729e-01" nType="0">
          <Node pos="l" depth="2" NCoef="0" IVar="7" Cut="6.5280044078826904e-01" cType="1" res="2.3808736354112625e-02" rms="4.6603944897651672e-01" purity="5.2480900287628174e-01" nType="0">
            <Node pos="l" depth="3" NCoef="0" IVar="-1" Cut="0.0000000000000000e+00" cType="1" res="9.7196340560913086e-02" rms="4.6448239684104919e-01" purity="6.1906087398529053e-01" nType="-99"/>
            <Node pos="r" depth="3" NCoef="0" IVar="-1" Cut="0.0000000000000000e+00" cType="1" res="3.2062634825706482e-02" rms="4.6651557087898254e-01" purity="4.7723868489265442e-01" nType="-99"/>
          </Node>
          <Node pos="r" depth="2" NCoef="0" IVar="7" Cut="6.9312715530395508e-01" cType="1" res="-1.0225941427052021e-02" rms="4.3729686737060547e-01" purity="4.4612032175064087e-01" nType="0">
            <Node pos="l" depth="3" NCoef="0" IVar="-1" Cut="0.0000000000000000e+00" cType="1" res="-1.0511688888072968e-01" rms="4.6128183603286743e-01" purity="5.6316560506820679e-01" nType="-99"/>
            <Node pos="r" depth="3" NCoef="0" IVar="-1" Cut="0.0000000000000000e+00" cType="1" res="7.5093065388500690e-03" rms="4.2702564597129822e-01" purity="4.0119391679763794e-01" nType="-99"/>
          </Node>
        </Node>
        <Node pos="r" depth="1" NCoef="0" IVar="3" Cut="1.0470056533813477e+00" cType="1" res="-5.2792192436754704e-03" rms="4.3276533484458923e-01" purity="5.0800687074661255e-01" nType="0">
          <Node pos="l" depth="2" NCoef="0" IVar="8" Cut="2.4578835964202881e+00" cType="1" res="-1.9041301682591438e-02" rms="4.2990067601203918e-01" purity="5.1643639802932739e-01" nType="0">
            <Node pos="l" depth="3" NCoef="0" IVar="-1" Cut="0.0000000000000000e+00" cType="1" res="-1.9782258197665215e-02" rms="4.2856398224830627e-01" purity="5.3510123491287231e-01" nType="-99"/>
            <Node pos="r" depth="3" NCoef="0" IVar="-1" Cut="0.0000000000000000e+00" cType="1" res="-1.7432995140552521e-01" rms="4.3199694156646729e-01" purity="4.4741627573966980e-01" nType="-99"/>
          </Node>
          <Node pos="r" depth="2" NCoef="0" IVar="8" Cut="2.3425209522247314e+00" cType="1" res="4.5439759269356728e-03" rms="4.3453204631805420e-01" purity="5.0198996067047119e-01" nType="0">
            <Node pos="l" depth="3" NCoef="0" IVar="-1" Cut="0.0000000000000000e+00" cType="1" res="-1.0631134733557701e-02" rms="4.4611391425132751e-01" purity="4.9171796441078186e-01" nType="-99"/>
            <Node pos="r" depth="3" NCoef="0" IVar="-1" Cut="0.0000000000000000e+00" cType="1" res="8.5607573390007019e-02" rms="3.9816027879714966e-01" purity="5.3163570165634155e-01" nType="-99"/>
          </Node>
        </Node>
      </Node>
    </BinaryTree>
    <BinaryTree type="DecisionTree" boostWeight="1.0000000000000000e+00" itree="19">
      <Node pos="s" depth="0" NCoef="0" IVar="5" Cut="1.4525683593750000e+02" cType="1" res="1.7998495604842901e-04" rms="4.4060808420181274e-01" purity="5.0000000000000000e-01" nType="0">
        <Node pos="l" depth="1" NCoef="0" IVar="1" Cut="1.1841776371002197e+00" cType="1" res="7.7147055417299271e-03" rms="4.6579667925834656e-01" purity="6.0290962457656860e-01" nType="0">
          <Node pos="l" depth="2" NCoef="0" IVar="2" Cut="8.7302422523498535e-01" cType="1" res="-7.0162718184292316e-03" rms="4.6983692049980164e-01" purity="5.7570070028305054e-01" nType="0">
            <Node pos="l" depth="3" NCoef="0" IVar="-1" Cut="0.0000000000000000e+00" cType="1" res="-7.7073186635971069e-02" rms="4.6489569544792175e-01" purity="5.6630337238311768e-01" nType="-99"/>
            <Node pos="r" depth="3" NCoef="0" IVar="-1" Cut="0.0000000000000000e+00" cType="1" res="4.2033445090055466e-02" rms="4.7300499677658081e-01" purity="5.8440023660659790e-01" nType="-99"/>
          </Node>
          <Node pos="r" depth="2" NCoef="0" IVar="8" Cut="1.0507152080535889e+00" cType="1" res="2.8431957587599754e-02" rms="4.5925572514533997e-01" purity="6.4117556810379028e-01" nType="0">
            <Node pos="l" depth="3" NCoef="0" IVar="-1" Cut="0.0000000000000000e+00" cType="1" res="1.3855271041393280e-01" rms="4.7707846760749817e-01" purity="6.3653373718261719e-01" nType="-99"/>
            <Node pos="r" depth="3" NCoef="0" IVar="-1" Cut="0.0000000000000000e+00" cType="1" res="3.5675138235092163e-02" rms="4.5129659771919250e-01" purity="6.4300882816314697e-01" nType="-99"/>
          </Node>
        </Node>
        <Node pos="r" depth="1" NCoef="0" IVar="6" Cut="2.2444005012512207e+00" cType="1" res="-6.6016102209687233e-03" rms="4.1652056574821472e-01" purity="4.0737661719322205e-01" nType="0">
          <Node pos="l" depth="2" NCoef="0" IVar="3" Cut="1.1975388526916504e+00" cType="1" res="-2.8115393593907356e-02" rms="4.1417515277862549e-01" purity="3.5603898763656616e-01" nType="0">
            <Node pos="l" depth="3" NCoef="0" IVar="-1" Cut="0.0000000000000000e+00" cType="1" res="-1.8873957917094231e-02" rms="4.0977883338928223e-01" purity="3.7562212347984314e-01" nType="-99"/>
            <Node pos="r" depth="3" NCoef="0" IVar="-1" Cut="0.0000000000000000e+00" cType="1" res="-1.4731886982917786e-01" rms="4.1774076223373413e-01" purity="3.3381688594818115e-01" nType="-99"/>
          </Node>
          <Node pos="r" depth="2" NCoef="0" IVar="3" Cut="1.6477522850036621e+00" cType="1" res="6.6587873734533787e-03" rms="4.1740763187408447e-01" purity="4.3901944160461426e-01" nType="0">
            <Node pos="l" depth="3" NCoef="0" IVar="-1" Cut="0.0000000000000000e+00" cType="1" res="9.0302154421806335e-02" rms="4.0601730346679688e-01" purity="4.7960948944091797e-01" nType="-99"/>
            <Node pos="r" depth="3" NCoef="0" IVar="-1" Cut="0.0000000000000000e+00" cType="1" res="-2.7028147131204605e-02" rms="4.2467492818832397e-01" purity="4.0966317057609558e-01" nType="-99"/>
          </Node>
        </Node>
      </Node>
    </BinaryTree>
    <BinaryTree type="DecisionTree" boostWeight="1.0000000000000000e+00" itree="20">
      <Node pos="s" depth="0" NCoef="0" IVar="6" Cut="2.5434539318084717e+00" cType="1" res="1.0913066216744483e-04" rms="4.3938791751861572e-01" purity="5.0000000000000000e-01" nType="0">
        <Node pos="l" depth="1" NCoef="0" IVar="2" Cut="8.2139927148818970e-01" cType="1" res="6.4761866815388203e-03" rms="4.3982890248298645e-01" purity="5.0445079803466797e-01" nType="0">
          <Node pos="l" depth="2" NCoef="0" IVar="1" Cut="1.0465859174728394e+00" cType="1" res="1.6098406165838242e-02" rms="4.5648106932640076e-01" purity="5.8799117803573608e-01" nType="0">
            <Node pos="l" depth="3" NCoef="0" IVar="-1" Cut="0.0000000000000000e+00" cType="1" res="1.1299706250429153e-01" rms="4.5742607116699219e-01" purity="6.2244188785552979e-01" nType="-99"/>
            <Node pos="r" depth="3" NCoef="0" IVar="-1" Cut="0.0000000000000000e+00" cType="1" res="-1.3199580833315849e-02" rms="4.5455667376518250e-01" purity="5.6584036350250244e-01" nType="-99"/>
          </Node>
          <Node pos="r" depth="2" NCoef="0" IVar="1" Cut="8.9652019739151001e-01" cType="1" res="-4.4077504426240921e-03" rms="4.1993290185928345e-01" purity="4.0995615720748901e-01" nType="0">
            <Node pos="l" depth="3" NCoef="0" IVar="-1" Cut="0.0000000000000000e+00" cType="1" res="-6.3456833362579346e-02" rms="4.4881793856620789e-01" purity="4.7303074598312378e-01" nType="-99"/>
            <Node pos="r" depth="3" NCoef="0" IVar="-1" Cut="0.0000000000000000e+00" cType="1" res="3.7808358669281006e-02" rms="3.9406299591064453e-01" purity="3.5848787426948547e-01" nType="-99"/>
          </Node>
        </Node>
        <Node pos="r" depth="1" NCoef="0" IVar="3" Cut="1.9458508491516113e+00" cType="1" res="-9.2941792681813240e-03" rms="4.3856683373451233e-01" purity="4.9342674016952515e-01" nType="0">
          <Node pos="l" depth="2" NCoef="0" IVar="0" Cut="1.0180579376220703e+02" cType="1" res="-2.1646840497851372e-02" rms="4.3594890832901001e-01" purity="5.1294285058975220e-01" nType="0">
            <Node pos="l" depth="3" NCoef="0" IVar="-1" Cut="0.0000000000000000e+00" cType="1" res="-1.0523480921983719e-01" rms="4.6497547626495361e-01" purity="5.4072266817092896e-01" nType="-99"/>
            <Node pos="r" depth="3" NCoef="0" IVar="-1" Cut="0.0000000000000000e+00" cType="1" res="4.5229895040392876e-03" rms="4.0488755702972412e-01" purity="4.8635220527648926e-01" nType="-99"/>
          </Node>
          <Node pos="r" depth="2" NCoef="0" IVar="2" Cut="1.2459429502487183e+00" cType="1" res="1.2495657429099083e-02" rms="4.4230687618255615e-01" purity="4.5900085568428040e-01" nType="0">
            <Node pos="l" depth="3" NCoef="0" IVar="-1" Cut="0.0000000000000000e+00" cType="1" res="6.8211019039154053e-02" rms="4.6250513195991516e-01" purity="5.4124015569686890e-01" nType="-99"/>
            <Node pos="r" depth="3" NCoef="0" IVar="-1" Cut="0.0000000000000000e+00" cType="1" res="-6.5779879689216614e-02" rms="3.9873063564300537e-01" purity="3.0165785551071167e-01" nType="-99"/>
          </Node>
        </Node>
      </Node>
    </BinaryTree>
    <BinaryTree type="DecisionTree" boostWeight="1.0000000000000000e+00" itree="21">
      <Node pos="s" depth="0" NCoef="0" IVar="7" Cut="1.8454152345657349e+00" cType="1" res="1.7210691294167191e-04" rms="4.3846842646598816e-01" purity="5.0000000000000000e-01" nType="0">
        <Node pos="l" depth="1" NCoef="0" IVar="11" Cut="1.1731890439987183e+00" cType="1" res="-3.6927242763340473e-03" rms="4.5220580697059631e-01" purity="5.7114732265472412e-01" nType="0">
          <Node pos="l" depth="2" NCoef="0" IVar="2" Cut="2.9025918245315552e-01" cType="1" res="2.7044969610869884e-03" rms="4.5419129729270935e-01" purity="6.0715788602828979e-01" nType="0">
            <Node pos="l" depth="3" NCoef="0" IVar="-1" Cut="0.0000000000000000e+00" cType="1" res="-5.7298921048641205e-02" rms="4.5800435543060303e-01" purity="5.9345626831054688e-01" nType="-99"/>
            <Node pos="r" depth="3" NCoef="0" IVar="-1" Cut="0.0000000000000000e+00" cType="1" res="2.4846628308296204e-02" rms="4.5281931757926941e-01" purity="6.1105412244796753e-01" nType="-99"/>
          </Node>
          <Node pos="r" depth="2" NCoef="0" IVar="2" Cut="1.5653512477874756e+00" cType="1" res="-1.5386620536446571e-02" rms="4.4831779599189758e-01" purity="5.0532132387161255e-01" nType="0">
            <Node pos="l" depth="3" NCoef="0" IVar="-1" Cut="0.0000000000000000e+00" cType="1" res="-5.8058150112628937e-02" rms="4.6008503437042236e-01" purity="5.6019985675811768e-01" nType="-99"/>
            <Node pos="r" depth="3" NCoef="0" IVar="-1" Cut="0.0000000000000000e+00" cType="1" res="4.1055031120777130e-02" rms="4.0666466951370239e-01" purity="3.2812395691871643e-01" nType="-99"/>
          </Node>
        </Node>
        <Node pos="r" depth="1" NCoef="0" IVar="11" Cut="9.8199427127838135e-01" cType="1" res="8.6732953786849976e-03" rms="4.0649214386940002e-01" purity="3.4350240230560303e-01" nType="0">
          <Node pos="l" depth="2" NCoef="0" IVar="-1" Cut="0.0000000000000000e+00" cType="1" res="-6.7921556532382965e-02" rms="4.5285493135452271e-01" purity="4.8471194505691528e-01" nType="-99"/>
          <Node pos="r" depth="2" NCoef="0" IVar="0" Cut="1.3082067871093750e+02" cType="1" res="1.7283355817198753e-02" rms="3.9472761750221252e-01" purity="3.1151694059371948e-01" nType="0">
            <Node pos="l" depth="3" NCoef="0" IVar="-1" Cut="0.0000000000000000e+00" cType="1" res="8.3049237728118896e-02" rms="4.6393245458602905e-01" purity="4.5636224746704102e-01" nType="-99"/>
            <Node pos="r" depth="3" NCoef="0" IVar="-1" Cut="0.0000000000000000e+00" cType="1" res="-7.4030540883541107e-02" rms="2.5187197327613831e-01" purity="8.9441828429698944e-02" nType="-99"/>
          </Node>
        </Node>
      </Node>
    </BinaryTree>
    <BinaryTree type="DecisionTree" boostWeight="1.0000000000000000e+00" itree="22">
      <Node pos="s" depth="0" NCoef="0" IVar="6" Cut="1.1977143287658691e+00" cType="1" res="-8.2986707639065571e-06" rms="4.3788534402847290e-01" purity="5.0000000000000000e-01" nType="0">
        <Node pos="l" depth="1" NCoef="0" IVar="-1" Cut="0.0000000000000000e+00" cType="1" res="-5.1348458975553513e-02" rms="4.4780397415161133e-01" purity="4.5499977469444275e-01" nType="-99"/>
        <Node pos="r" depth="1" NCoef="0" IVar="5" Cut="9.3409164428710938e+01" cType="1" res="1.8782797269523144e-03" rms="4.3687781691551208e-01" purity="5.0430595874786377e-01" nType="0">
          <Node pos="l" depth="2" NCoef="0" IVar="-1" Cut="0.0000000000000000e+00" cType="1" res="4.8884455114603043e-02" rms="4.6596598625183105e-01" purity="6.0824501514434814e-01" nType="-99"/>
          <Node pos="r" depth="2" NCoef="0" IVar="8" Cut="1.4993193745613098e-01" cType="1" res="-5.0310202641412616e-04" rms="4.3313527107238770e-01" purity="4.9162554740905762e-01" nType="0">
            <Node pos="l" depth="3" NCoef="0" IVar="-1" Cut="0.0000000000000000e+00" cType="1" res="4.6962000429630280e-02" rms="4.5296198129653931e-01" purity="5.0271326303482056e-01" nType="-99"/>
            <Node pos="r" depth="3" NCoef="0" IVar="-1" Cut="0.0000000000000000e+00" cType="1" res="-6.5042581409215927e-03" rms="4.3107077479362488e-01" purity="4.9052602052688599e-01" nType="-99"/>
          </Node>
        </Node>
      </Node>
    </BinaryTree>
    <BinaryTree type="DecisionTree" boostWeight="1.0000000000000000e+00" itree="23">
      <Node pos="s" depth="0" NCoef="0" IVar="2" Cut="2.1232135593891144e-01" cType="1" res="2.3835773390601389e-05" rms="4.3775099515914917e-01" purity="5.0000000000000000e-01" nType="0">
        <Node pos="l" depth="1" NCoef="0" IVar="0" Cut="7.9927978515625000e+01" cType="1" res="1.5288606286048889e-02" rms="4.5255368947982788e-01" purity="5.8984184265136719e-01" nType="0">
          <Node pos="l" depth="2" NCoef="0" IVar="-1" Cut="0.0000000000000000e+00" cType="1" res="-1.4884424395859241e-02" rms="4.7592055797576904e-01" purity="5.1221126317977905e-01" nType="-99"/>
          <Node pos="r" depth="2" NCoef="0" IVar="-1" Cut="0.0000000000000000e+00" cType="1" res="9.4163872301578522e-02" rms="4.2734408378601074e-01" purity="6.6578441858291626e-01" nType="-99"/>
        </Node>
        <Node pos="r" depth="1" NCoef="0" IVar="7" Cut="1.1534126996994019e+00" cType="1" res="-2.2042675409466028e-03" rms="4.3550354242324829e-01" purity="4.8688635230064392e-01" nType="0">
          <Node pos="l" depth="2" NCoef="0" IVar="4" Cut="1.8610276281833649e-01" cType="1" res="-9.8829092457890511e-03" rms="4.5449492335319519e-01" purity="5.8668136596679688e-01" nType="0">
            <Node pos="l" depth="3" NCoef="0" IVar="-1" Cut="0.0000000000000000e+00" cType="1" res="-1.0801769793033600e-01" rms="4.5736545324325562e-01" purity="5.9165126085281372e-01" nType="-99"/>
            <Node pos="r" depth="3" NCoef="0" IVar="-1" Cut="0.0000000000000000e+00" cType="1" res="-6.5888497047126293e-03" rms="4.5355793833732605e-01" purity="5.8562010526657104e-01" nType="-99"/>
          </Node>
          <Node pos="r" depth="2" NCoef="0" IVar="0" Cut="5.7970748901367188e+01" cType="1" res="4.5129964128136635e-03" rms="4.1806760430335999e-01" purity="3.9958584308624268e-01" nType="0">
            <Node pos="l" depth="3" NCoef="0" IVar="-1" Cut="0.0000000000000000e+00" cType="1" res="-7.6654523611068726e-02" rms="4.7194108366966248e-01" purity="4.0821874141693115e-01" nType="-99"/>
            <Node pos="r" depth="3" NCoef="0" IVar="-1" Cut="0.0000000000000000e+00" cType="1" res="2.8444679453969002e-02" rms="4.1055595874786377e-01" purity="3.9850637316703796e-01" nType="-99"/>
          </Node>
        </Node>
      </Node>
    </BinaryTree>
    <BinaryTree type="DecisionTree" boostWeight="1.0000000000000000e+00" itree="24">
      <Node pos="s" depth="0" NCoef="0" IVar="5" Cut="1.4525683593750000e+02" cType="1" res="1.0927466792054474e-04" rms="4.3732520937919617e-01" purity="5.0000000000000000e-01" nType="0">
        <Node pos="l" depth="1" NCoef="0" IVar="1" Cut="4.4446486234664917e-01" cType="1" res="7.7527761459350586e-03" rms="4.6268036961555481e-01" purity="6.0290962457656860e-01" nType="0">
          <Node pos="l" depth="2" NCoef="0" IVar="-1" Cut="0.0000000000000000e+00" cType="1" res="-4.0042340755462646e-02" rms="4.6964854001998901e-01" purity="5.4839885234832764e-01" nType="-99"/>
          <Node pos="r" depth="2" NCoef="0" IVar="5" Cut="1.3574960327148438e+02" cType="1" res="1.3184171169996262e-02" rms="4.6098172664642334e-01" purity="6.1468064785003662e-01" nType="0">
            <Node pos="l" depth="3" NCoef="0" IVar="-1" Cut="0.0000000000000000e+00" cType="1" res="4.4233486056327820e-02" rms="4.6002909541130066e-01" purity="6.2685912847518921e-01" nType="-99"/>
            <Node pos="r" depth="3" NCoef="0" IVar="-1" Cut="0.0000000000000000e+00" cType="1" res="-5.7979803532361984e-02" rms="4.6558707952499390e-01" purity="5.3244465589523315e-01" nType="-99"/>
          </Node>
        </Node>
        <Node pos="r" depth="1" NCoef="0" IVar="1" Cut="4.4883415102958679e-01" cType="1" res="-6.7702280357480049e-03" rms="4.1305518150329590e-01" purity="4.0737661719322205e-01" nType="0">
          <Node pos="l" depth="2" NCoef="0" IVar="-1" Cut="0.0000000000000000e+00" cType="1" res="4.8578351736068726e-02" rms="4.1813033819198608e-01" purity="4.6043384075164795e-01" nType="-99"/>
          <Node pos="r" depth="2" NCoef="0" IVar="6" Cut="2.3939273357391357e+00" cType="1" res="-1.2425385415554047e-02" rms="4.1165524721145630e-01" purity="3.9497897028923035e-01" nType="0">
            <Node pos="l" depth="3" NCoef="0" IVar="-1" Cut="0.0000000000000000e+00" cType="1" res="-6.5623551607131958e-02" rms="4.1049215197563171e-01" purity="3.5472470521926880e-01" nType="-99"/>
            <Node pos="r" depth="3" NCoef="0" IVar="-1" Cut="0.0000000000000000e+00" cType="1" res="-7.6865763403475285e-03" rms="4.1257092356681824e-01" purity="4.3477568030357361e-01" nType="-99"/>
          </Node>
        </Node>
      </Node>
    </BinaryTree>
    <BinaryTree type="DecisionTree" boostWeight="1.0000000000000000e+00" itree="25">
      <Node pos="s" depth="0" NCoef="0" IVar="8" Cut="1.7953702211380005e+00" cType="1" res="4.4107917346991599e-05" rms="4.3688684701919556e-01" purity="5.0000000000000000e-01" nType="0">
        <Node pos="l" depth="1" NCoef="0" IVar="8" Cut="8.5850685834884644e-02" cType="1" res="3.1570501159876585e-03" rms="4.4373518228530884e-01" purity="5.0062561035156250e-01" nType="0">
          <Node pos="l" depth="2" NCoef="0" IVar="-1" Cut="0.0000000000000000e+00" cType="1" res="-8.5825219750404358e-02" rms="4.5456147193908691e-01" purity="4.7034668922424316e-01" nType="-99"/>
          <Node pos="r" depth="2" NCoef="0" IVar="0" Cut="8.5421035766601562e+01" cType="1" res="6.3798511400818825e-03" rms="4.4266805052757263e-01" purity="5.0315058231353760e-01" nType="0">
            <Node pos="l" depth="3" NCoef="0" IVar="-1" Cut="0.0000000000000000e+00" cType="1" res="3.5080671310424805e-02" rms="4.7423502802848816e-01" purity="5.3647500276565552e-01" nType="-99"/>
            <Node pos="r" depth="3" NCoef="0" IVar="-1" Cut="0.0000000000000000e+00" cType="1" res="-5.3903870284557343e-03" rms="4.1370603442192078e-01" purity="4.7476282715797424e-01" nType="-99"/>
          </Node>
        </Node>
        <Node pos="r" depth="1" NCoef="0" IVar="3" Cut="5.9818297624588013e-01" cType="1" res="-8.6056757718324661e-03" rms="4.1714614629745483e-01" purity="4.9826163053512573e-01" nType="0">
          <Node pos="l" depth="2" NCoef="0" IVar="-1" Cut="0.0000000000000000e+00" cType="1" res="-1.1159806698560715e-01" rms="4.2057377099990845e-01" purity="4.8554220795631409e-01" nType="-99"/>
          <Node pos="r" depth="2" NCoef="0" IVar="10" Cut="2.7401866912841797e+00" cType="1" res="-1.0163092520087957e-04" rms="4.1578808426856995e-01" purity="5.0180083513259888e-01" nType="0">
            <Node pos="l" depth="3" NCoef="0" IVar="-1" Cut="0.0000000000000000e+00" cType="1" res="3.0287645757198334e-02" rms="4.1891381144523621e-01" purity="5.3186899423599243e-01" nType="-99"/>
            <Node pos="r" depth="3" NCoef="0" IVar="-1" Cut="0.0000000000000000e+00" cType="1" res="-8.1668898463249207e-02" rms="4.0681570768356323e-01" purity="4.2832812666893005e-01" nType="-99"/>
          </Node>
        </Node>
      </Node>
    </BinaryTree>
    <BinaryTree type="DecisionTree" boostWeight="1.0000000000000000e+00" itree="26">
      <Node pos="s" depth="0" NCoef="0" IVar="6" Cut="2.2444005012512207e+00" cType="1" res="6.0272453993093222e-05" rms="4.3648108839988708e-01" purity="5.0000000000000000e-01" nType="0">
        <Node pos="l" depth="1" NCoef="0" IVar="6" Cut="2.0306670665740967e+00" cType="1" res="5.9703001752495766e-03" rms="4.3562883138656616e-01" purity="5.0213730335235596e-01" nType="0">
          <Node pos="l" depth="2" NCoef="0" IVar="2" Cut="3.8021287322044373e-01" cType="1" res="-4.5130937360227108e-04" rms="4.3616741895675659e-01" purity="4.9442431330680847e-01" nType="0">
            <Node pos="l" depth="3" NCoef="0" IVar="-1" Cut="0.0000000000000000e+00" cType="1" res="5.7199295610189438e-02" rms="4.6273165941238403e-01" purity="6.1350810527801514e-01" nType="-99"/>
            <Node pos="r" depth="3" NCoef="0" IVar="-1" Cut="0.0000000000000000e+00" cType="1" res="-2.6925325393676758e-02" rms="4.2549091577529907e-01" purity="4.5013007521629333e-01" nType="-99"/>
          </Node>
          <Node pos="r" depth="2" NCoef="0" IVar="7" Cut="1.1346800327301025e+00" cType="1" res="2.5608818978071213e-02" rms="4.3338757753372192e-01" purity="5.2572518587112427e-01" nType="0">
            <Node pos="l" depth="3" NCoef="0" IVar="-1" Cut="0.0000000000000000e+00" cType="1" res="9.1508321464061737e-02" rms="4.3511641025543213e-01" purity="6.4180165529251099e-01" nType="-99"/>
            <Node pos="r" depth="3" NCoef="0" IVar="-1" Cut="0.0000000000000000e+00" cType="1" res="3.8479238748550415e-02" rms="4.3143323063850403e-01" purity="4.1748815774917603e-01" nType="-99"/>
          </Node>
        </Node>
        <Node pos="r" depth="1" NCoef="0" IVar="4" Cut="2.1727528572082520e+00" cType="1" res="-4.2636212892830372e-03" rms="4.3705290555953979e-01" purity="4.9843633174896240e-01" nType="0">
          <Node pos="l" depth="2" NCoef="0" IVar="4" Cut="2.0662884414196014e-01" cType="1" res="-7.1653095073997974e-03" rms="4.4324365258216858e-01" purity="5.2120488882064819e-01" nType="0">
            <Node pos="l" depth="3" NCoef="0" IVar="-1" Cut="0.0000000000000000e+00" cType="1" res="3.2938223332166672e-02" rms="4.5189452171325684e-01" purity="6.0628825426101685e-01" nType="-99"/>
            <Node pos="r" depth="3" NCoef="0" IVar="-1" Cut="0.0000000000000000e+00" cType="1" res="-2.7976226061582565e-02" rms="4.4153901934623718e-01" purity="5.0562769174575806e-01" nType="-99"/>
          </Node>
          <Node pos="r" depth="2" NCoef="0" IVar="-1" Cut="0.0000000000000000e+00" cType="1" res="4.7246549278497696e-02" rms="3.9241680502891541e-01" purity="3.4557178616523743e-01" nType="-99"/>
        </Node>
      </Node>
    </BinaryTree>
    <BinaryTree type="DecisionTree" boostWeight="1.0000000000000000e+00" itree="27">
      <Node pos="s" depth="0" NCoef="0" IVar="5" Cut="9.3409164428710938e+01" cType="1" res="6.7834473156835884e-05" rms="4.3617719411849976e-01" purity="5.0000000000000000e-01" nType="0">
        <Node pos="l" depth="1" NCoef="0" IVar="4" Cut="4.8157551884651184e-01" cType="1" res="-1.2801489792764187e-02" rms="4.6574440598487854e-01" purity="5.9619879722595215e-01" nType="0">
          <Node pos="l" depth="2" NCoef="0" IVar="-1" Cut="0.0000000000000000e+00" cType="1" res="-9.6327617764472961e-02" rms="4.7100070118904114e-01" purity="5.9637135267257690e-01" nType="-99"/>
          <Node pos="r" depth="2" NCoef="0" IVar="-1" Cut="0.0000000000000000e+00" cType="1" res="2.9602117836475372e-02" rms="4.5924144983291626e-01" purity="5.9603601694107056e-01" nType="-99"/>
        </Node>
        <Node pos="r" depth="1" NCoef="0" IVar="6" Cut="1.3472409248352051e+00" cType="1" res="1.7171695362776518e-03" rms="4.3221396207809448e-01" purity="4.8767113685607910e-01" nType="0">
          <Node pos="l" depth="2" NCoef="0" IVar="-1" Cut="0.0000000000000000e+00" cType="1" res="6.4309015870094299e-02" rms="4.3000069260597229e-01" purity="4.6054631471633911e-01" nType="-99"/>
          <Node pos="r" depth="2" NCoef="0" IVar="2" Cut="2.1321178972721100e-01" cType="1" res="-7.7530823182314634e-04" rms="4.3239924311637878e-01" purity="4.9080166220664978e-01" nType="0">
            <Node pos="l" depth="3" NCoef="0" IVar="-1" Cut="0.0000000000000000e+00" cType="1" res="-4.4665314257144928e-02" rms="4.4778567552566528e-01" purity="5.7603704929351807e-01" nType="-99"/>
            <Node pos="r" depth="3" NCoef="0" IVar="-1" Cut="0.0000000000000000e+00" cType="1" res="4.6151564456522465e-03" rms="4.3013495206832886e-01" purity="4.7882702946662903e-01" nType="-99"/>
          </Node>
        </Node>
      </Node>
    </BinaryTree>
    <BinaryTree type="DecisionTree" boostWeight="1.0000000000000000e+00" itree="28">
      <Node pos="s" depth="0" NCoef="0" IVar="6" Cut="8.9866101741790771e-01" cType="1" res="6.4607782405801117e-05" rms="4.3591776490211487e-01" purity="5.0000000000000000e-01" nType="0">
        <Node pos="l" depth="1" NCoef="0" IVar="-1" Cut="0.0000000000000000e+00" cType="1" res="-5.8866988867521286e-02" rms="4.4489777088165283e-01" purity="4.4508510828018188e-01" nType="-99"/>
        <Node pos="r" depth="1" NCoef="0" IVar="3" Cut="4.4890704751014709e-01" cType="1" res="1.3650492765009403e-03" rms="4.3535697460174561e-01" purity="5.0317758321762085e-01" nType="0">
          <Node pos="l" depth="2" NCoef="0" IVar="11" Cut="9.2073762416839600e-01" cType="1" res="1.8501726910471916e-02" rms="4.1728481650352478e-01" purity="5.6969267129898071e-01" nType="0">
            <Node pos="l" depth="3" NCoef="0" IVar="-1" Cut="0.0000000000000000e+00" cType="1" res="-1.2724088504910469e-02" rms="4.2061370611190796e-01" purity="6.3256680965423584e-01" nType="-99"/>
            <Node pos="r" depth="3" NCoef="0" IVar="-1" Cut="0.0000000000000000e+00" cType="1" res="1.0158961266279221e-01" rms="4.1408607363700867e-01" purity="5.2474099397659302e-01" nType="-99"/>
          </Node>
          <Node pos="r" depth="2" NCoef="0" IVar="8" Cut="1.4999374747276306e-01" cType="1" res="-1.3640545075759292e-03" rms="4.3810436129570007e-01" purity="4.9258470535278320e-01" nType="0">
            <Node pos="l" depth="3" NCoef="0" IVar="-1" Cut="0.0000000000000000e+00" cType="1" res="5.5551644414663315e-02" rms="4.5008996129035950e-01" purity="5.0792998075485229e-01" nType="-99"/>
            <Node pos="r" depth="3" NCoef="0" IVar="-1" Cut="0.0000000000000000e+00" cType="1" res="-1.0497041046619415e-02" rms="4.3669378757476807e-01" purity="4.9090957641601562e-01" nType="-99"/>
          </Node>
        </Node>
      </Node>
    </BinaryTree>
    <BinaryTree type="DecisionTree" boostWeight="1.0000000000000000e+00" itree="29">
      <Node pos="s" depth="0" NCoef="0" IVar="10" Cut="1.4961510896682739e+00" cType="1" res="3.6188899684930220e-05" rms="4.3565022945404053e-01" purity="5.0000000000000000e-01" nType="0">
        <Node pos="l" depth="1" NCoef="0" IVar="3" Cut="1.1844859123229980e+00" cType="1" res="-7.2814915329217911e-03" rms="4.3943753838539124e-01" purity="5.2974790334701538e-01" nType="0">
          <Node pos="l" depth="2" NCoef="0" IVar="1" Cut="2.6536324620246887e-01" cType="1" res="-2.2292584180831909e-03" rms="4.3677005171775818e-01" purity="5.4238605499267578e-01" nType="0">
            <Node pos="l" depth="3" NCoef="0" IVar="-1" Cut="0.0000000000000000e+00" cType="1" res="-7.0078276097774506e-02" rms="4.3939429521560669e-01" purity="4.7845718264579773e-01" nType="-99"/>
            <Node pos="r" depth="3" NCoef="0" IVar="-1" Cut="0.0000000000000000e+00" cType="1" res="7.5926692225039005e-03" rms="4.3605613708496094e-01" purity="5.5541920661926270e-01" nType="-99"/>
          </Node>
          <Node pos="r" depth="2" NCoef="0" IVar="-1" Cut="0.0000000000000000e+00" cType="1" res="-8.1162169575691223e-02" rms="4.5181736350059509e-01" purity="4.6586298942565918e-01" nType="-99"/>
        </Node>
        <Node pos="r" depth="1" NCoef="0" IVar="4" Cut="9.3164992332458496e-01" cType="1" res="4.6497150324285030e-03" rms="4.3318191170692444e-01" purity="4.8124504089355469e-01" nType="0">
          <Node pos="l" depth="2" NCoef="0" IVar="9" Cut="2.3442330956459045e-01" cType="1" res="-3.4709579776972532e-03" rms="4.4987311959266663e-01" purity="5.5581074953079224e-01" nType="0">
            <Node pos="l" depth="3" NCoef="0" IVar="-1" Cut="0.0000000000000000e+00" cType="1" res="-1.0536228865385056e-01" rms="4.5873039960861206e-01" purity="5.2229499816894531e-01" nType="-99"/>
            <Node pos="r" depth="3" NCoef="0" IVar="-1" Cut="0.0000000000000000e+00" cType="1" res="1.2642735615372658e-02" rms="4.4751271605491638e-01" purity="5.6284636259078979e-01" nType="-99"/>
          </Node>
          <Node pos="r" depth="2" NCoef="0" IVar="4" Cut="1.4640901088714600e+00" cType="1" res="1.2118381448090076e-02" rms="4.1710224747657776e-01" purity="4.1266626119613647e-01" nType="0">
            <Node pos="l" depth="3" NCoef="0" IVar="-1" Cut="0.0000000000000000e+00" cType="1" res="7.9889081418514252e-02" rms="4.4441705942153931e-01" purity="5.0043725967407227e-01" nType="-99"/>
            <Node pos="r" depth="3" NCoef="0" IVar="-1" Cut="0.0000000000000000e+00" cType="1" res="4.0473714470863342e-03" rms="4.0054488182067871e-01" purity="3.6337628960609436e-01" nType="-99"/>
          </Node>
        </Node>
      </Node>
    </BinaryTree>
    <BinaryTree type="DecisionTree" boostWeight="1.0000000000000000e+00" itree="30">
      <Node pos="s" depth="0" NCoef="0" IVar="11" Cut="9.7912526130676270e-01" cType="1" res="5.7669709349283949e-05" rms="4.3526151776313782e-01" purity="5.0000000000000000e-01" nType="0">
        <Node pos="l" depth="1" NCoef="0" IVar="9" Cut="1.4381158351898193e+00" cType="1" res="7.0170685648918152e-03" rms="4.4807177782058716e-01" purity="5.9398031234741211e-01" nType="0">
          <Node pos="l" depth="2" NCoef="0" IVar="5" Cut="1.2794124603271484e+02" cType="1" res="1.1004861444234848e-02" rms="4.4762474298477173e-01" purity="5.9918731451034546e-01" nType="0">
            <Node pos="l" depth="3" NCoef="0" IVar="-1" Cut="0.0000000000000000e+00" cType="1" res="-2.6617296971380711e-03" rms="4.5362424850463867e-01" purity="6.2919682264328003e-01" nType="-99"/>
            <Node pos="r" depth="3" NCoef="0" IVar="-1" Cut="0.0000000000000000e+00" cType="1" res="5.3950637578964233e-02" rms="4.4179877638816833e-01" purity="5.7184916734695435e-01" nType="-99"/>
          </Node>
          <Node pos="r" depth="2" NCoef="0" IVar="-1" Cut="0.0000000000000000e+00" cType="1" res="-5.3077474236488342e-02" rms="4.5021125674247742e-01" purity="5.5722689628601074e-01" nType="-99"/>
        </Node>
        <Node pos="r" depth="1" NCoef="0" IVar="4" Cut="1.3937926292419434e+00" cType="1" res="-5.4452000185847282e-03" rms="4.2477822303771973e-01" purity="4.2568874359130859e-01" nType="0">
          <Node pos="l" depth="2" NCoef="0" IVar="5" Cut="1.8556988525390625e+02" cType="1" res="-1.5700884163379669e-02" rms="4.4919893145561218e-01" purity="4.9139618873596191e-01" nType="0">
            <Node pos="l" depth="3" NCoef="0" IVar="-1" Cut="0.0000000000000000e+00" cType="1" res="-6.6911689937114716e-02" rms="4.6335688233375549e-01" purity="5.1754289865493774e-01" nType="-99"/>
            <Node pos="r" depth="3" NCoef="0" IVar="-1" Cut="0.0000000000000000e+00" cType="1" res="6.1057168990373611e-02" rms="4.0176063776016235e-01" purity="4.1299861669540405e-01" nType="-99"/>
          </Node>
          <Node pos="r" depth="2" NCoef="0" IVar="5" Cut="1.6997544860839844e+02" cType="1" res="2.3345053195953369e-03" rms="4.0509977936744690e-01" purity="3.7584477663040161e-01" nType="0">
            <Node pos="l" depth="3" NCoef="0" IVar="-1" Cut="0.0000000000000000e+00" cType="1" res="6.6810332238674164e-02" rms="4.5801585912704468e-01" purity="5.6901639699935913e-01" nType="-99"/>
            <Node pos="r" depth="3" NCoef="0" IVar="-1" Cut="0.0000000000000000e+00" cType="1" res="-3.0621951445937157e-02" rms="3.7866145372390747e-01" purity="2.9002290964126587e-01" nType="-99"/>
          </Node>
        </Node>
      </Node>
    </BinaryTree>
    <BinaryTree type="DecisionTree" boostWeight="1.0000000000000000e+00" itree="31">
      <Node pos="s" depth="0" NCoef="0" IVar="7" Cut="6.9207781553268433e-01" cType="1" res="7.2661474405322224e-05" rms="4.3480819463729858e-01" purity="5.0000000000000000e-01" nType="0">
        <Node pos="l" depth="1" NCoef="0" IVar="4" Cut="5.5940395593643188e-01" cType="1" res="7.5398702174425125e-03" rms="4.4656467437744141e-01" purity="6.1263048648834229e-01" nType="0">
          <Node pos="l" depth="2" NCoef="0" IVar="7" Cut="4.2845329642295837e-01" cType="1" res="2.7068044990301132e-02" rms="4.4172200560569763e-01" purity="6.3801354169845581e-01" nType="0">
            <Node pos="l" depth="3" NCoef="0" IVar="-1" Cut="0.0000000000000000e+00" cType="1" res="1.6141062602400780e-02" rms="4.4393059611320496e-01" purity="6.2070226669311523e-01" nType="-99"/>
            <Node pos="r" depth="3" NCoef="0" IVar="-1" Cut="0.0000000000000000e+00" cType="1" res="1.7009669542312622e-01" rms="4.3433672189712524e-01" purity="6.7284452915191650e-01" nType="-99"/>
          </Node>
          <Node pos="r" depth="2" NCoef="0" IVar="3" Cut="1.4988105297088623e+00" cType="1" res="-1.8479214981198311e-02" rms="4.5162639021873474e-01" purity="5.7881051301956177e-01" nType="0">
            <Node pos="l" depth="3" NCoef="0" IVar="-1" Cut="0.0000000000000000e+00" cType="1" res="2.9112966731190681e-02" rms="4.4031938910484314e-01" purity="6.0972678661346436e-01" nType="-99"/>
            <Node pos="r" depth="3" NCoef="0" IVar="-1" Cut="0.0000000000000000e+00" cType="1" res="-1.0577009618282318e-01" rms="4.5971754193305969e-01" purity="5.5161625146865845e-01" nType="-99"/>
          </Node>
        </Node>
        <Node pos="r" depth="1" NCoef="0" IVar="2" Cut="1.0608117580413818e+00" cType="1" res="-3.0077812261879444e-03" rms="4.2982682585716248e-01" purity="4.5353659987449646e-01" nType="0">
          <Node pos="l" depth="2" NCoef="0" IVar="2" Cut="5.5622887611389160e-01" cType="1" res="-8.8891470804810524e-03" rms="4.5554691553115845e-01" purity="5.4594117403030396e-01" nType="0">
            <Node pos="l" depth="3" NCoef="0" IVar="-1" Cut="0.0000000000000000e+00" cType="1" res="6.0418364591896534e-04" rms="4.5595565438270569e-01" purity="5.6374609470367432e-01" nType="-99"/>
            <Node pos="r" depth="3" NCoef="0" IVar="-1" Cut="0.0000000000000000e+00" cType="1" res="-4.6622354537248611e-02" rms="4.5484900474548340e-01" purity="5.2545964717864990e-01" nType="-99"/>
          </Node>
          <Node pos="r" depth="2" NCoef="0" IVar="0" Cut="1.5796180725097656e+02" cType="1" res="6.8239630199968815e-03" rms="3.8279151916503906e-01" purity="2.9906603693962097e-01" nType="0">
            <Node pos="l" depth="3" NCoef="0" IVar="-1" Cut="0.0000000000000000e+00" cType="1" res="6.0602776706218719e-02" rms="4.5745903253555298e-01" purity="4.4555968046188354e-01" nType="-99"/>
            <Node pos="r" depth="3" NCoef="0" IVar="-1" Cut="0.0000000000000000e+00" cType="1" res="-2.5303924083709717e-01" rms="1.8098586797714233e-01" purity="3.6814015358686447e-02" nType="-99"/>
          </Node>
        </Node>
      </Node>
    </BinaryTree>
    <BinaryTree type="DecisionTree" boostWeight="1.0000000000000000e+00" itree="32">
      <Node pos="s" depth="0" NCoef="0" IVar="11" Cut="3.2648718357086182e-01" cType="1" res="-1.5641310892533511e-04" rms="4.3386125564575195e-01" purity="5.0000000000000000e-01" nType="0">
        <Node pos="l" depth="1" NCoef="0" IVar="7" Cut="9.3083411455154419e-01" cType="1" res="-1.2300687842071056e-02" rms="4.4185322523117065e-01" purity="6.0689765214920044e-01" nType="0">
          <Node pos="l" depth="2" NCoef="0" IVar="-1" Cut="0.0000000000000000e+00" cType="1" res="-8.3689682185649872e-02" rms="4.4516247510910034e-01" purity="6.0822319984436035e-01" nType="-99"/>
          <Node pos="r" depth="2" NCoef="0" IVar="-1" Cut="0.0000000000000000e+00" cType="1" res="4.5997165143489838e-02" rms="4.3518188595771790e-01" purity="6.0498774051666260e-01" nType="-99"/>
        </Node>
        <Node pos="r" depth="1" NCoef="0" IVar="8" Cut="1.4993193745613098e-01" cType="1" res="2.1021761931478977e-03" rms="4.3232101202011108e-01" purity="4.8011919856071472e-01" nType="0">
          <Node pos="l" depth="2" NCoef="0" IVar="-1" Cut="0.0000000000000000e+00" cType="1" res="-5.1681492477655411e-02" rms="4.5098960399627686e-01" purity="4.6570640802383423e-01" nType="-99"/>
          <Node pos="r" depth="2" NCoef="0" IVar="7" Cut="9.2274528741836548e-01" cType="1" res="4.5047183521091938e-03" rms="4.3025368452072144e-01" purity="4.8162439465522766e-01" nType="0">
            <Node pos="l" depth="3" NCoef="0" IVar="-1" Cut="0.0000000000000000e+00" cType="1" res="3.5092800855636597e-02" rms="4.4264593720436096e-01" purity="6.0286295413970947e-01" nType="-99"/>
            <Node pos="r" depth="3" NCoef="0" IVar="-1" Cut="0.0000000000000000e+00" cType="1" res="-1.4300200855359435e-03" rms="4.2362543940544128e-01" purity="4.1901630163192749e-01" nType="-99"/>
          </Node>
        </Node>
      </Node>
    </BinaryTree>
    <BinaryTree type="DecisionTree" boostWeight="1.0000000000000000e+00" itree="33">
      <Node pos="s" depth="0" NCoef="0" IVar="8" Cut="4.4915309548377991e-01" cType="1" res="9.1855734353885055e-05" rms="4.3358492851257324e-01" purity="5.0000000000000000e-01" nType="0">
        <Node pos="l" depth="1" NCoef="0" IVar="1" Cut="2.9750269651412964e-01" cType="1" res="8.5283759981393814e-03" rms="4.4518312811851501e-01" purity="4.8092952370643616e-01" nType="0">
          <Node pos="l" depth="2" NCoef="0" IVar="-1" Cut="0.0000000000000000e+00" cType="1" res="7.7274709939956665e-02" rms="4.4724789261817932e-01" purity="4.9914637207984924e-01" nType="-99"/>
          <Node pos="r" depth="2" NCoef="0" IVar="10" Cut="1.0469475984573364e+00" cType="1" res="4.2016932275146246e-04" rms="4.4416767358779907e-01" purity="4.7449013590812683e-01" nType="0">
            <Node pos="l" depth="3" NCoef="0" IVar="-1" Cut="0.0000000000000000e+00" cType="1" res="6.2060374766588211e-02" rms="4.2877316474914551e-01" purity="5.4351580142974854e-01" nType="-99"/>
            <Node pos="r" depth="3" NCoef="0" IVar="-1" Cut="0.0000000000000000e+00" cType="1" res="-3.0893044546246529e-02" rms="4.5171380043029785e-01" purity="4.3726232647895813e-01" nType="-99"/>
          </Node>
        </Node>
        <Node pos="r" depth="1" NCoef="0" IVar="10" Cut="8.9850175380706787e-01" cType="1" res="-2.8874136041849852e-03" rms="4.2937472462654114e-01" purity="5.0673454999923706e-01" nType="0">
          <Node pos="l" depth="2" NCoef="0" IVar="7" Cut="1.6198178529739380e+00" cType="1" res="-2.1369066089391708e-02" rms="4.2695000767707825e-01" purity="5.2968221902847290e-01" nType="0">
            <Node pos="l" depth="3" NCoef="0" IVar="-1" Cut="0.0000000000000000e+00" cType="1" res="-1.1343758553266525e-01" rms="4.3275398015975952e-01" purity="6.0268729925155640e-01" nType="-99"/>
            <Node pos="r" depth="3" NCoef="0" IVar="-1" Cut="0.0000000000000000e+00" cType="1" res="2.2385420277714729e-02" rms="4.1697892546653748e-01" purity="4.2790666222572327e-01" nType="-99"/>
          </Node>
          <Node pos="r" depth="2" NCoef="0" IVar="10" Cut="1.3257733583450317e+00" cType="1" res="1.0859902249649167e-03" rms="4.2979043722152710e-01" purity="5.0180101394653320e-01" nType="0">
            <Node pos="l" depth="3" NCoef="0" IVar="-1" Cut="0.0000000000000000e+00" cType="1" res="7.0794820785522461e-02" rms="4.4556343555450439e-01" purity="5.5975019931793213e-01" nType="-99"/>
            <Node pos="r" depth="3" NCoef="0" IVar="-1" Cut="0.0000000000000000e+00" cType="1" res="-6.8454253487288952e-03" rms="4.2739513516426086e-01" purity="4.9362578988075256e-01" nType="-99"/>
          </Node>
        </Node>
      </Node>
    </BinaryTree>
    <BinaryTree type="DecisionTree" boostWeight="1.0000000000000000e+00" itree="34">
      <Node pos="s" depth="0" NCoef="0" IVar="7" Cut="2.3074284195899963e-01" cType="1" res="1.0705589374992996e-04" rms="4.3313089013099670e-01" purity="5.0000000000000000e-01" nType="0">
        <Node pos="l" depth="1" NCoef="0" IVar="-1" Cut="0.0000000000000000e+00" cType="1" res="3.2899901270866394e-02" rms="4.4891753792762756e-01" purity="6.1316674947738647e-01" nType="-99"/>
        <Node pos="r" depth="1" NCoef="0" IVar="4" Cut="6.9671398401260376e-01" cType="1" res="-1.3796818675473332e-03" rms="4.3133661150932312e-01" purity="4.8757582902908325e-01" nType="0">
          <Node pos="l" depth="2" NCoef="0" IVar="6" Cut="1.7971140146255493e+00" cType="1" res="-9.6812592819333076e-03" rms="4.4254761934280396e-01" purity="5.8403426408767700e-01" nType="0">
            <Node pos="l" depth="3" NCoef="0" IVar="-1" Cut="0.0000000000000000e+00" cType="1" res="-9.6669778227806091e-02" rms="4.6034106612205505e-01" purity="5.8041518926620483e-01" nType="-99"/>
            <Node pos="r" depth="3" NCoef="0" IVar="-1" Cut="0.0000000000000000e+00" cType="1" res="-5.1236348226666451e-03" rms="4.3759766221046448e-01" purity="5.8494997024536133e-01" nType="-99"/>
          </Node>
          <Node pos="r" depth="2" NCoef="0" IVar="11" Cut="6.5318560600280762e-01" cType="1" res="3.3300737850368023e-03" rms="4.2477262020111084e-01" purity="4.3285179138183594e-01" nType="0">
            <Node pos="l" depth="3" NCoef="0" IVar="-1" Cut="0.0000000000000000e+00" cType="1" res="7.2294376790523529e-02" rms="4.4493994116783142e-01" purity="5.9809017181396484e-01" nType="-99"/>
            <Node pos="r" depth="3" NCoef="0" IVar="-1" Cut="0.0000000000000000e+00" cType="1" res="6.2888616230338812e-04" rms="4.2233157157897949e-01" purity="4.1427087783813477e-01" nType="-99"/>
          </Node>
        </Node>
      </Node>
    </BinaryTree>
    <BinaryTree type="DecisionTree" boostWeight="1.0000000000000000e+00" itree="35">
      <Node pos="s" depth="0" NCoef="0" IVar="6" Cut="2.0948739051818848e+00" cType="1" res="7.3544622864574194e-05" rms="4.3293142318725586e-01" purity="5.0000000000000000e-01" nType="0">
        <Node pos="l" depth="1" NCoef="0" IVar="6" Cut="1.3964725732803345e+00" cType="1" res="5.9549300931394100e-03" rms="4.3272703886032104e-01" purity="4.9917820096015930e-01" nType="0">
          <Node pos="l" depth="2" NCoef="0" IVar="2" Cut="7.6004892587661743e-01" cType="1" res="-1.2330991216003895e-02" rms="4.3776756525039673e-01" purity="4.5839732885360718e-01" nType="0">
            <Node pos="l" depth="3" NCoef="0" IVar="-1" Cut="0.0000000000000000e+00" cType="1" res="-7.1548439562320709e-02" rms="4.6467188000679016e-01" purity="5.3963011503219604e-01" nType="-99"/>
            <Node pos="r" depth="3" NCoef="0" IVar="-1" Cut="0.0000000000000000e+00" cType="1" res="3.2478474080562592e-02" rms="4.0098956227302551e-01" purity="3.5824882984161377e-01" nType="-99"/>
          </Node>
          <Node pos="r" depth="2" NCoef="0" IVar="6" Cut="1.7286444902420044e+00" cType="1" res="1.5556774102151394e-02" rms="4.2974519729614258e-01" purity="5.2059203386306763e-01" nType="0">
            <Node pos="l" depth="3" NCoef="0" IVar="-1" Cut="0.0000000000000000e+00" cType="1" res="9.6099369227886200e-02" rms="4.1556730866432190e-01" purity="5.2797710895538330e-01" nType="-99"/>
            <Node pos="r" depth="3" NCoef="0" IVar="-1" Cut="0.0000000000000000e+00" cType="1" res="8.6871907114982605e-03" rms="4.3742150068283081e-01" purity="5.1624029874801636e-01" nType="-99"/>
          </Node>
        </Node>
        <Node pos="r" depth="1" NCoef="0" IVar="6" Cut="2.2942569255828857e+00" cType="1" res="-3.0708652921020985e-03" rms="4.3300789594650269e-01" purity="5.0043934583663940e-01" nType="0">
          <Node pos="l" depth="2" NCoef="0" IVar="-1" Cut="0.0000000000000000e+00" cType="1" res="-6.1214525252580643e-02" rms="4.2713692784309387e-01" purity="5.0059801340103149e-01" nType="-99"/>
          <Node pos="r" depth="2" NCoef="0" IVar="6" Cut="2.4960348606109619e+00" cType="1" res="5.1996373804286122e-04" rms="4.3396195769309998e-01" purity="5.0041073560714722e-01" nType="0">
            <Node pos="l" depth="3" NCoef="0" IVar="-1" Cut="0.0000000000000000e+00" cType="1" res="4.0790997445583344e-02" rms="4.4065535068511963e-01" purity="5.2845513820648193e-01" nType="-99"/>
            <Node pos="r" depth="3" NCoef="0" IVar="-1" Cut="0.0000000000000000e+00" cType="1" res="-9.6692498773336411e-03" rms="4.3200579285621643e-01" purity="4.9268236756324768e-01" nType="-99"/>
          </Node>
        </Node>
      </Node>
    </BinaryTree>
    <BinaryTree type="DecisionTree" boostWeight="1.0000000000000000e+00" itree="36">
      <Node pos="s" depth="0" NCoef="0" IVar="2" Cut="1.0600994825363159e+00" cType="1" res="7.0361173129640520e-05" rms="4.3262407183647156e-01" purity="5.0000000000000000e-01" nType="0">
        <Node pos="l" depth="1" NCoef="0" IVar="7" Cut="2.1620485782623291e+00" cType="1" res="3.7824111059308052e-03" rms="4.4805040955543518e-01" purity="5.7879292964935303e-01" nType="0">
          <Node pos="l" depth="2" NCoef="0" IVar="9" Cut="7.0197170972824097e-01" cType="1" res="7.3601054027676582e-03" rms="4.4717076420783997e-01" purity="6.0351812839508057e-01" nType="0">
            <Node pos="l" depth="3" NCoef="0" IVar="-1" Cut="0.0000000000000000e+00" cType="1" res="3.8126006722450256e-02" rms="4.5083084702491760e-01" purity="5.9751278162002563e-01" nType="-99"/>
